svm_type c_svc
kernel_type rbf
gamma 0.01
nr_class 2
total_sv 215
rho 0.142857
label 0 1
nr_sv 104 111
SV
1 1:-2.2718133e-12 2:259.28264 3:2.7006956e-12 4:-7.5344083e-12 5:2.9242488e-18 6:7.3005456e-14 7:1.4578032e-12 8:-3.2461912e-28 9:10392.954 11:1.0760451e-25 12:-5.1581791e-24 13:-7.3488704e-14 14:2.415321e-12 15:4.0945877e-16 16:-1.2135933e-23 17:7.7296691e-25 20:-3.7426507e-34 21:1.0704796e-11 22:-1.347274e-28 23:-2.8618644e-12 24:-2.6151535e-32 26:-4.0599804e-24 27:2.9765917e-13 30:-2.1272859e-24 32:-2.2176245e-24 33:-5.1026472e-27 34:-4.7233427e-24 35:-2.9656432e-25 36:1.9888801e-13 37:3636.1102 38:-1.93048e-12 39:-7.7150404e-24 45:3.9792396e-12 46:2.6403693e-13 47:-1.300869e-16 48:7.1110607e-13 49:-7101.4947 50:-4.2289462e-25 51:-2.253141e-26 52:-1.1880723e-12 54:-6.5543206e-13 63:1.7022977e-31 74:-9.3218042e-13 87:3.7086269e-13 96:356.25191 97:1.1604003e-15 98:-2.9407143e-13 99:2.6706018e-13 100:1.2590137e-27 
1 1:-8.0176975e-13 2:-9.7210111e-16 3:4.4109412e-13 4:2.0830816e-12 5:1.2319541e-12 6:3.5878225e-12 7:-1.6470146e-12 8:3.3126661e-13 9:-1.405091e-16 10:5.0354284e-27 11:8.7555384e-13 12:-3.0193712e-12 13:-1.9644564e-12 14:-6.3060271e-12 15:-3.1211498e-12 16:4.3716308e-14 17:-2.0169834e-12 18:4.2154755e-26 19:8.4740918e-28 20:-5.955733e-14 21:-3.4024314e-12 22:-1.1869415e-13 23:-6.4972954e-12 24:-4.8370576e-13 25:-3.0854282e-25 26:-3.9515299e-13 27:-2.2095617e-12 28:1.451044e-13 29:-4.5928329e-13 30:5.9259322e-13 31:3.0357386e-13 32:2.0986161e-12 33:2.0949357e-13 34:4.4448037e-12 35:-5.2018303e-12 36:-3.3428174e-11 37:-7.613193e-15 38:4.4954738e-11 39:4.6166923e-12 40:7.2485406e-13 41:4.6684935e-14 42:-2.1453173e-13 43:5.4040098e-28 44:-4.8888489e-14 45:6.6366039e-11 46:-6.0225118e-11 47:-2.517898 48:13763.819 49:-1.4006644e-14 50:2.6645123e-12 51:-2.3656123e-12 52:9.670481e-12 53:3.9252311e-13 54:6.5729653e-12 55:1.9626156e-13 56:1.1775693e-12 57:1.0794386e-12 58:4.9640374e-12 59:-8.8317701e-13 60:3.9252311e-12 62:-2.3551387e-12 63:-6.7710237e-12 64:2.5759329e-13 65:-5.1028005e-12 66:-6.0841083e-12 67:-1.0794386e-12 68:2.7476618e-12 69:2.1734434e-13 70:3.6308388e-12 71:2.085279e-13 72:-4.9065389e-13 73:4.9065389e-13 74:2.3614368e-11 75:1.5332934e-12 76:1.9626156e-12 77:-5.299062e-12 78:-4.7654759e-12 79:4.7838755e-12 80:2.2294086e-12 81:-3.1401849e-12 82:-1.9626156e-13 83:9.8130779e-13 84:-8.0467239e-12 85:-5.1028005e-12 86:-9.8130779e-13 87:-1.2406364e-11 88:2.8457926e-12 89:1.7172886e-13 90:-1.4719617e-12 91:7.8504623e-13 92:-4.7936702e-27 93:4.9065389e-13 94:7.8504623e-13 95:-5.8878467e-13 96:-5.393296e-12 97:4.123913e-12 98:1.3497244e-11 99:-6.6520641e-12 100:4.1138967e-13 
1 1:-1.7889722e-13 2:9346.0869 3:1.067784e-10 4:-6.4560428e-12 5:-1.7340318e-13 6:1.0016511e-12 7:-3.3853769e-13 8:1.7976267e-13 9:-475.2796 10:-3.0296901e-13 11:-1.2591138e-12 12:-4.7585825e-13 13:6.8111294e-13 14:3.0037021e-12 15:-6.1554816e-13 16:1.6710099e-12 17:2.0551007e-13 18:2.5702535e-14 19:5.2776833e-14 20:3.9568829e-13 21:-1.9687185e-12 22:-1.5933824e-12 23:-5.7907436e-12 24:-8.3283476e-13 25:2.1435557e-13 26:4.5324698e-13 27:8.8947199e-13 28:-5.0807306e-13 29:-5.8515722e-13 30:2.7337254e-13 31:1.3757438e-12 32:6.580404e-13 33:-6.6092286e-13 34:2.8805996e-14 35:6.0073711e-13 36:-8.3825834e-13 37:-223.89838 38:-6.2693436e-13 39:-6.7449885e-13 40:1.1582237e-12 41:-3.0237974e-13 42:3.7277577e-13 43:-1.7597597e-13 44:-1.0765425e-13 45:-2.9423085e-12 46:4.6315407e-13 47:1.9863947e-13 48:1.2531961e-12 49:-228.41596 50:-5.2047808e-13 51:4.1024104e-13 52:-1.0234811e-12 53:-1.6988172e-12 54:-1.3566079e-12 55:1.2656608e-12 56:4.7543734e-14 57:-1.0694256e-12 58:-1.6456003e-13 59:1.8016116e-13 60:-1.1488518e-12 61:-9.4719486e-13 62:-2.0337821e-14 63:-1.0822051e-12 64:-1.3503849e-12 65:2.8076869e-13 66:-8.6479531e-13 67:-3.9674058e-13 68:4.9622855e-14 69:2.0850436e-12 70:-9.6023312e-13 71:-1.4106939e-12 72:3.8968969e-13 73:9.4946907e-13 74:-1.9122469e-12 75:-1.8051354e-13 76:8.2691323e-13 77:4.2724465e-13 78:-6.1358833e-13 79:-5.8822471e-13 80:-3.1700434e-13 81:4.4008781e-13 82:8.0087475e-13 83:-4.0005565e-13 84:-1.1341064e-12 85:1.7617814e-12 86:5.2551119e-13 87:3.2262268e-13 88:4.1970982e-13 89:-1.0786956e-13 90:-5.6477191e-13 91:2.4435718e-13 92:3.6546209e-13 93:-1.9430466e-13 94:-2.142575e-13 95:9.2985951e-14 96:-55.799222 97:4.2008591e-13 98:-2.0964902e-13 99:7.4069305e-13 100:1.7398893e-13 
1 1:7.1397746e-15 3:-3.1024266e-15 4:9.3651522e-14 5:3.2763202e-13 6:2.0328061e-12 7:8.4047908e-14 8:-3.4718789e-14 10:1.8251077e-12 11:-1.6412053e-12 12:-4.1040915e-13 13:3.6710494e-12 14:-3.0266613e-13 15:1.2463634e-12 16:1.8907083e-12 17:-1.5851526e-13 18:1.4362648e-13 19:-1.3148174e-13 20:4.2827311e-12 21:-1.0968854e-12 22:2.2861354e-12 23:2.7149316e-13 24:3.5850325e-12 25:1.2303552e-12 26:2.2807095e-13 27:7.9437848e-13 28:6.208946e-12 29:-5.1550029e-13 30:-3.1332645e-12 31:-1.2324809e-12 32:-2.611715e-13 33:-8.913172e-16 34:2.086778e-12 35:1.4866623e-12 36:-9.5882448e-13 38:4.8550588e-13 39:3.6582529e-12 40:1.7836555e-12 41:1.0443345e-12 42:-1.1230315e-12 43:-7.5147373e-13 44:1.0107759e-12 45:-1.9229627e-12 46:2.789146e-12 47:1.5716445e-12 48:1.0595827e-12 50:-5.0763147e-13 51:1.4240518e-12 52:3.4861479e-12 53:-5.6355823e-12 54:9.5754174e-13 55:1.2416492e-12 56:-6.4423257e-12 57:-2.8737706e-12 58:2.8224261e-12 59:-1.0756863e-12 60:-7.2618559e-13 61:9.7988129e-13 62:3.4192252e-12 63:-4.0845333e-12 64:1.9865585e-12 65:3.9301347e-12 66:-4.4901875e-12 67:6.289657e-12 68:-2.1197908e-12 69:-1.4228104e-12 70:1.5908349e-12 71:-2.8873305e-12 72:-3.5341708e-12 73:2.7677874e-12 74:9.2610922e-13 75:3.1211762e-12 76:4.3894211e-12 77:4.3273242e-12 78:-4.181507e-12 79:-1.8977755e-12 80:-3.0127923e-13 81:2.3650738e-13 82:2.6090954e-12 83:-6.863289e-12 84:2.3684791e-12 85:-1.2427884e-12 86:1.2648454e-11 87:-2.8227932e-12 88:1.733475e-12 89:2.7881246e-12 90:-3.6329848e-12 91:1.629289e-12 92:7.1358663e-12 93:-1.8025436e-12 94:2.4743813e-12 95:-7.0972442e-13 96:-5.4745247e-26 97:1.0992673e-12 98:2.2474806e-12 99:6.3687185e-12 100:1.3973113e-12 
1 1:-4.773844e-13 2:1.1256697e-17 3:1.6877473e-13 4:3.2082963e-13 5:1.0192972e-11 6:-2.5410077e-13 7:1.7439941e-12 8:1.4592015e-12 9:1.0531632e-18 10:-8.8600903e-24 11:3.6289623e-12 12:3.8687261e-12 13:-1.2971041e-10 14:-2.9963947e-11 15:-19318.517 16:-2.7196207e-10 17:1.2295227e-12 18:-1.491953e-25 19:3.4938737e-28 20:-2.0628938e-12 21:2.7422135e-13 22:-2.8123638e-13 23:4.3438906e-12 24:-8.2455057e-13 25:-1.1837813e-23 26:-1.8789786e-13 27:1.6549552e-12 28:-1.0410549e-12 29:2.608893e-12 30:2.4478294e-12 31:3.4262891e-12 32:1.5182374e-12 33:-4.0103409e-13 34:4.0253155e-12 35:5.8303384e-13 36:-3.9095295e-11 37:2.8920345e-16 38:8.7391059e-12 39:3.5653576e-12 40:-8.9502932e-13 41:-8.3817561e-14 42:-1.8297739e-13 43:6.060457e-28 44:7.3300283e-14 45:1.9229627e-12 46:4.6485766e-12 47:1.394759e-12 48:-3.5927572e-12 49:5.3788081e-16 50:-1.4684193e-12 51:-8.7717883e-15 52:-5.1849172e-12 53:1.961518e-13 54:-5.4953236e-12 55:-3.9499308e-13 56:5.4015845e-13 57:-2.7021095e-13 58:8.6087262e-13 59:3.6874138e-13 60:1.0965897e-12 61:5.5776852e-14 62:-3.7309859e-13 63:-1.4542469e-12 64:5.1964331e-13 65:-4.9278777e-13 66:-2.8999305e-12 67:-3.6610711e-13 68:5.1111381e-13 69:-9.2909742e-14 70:4.7645102e-13 71:9.9505439e-13 72:1.2028827e-12 73:2.7430716e-13 74:-3.7289696e-12 75:7.3908203e-13 76:5.0338051e-14 77:-7.0945914e-13 78:-4.3940083e-13 79:9.0261709e-13 80:4.6816155e-13 81:-1.0772643e-12 82:-2.7082073e-13 83:9.1113744e-13 84:1.0041349e-12 85:-4.9566616e-16 86:-1.4715494e-12 87:-1.6682232e-12 88:-2.2906622e-13 89:2.3726248e-13 90:4.3527246e-13 91:3.9619842e-13 92:-4.0937758e-27 93:2.669567e-13 94:1.8628137e-12 95:-6.4045213e-13 96:4.1161112e-14 97:1.2023899e-12 98:-1.4421334e-11 99:-9.2720196e-12 100:5.4629178e-13 
1 3:5.9174091e-21 4:1.4290088e-18 5:-8.1210317e-13 6:1.3234415e-15 7:-8.2078035e-17 8:3.9344229e-13 10:-4.2177752e-12 11:-3.619238e-12 12:-3.766447e-13 13:-1.5296039e-13 14:-7.0937373e-15 15:2.8556516e-12 16:3.9896531e-12 17:9.4515404e-13 18:-8.5908578e-13 19:2.650798e-14 20:2.9914034e-12 21:-1.7138834e-13 22:-3.3321517e-12 23:-9.5022606e-13 24:5.6744156e-13 25:3.8129251e-12 26:6.8789351e-14 27:-5.8254422e-12 28:1.2837725e-12 29:-2.8555022e-12 30:5.4977435e-13 31:-5.0786034e-12 32:9.8203235e-14 33:-1.3697569e-13 34:-3.2049866e-13 35:-1.8568152e-13 36:-3.2167015e-12 38:1.9420235e-12 39:1.1215075e-12 40:-2.9935611e-15 41:3.5304855e-12 42:-1.65349e-12 43:8.4391357e-14 44:7.4184684e-13 46:1.8594306e-12 47:-9.2472272e-13 48:8.9818929e-13 50:3.6288312e-12 51:-9.2776664e-13 52:4.1479337e-13 53:-5.9829262e-13 54:-7.0654161e-12 55:3.7722264e-12 56:-3.6042947e-12 57:1.1054887e-12 58:5.7962821e-13 59:2.138323e-12 60:3.0148138e-12 61:2.4842187e-12 62:1.1114824e-12 63:-3.9275091e-12 64:1.2361593e-11 65:1.9675453e-12 66:-5.8927403e-12 67:5.9545812e-12 68:5.0327351e-12 69:1.3853315e-12 70:-1.5657596e-12 71:-1.6776098e-13 72:-3.650254e-12 73:-2.7734979e-12 74:5.4953236e-12 75:1.8984872e-12 76:-3.1669416e-12 77:-8.8567809e-12 78:6.2117087e-12 79:-5.510493e-12 80:2.9272647e-12 81:3.3406122e-12 82:-1.907417e-12 83:-3.48262e-12 84:2.5108379e-12 85:-1.5688951e-12 86:3.8147952e-13 87:-1.1775693e-12 88:5.366561e-12 89:-7.4239355e-12 90:-2.6813725e-12 91:-1.2365824e-12 92:-3.134816e-13 93:2.6443554e-13 94:-6.0018846e-12 95:2.941276e-12 96:-2.7372623e-27 97:5.199524e-13 98:4.4949611e-12 99:-1.8544039e-12 100:-8.059478e-13 
1 1:-3.6163794e-12 2:31.626503 3:-3.8605091e-13 4:-1.3988702e-11 5:7.8573699e-13 6:1.2903555e-14 7:2.9856296e-12 8:6.9816505e-29 9:2874.3106 10:2.0681224e-27 11:2.4543459e-25 12:6.6926128e-24 13:-1.0707227e-12 14:7.8196631e-12 15:7.4642684e-14 16:1.218382e-23 17:-4.9125374e-13 18:-1.2711138e-28 19:4.3092683e-29 20:2.0938908e-27 21:2.1560653e-11 22:9.0281527e-28 23:-3.6651577e-12 24:1.9173128e-27 25:-5.9529775e-28 26:4.1217794e-24 27:-2.1183426e-12 28:3.2676961e-27 29:-7.83954e-28 30:2.0406835e-24 31:4.916511e-13 32:2.2617747e-13 33:1.220033e-27 34:1.6048067e-14 35:2.8429565e-25 36:-7.4231573e-13 37:3361.4159 38:-4.3695529e-12 39:-2.7274221e-12 40:-2.56818e-13 41:-6.7906753e-14 42:4.5951517e-14 43:3.6005883e-28 44:2.2797255e-14 45:1.1057035e-11 46:3.7188613e-12 47:3.2892674e-16 48:-8.9818929e-13 49:-11684.695 50:4.2615853e-25 51:1.7489295e-26 52:4.0960846e-12 53:-3.4767288e-13 54:5.1028005e-12 55:-2.8732284e-14 56:1.3251757e-13 57:7.5056401e-14 58:3.9068896e-13 59:5.4006483e-14 60:1.6914851e-13 61:7.2948208e-14 62:-8.6413989e-14 63:-7.2818868e-13 64:-2.1979415e-13 65:-3.7958765e-13 66:-7.267088e-13 67:1.9472034e-14 68:2.5067404e-13 69:-2.3382208e-14 70:2.8518571e-13 71:-1.1272039e-13 72:-3.2356634e-13 73:-1.6224895e-13 74:1.0205601e-11 75:1.9811491e-13 76:2.8644552e-13 77:-4.4003378e-13 78:-6.9348608e-13 79:3.5099601e-13 80:-6.807579e-15 81:-2.4257065e-13 82:-1.1495638e-13 83:-4.1155618e-13 84:-1.6958121e-13 85:-4.3695388e-13 86:1.6813657e-13 87:-4.7102774e-12 88:-2.4862398e-14 89:3.971855e-13 90:-4.6891306e-13 91:1.8096888e-13 92:-2.6623935e-27 93:-3.482092e-14 94:-6.1306892e-14 95:4.8275087e-13 96:-4841.982 97:4.845011e-13 98:-6.7424417e-12 99:4.8214502e-12 100:1.5527988e-26 
0.140625 3:-8.8176267e-29 5:-8.6080621e-13 6:1.2621322e-21 7:-1.5655143e-22 8:-2.3577352e-12 10:3.2965469e-13 11:8.5328681e-13 12:-8.864906e-13 13:-2.3339903e-18 14:2.8864491e-19 15:1.8867961e-12 16:5.1284439e-12 17:-2.8755074e-12 18:1.1635161e-12 19:4.313304e-13 20:-4.8228677e-12 21:-1.3389714e-16 22:-6.0755646e-13 24:-3.3175579e-13 25:-1.5716211e-12 26:-2.516214e-12 27:1.6549552e-14 28:-9.1120237e-13 29:2.3867899e-12 30:-1.5738569e-12 31:9.291799e-14 32:-2.5225115e-12 33:2.4126753e-12 34:1.5170977e-12 35:-1.3942707e-12 36:-5.9385258e-12 38:1.2137647e-13 39:-2.7745301e-12 40:1.0985676e-13 41:1.0666434e-12 42:9.4974451e-13 43:1.4316513e-13 44:1.4225041e-12 45:-6.0092584e-14 46:-6.9728649e-13 47:-9.7894081e-12 48:-2.2454732e-12 50:-5.9486366e-12 51:-9.1210009e-12 52:-2.4887602e-12 53:1835.627 54:-740.20537 55:-262.31291 56:-820.64891 57:-77.27296 58:1727.4717 59:306.49797 60:-967.38496 61:-859.39607 62:-2836.4212 63:1517.2332 64:-1754.2518 65:-1379.7123 66:-3098.4151 67:-2074.0601 68:1532.4296 69:-695.60166 70:-678.12956 71:1482.3475 72:487.83144 73:-1747.1696 74:786.6567 75:-1846.9643 76:-282.3201 77:1481.3222 78:1324.0908 79:-390.17532 80:1014.9716 81:1386.3315 82:313.08418 83:-3034.8176 84:-1493.3544 85:1757.8577 86:-1610.4728 87:669.11999 88:2989.6869 89:-1641.8411 90:-1162.5689 91:-2913.8202 92:-1.0836224e-12 93:343.99311 94:319.61319 95:1429.7065 97:3.6144632e-12 98:7.4916018e-13 99:7.4176157e-13 100:-2.3417817e-12 
1 3:2.5832891e-31 4:6.6543408e-28 5:2.8806064e-12 6:-1.2325509e-23 7:-1.834587e-24 8:-3.5104948e-13 10:-5.4432868e-12 11:-4.1890321e-13 12:-1.904551e-12 13:-1.7504927e-18 14:-1.4432246e-19 15:-2.415099e-12 16:2.736712e-12 17:-2.6699389e-12 18:4.4039684e-10 19:1.8262115e-15 20:-1.4460791e-13 22:1.129495e-11 23:6.628251e-17 24:-7.1950846e-12 25:-2.002438e-11 26:-1.1820707e-11 27:2.4824328e-14 28:4580.9945 29:-8889.0095 30:0.54638088 31:-9.0018778e-11 32:2.808562e-12 33:2.5306107e-11 34:1.1866323e-12 35:5.3910577e-13 36:-1.4846315e-12 38:-3.0344118e-14 39:-1.3351989e-12 40:5.4200107e-12 41:1.4414591e-12 42:-6.8664763e-12 43:5.3807711e-28 44:-1.0233051e-12 46:1.1621442e-13 47:4.0092881e-12 48:1.3472839e-12 50:-6.4075992e-13 51:-1.5055098e-11 52:8.2958675e-13 53:-1.1407476e-12 54:1.3738309e-12 55:-2.2293885e-12 56:-7.5128091e-13 57:6.0105751e-13 58:1.9812301e-12 59:-7.2226582e-13 60:-1.0182135e-12 61:-7.8361413e-14 62:-3.0566092e-14 63:4.477432e-12 64:-5.1207433e-13 65:2.6863737e-12 66:-2.6006104e-12 67:-1.2568539e-14 68:1.1362612e-12 69:-3.2475368e-12 70:1.263333e-12 71:-1.1438575e-12 72:-1.9256183e-12 73:1.8890545e-12 74:-1.1775693e-12 75:-4.1641967e-12 76:-2.1182484e-12 77:-3.0419834e-12 78:-2.0179638e-12 79:-4.2953783e-12 80:-6.516932e-13 81:-6.7482034e-13 82:1.294938e-12 83:6.2574887e-13 84:-3.3547453e-12 85:1.2296193e-12 86:1.8923585e-13 88:-2.5739231e-13 89:-8.2785759e-13 90:4.2319896e-12 91:5.1500552e-13 92:1.5294718e-26 93:-5.8268702e-13 94:-5.3311281e-12 95:2.9745731e-12 97:-2.4993167e-12 99:-1.6689635e-12 100:-1.3491512e-12 
1 4:3.2491899e-31 5:5.6261844e-15 7:4.7775704e-27 8:7.2745284e-13 10:-1.4437087e-13 11:1.4772071e-12 12:-2.3308125e-12 14:-5.6375959e-22 15:-4.7169901e-15 16:-5.7056882e-13 17:3.5929641e-13 18:-3.5212638e-14 19:5.2974051e-15 20:2.8516221e-12 22:-3.4337198e-12 23:2.5891605e-19 24:3.7186264e-13 25:-9.9820463e-13 26:9.6778656e-13 28:-1.1033172e-12 29:1.3136691e-12 30:2.1746009e-12 31:7.1719801e-13 32:2.7425102e-12 33:-1.3348733e-12 34:1.0671363e-12 35:3.8995371e-13 36:3.8662278e-15 38:-2.3706342e-16 39:2.6427967e-12 40:-8.4931015e-13 41:1.952949e-12 42:-9.8849969e-13 43:5.9968138e-14 44:-2.9334787e-13 45:4.6947331e-16 47:-3.4183712e-13 48:-3.5085519e-14 50:-9.123254e-13 51:-5.1346698e-13 52:2.0739669e-13 53:-1.4550955e-12 54:-8.3411162e-13 55:-9.6750815e-13 56:-2.2738741e-12 57:9.207427e-13 58:-1.4719617e-13 59:1.3006161e-12 60:4.070894e-12 61:-4.1743913e-13 62:3.6185725e-13 63:1.2266344e-14 64:-1.970282e-12 65:3.8638994e-13 66:1.1959689e-13 67:1.8951507e-12 68:1.1848525e-12 69:3.3272467e-13 70:-2.5222677e-12 71:1.1389495e-12 72:1.4044968e-12 73:-1.269567e-12 74:2.4532695e-13 75:-2.9239905e-12 76:2.2889196e-13 77:-1.9503492e-12 78:1.6099581e-13 79:-7.6233432e-13 80:1.0675555e-12 81:2.1795766e-12 82:4.4829666e-13 83:-1.3722976e-12 84:-1.2343012e-12 85:-1.0832718e-12 86:1.3364569e-12 87:-8.3411162e-13 88:-4.8605401e-13 89:1.3032994e-13 90:1.1423036e-13 91:-1.8276858e-12 92:-1.6138023e-12 93:5.4048593e-13 94:-2.3325226e-12 95:-3.0435874e-13 97:-1.2289784e-12 98:1.1237403e-12 99:1.4835231e-12 100:5.5609326e-13 
1 1:9.6380795e-13 2:-2.9150949e-11 3:2047.4128 4:4.7226161e-11 5:2.4907404e-12 6:-2.2494735e-10 7:6490.347 8:-2.2952432e-12 9:-3.9847398e-13 10:-5.4610527e-13 11:4.7528495e-12 12:7.5753536e-12 13:3.1106799e-10 14:-3901.1514 15:6.2116864e-12 16:-2.0544052e-12 17:1.294289e-12 18:-6.8355e-14 19:-5.097652e-14 20:2.4259495e-12 21:-1448.9223 22:-1.2711695e-12 23:-2369.0771 24:-6.4898636e-13 25:4.2273734e-14 26:8.5349753e-13 27:5.2710322e-12 28:-2.3352937e-12 29:-2.0438279e-12 30:1.4870983e-12 31:3.2817564e-13 32:1.0919629e-12 33:1.4934125e-13 34:-2.2490075e-12 35:-8.4885196e-13 36:-1.8557893e-12 37:-2.206734e-12 38:272.0574 39:2.1260597e-12 40:-1.8644791e-12 41:-6.2793602e-13 42:7.23779e-13 43:-5.7214021e-14 44:3.4315365e-13 45:-8.5087343e-12 46:3.3121108e-12 47:1.814168e-12 48:-3.3682099e-13 49:-2.2580166e-12 50:2.5348745e-12 51:-4.7525388e-13 52:8.0366216e-13 53:-2.4532695e-13 54:6.8691545e-13 55:-7.3598084e-14 56:7.6051353e-13 57:1.7172886e-13 58:6.2654202e-13 59:4.0478946e-13 60:1.0549059e-12 61:6.3785006e-13 62:-3.5572407e-13 63:6.3785006e-13 64:1.6651567e-12 65:2.7476618e-12 66:-4.415885e-13 67:1.1162376e-12 68:6.0105102e-13 69:2.5270592e-13 70:6.6238276e-13 71:3.7719018e-13 72:9.6904144e-13 73:1.9871483e-12 74:-1.6804896e-12 75:6.9304862e-13 76:-8.5864431e-13 77:-1.2266347e-12 78:3.955897e-13 79:4.415885e-13 80:-5.9875108e-13 81:2.4532695e-13 82:-8.5864431e-13 83:1.202102e-12 84:2.8212599e-13 85:-1.9626156e-13 86:-3.6799042e-13 87:-3.778035e-12 88:-4.7838755e-13 89:-1.1683696e-12 90:2.5514002e-12 92:4.9166336e-14 93:8.4637797e-13 94:3.0175214e-12 95:1.8154194e-12 96:-1.4532958e-13 97:264.59579 98:4.120381e-12 99:-85.768674 100:-1.9789736e-12 
1 3:9.3268412e-35 4:7.2345243e-32 6:7.1467492e-28 7:8.398073e-29 8:-2.0555602e-13 10:-9.024502e-13 11:1.5371395e-12 12:-1.7662611e-12 14:1.6516394e-24 16:1.1329257e-11 17:1.8116519e-13 18:6.0283052e-25 19:7.3248815e-29 20:-5.3440218e-11 21:6.3847133e-23 22:1.5808329e-11 23:-2.0227817e-21 24:8880.7383 25:7.400318e-09 26:4.4857517e-11 27:-6.6288106e-19 28:4.38149e-12 29:-6.6535596e-12 30:4.8590215e-12 31:-2.0250436e-12 32:4.0119006e-12 33:-1.7363978e-12 34:-1.6419458e-12 35:1.0717913e-12 36:6.0409809e-17 38:1.852058e-18 39:3.0150055e-12 40:-1.8529231e-12 41:6.5350685e-13 42:1.6594708e-12 43:-5.855808e-28 44:-1.1386635e-12 45:-9.1694006e-19 46:1.418633e-17 47:-3.0306153e-13 48:-1.0964225e-16 50:-1.2650005e-12 51:9.3452944e-14 52:8.1014331e-16 53:-6.6224682e-13 54:5.6501862e-13 55:1.2488617e-12 56:-3.7441809e-12 57:-3.8487983e-13 58:1.1931297e-12 59:9.7507696e-13 60:6.2693833e-13 61:1.9941185e-13 62:4.416684e-13 63:4.7382699e-13 64:1.9043042e-13 65:-3.8336623e-14 66:-5.5212783e-13 67:-7.6680701e-13 68:-4.9678101e-13 69:6.1093457e-15 70:-1.1163656e-12 71:-1.0962195e-12 72:-7.388173e-13 73:-1.1165356e-12 74:-4.0785605e-13 75:-1.9315289e-12 76:3.5937886e-13 77:1.723476e-12 78:-2.0862487e-13 79:-5.825308e-13 80:-1.4253808e-13 81:3.2699007e-13 82:1.3850075e-13 83:5.8614041e-13 84:-1.9715821e-12 85:6.4672317e-13 86:-1.1290092e-12 87:-1.1691362e-12 88:-5.2273212e-13 89:7.3665885e-14 90:1.8264909e-12 91:-2.2483919e-12 92:9.8077384e-28 93:4.1704742e-13 94:5.6902783e-13 95:1.3908984e-12 97:-1.890736e-12 98:-2.3411256e-14 99:-2.3180049e-14 100:-1.661033e-12 
1 1:-34.609601 2:-2.6786515e-12 3:-2.5650796e-12 4:-5939.3337 5:-2.9530875e-13 6:-6839.695 7:-2.1767833e-10 8:-3.9622234e-13 9:7.4515461e-14 10:1.3543917e-12 11:-3.862384e-13 12:6.709071e-12 13:-6060.4855 14:-4.6863178e-10 15:3.7123744e-11 16:-8.2045697e-12 17:1.0946331e-11 18:-2.5677356e-12 19:7.7088028e-15 20:-1.0332312e-12 21:-5.1809591e-11 22:5.4879733e-12 23:-1.1778203e-11 24:5.6981045e-13 25:1.7797588e-12 26:-1.2904805e-11 27:-818.97459 28:2.1318589e-12 29:-1.594131e-12 30:1.7604216e-11 31:-5.6151362e-13 32:2.7387374e-12 33:4.8387221e-13 34:1.3738662e-12 35:5.1199439e-13 36:181.6038 37:2.6373818e-12 38:1.399492e-11 39:-3.8539559e-13 40:-4.1256462e-13 41:3.1557695e-12 42:-3.1464021e-13 43:-1.2802522e-13 44:-1.9313562e-12 45:-1.6581797e-12 46:-152.08683 47:3.9793215e-12 48:-5.6136831e-13 49:3.4139286e-12 50:2.5046262e-12 51:8.7369144e-13 52:897.88563 53:-3.9221646e-12 54:5.3971928e-13 55:3.9252311e-13 56:-2.6065988e-12 57:-9.9970731e-13 58:-1.9951981e-13 59:6.6238276e-13 60:3.9252311e-13 61:2.8335262e-12 62:-1.0917049e-12 63:-3.1003193e-12 64:3.0558538e-12 65:-2.4532695e-14 66:-1.2389011e-12 67:5.3358611e-13 68:-5.4585246e-13 69:-2.1530554e-12 70:3.4253775e-12 71:2.6219317e-13 72:-3.0052551e-12 73:-4.4772168e-13 74:-2.0576798e-12 75:-1.9327164e-12 76:-2.4164704e-12 77:1.3002328e-12 78:-7.5208042e-13 79:-3.3625125e-12 80:-2.958873e-12 81:-2.2079425e-12 82:-2.4532695e-14 83:9.077097e-13 84:-5.6731856e-13 85:1.5210271e-12 86:4.0356283e-12 87:4.4772168e-12 88:2.6433979e-12 89:-9.4642536e-13 90:-2.597399e-12 91:-5.7161179e-12 92:3.2742295e-12 93:1.0027739e-12 94:4.5385485e-13 95:-4.8942726e-12 96:-1.6052475e-12 97:-1.2347577e-11 98:1550.6635 99:-5.4357215e-12 100:8.6252141e-13 
1 1:9.0520099e-13 2:-5.6676596e-11 3:3951.8023 4:-1.4151238e-11 5:-4.8283129e-13 6:7.2710443e-11 7:-1729.0259 8:5.3078166e-13 9:1.9402201e-13 10:1.948443e-14 11:2.1406668e-12 12:-4.1331246e-12 13:-2.4749059e-10 14:3285.6588 15:-3.6829375e-12 16:-3.7200067e-12 17:3.3466823e-14 18:-8.4760029e-14 19:-1.1361396e-13 20:-1.3887101e-12 21:-2096.9378 22:1.1806541e-12 23:-5688.6661 24:3.7178771e-13 25:-4.9621962e-13 26:-8.0363232e-13 27:-1.1998425e-13 28:-9.5701672e-13 29:-1.2235408e-12 30:3.6399572e-12 31:-1.1182708e-12 32:5.141519e-13 33:-1.1689369e-12 34:8.2153968e-12 35:9.7337264e-13 36:-5.4359162e-12 37:2.5211847e-12 38:-4069.0602 39:7.1624025e-12 40:5.8638356e-13 41:4.3497644e-12 42:-6.2252229e-13 43:1.8920163e-14 44:-7.8998534e-13 45:1.7131691e-10 46:-9.7293256e-11 47:1.961899e-12 48:8.9818929e-12 49:2.0970018e-12 50:-1.2708056e-15 51:6.2929643e-13 52:-3.5986566e-12 53:-1.1070378e-12 54:-2.5881993e-12 55:-2.3612719e-13 56:1.2971662e-12 57:-5.0598683e-13 58:-4.5998803e-15 59:-8.4791126e-13 60:1.8506852e-12 61:-3.2015167e-12 62:5.7498503e-13 63:-4.3016547e-12 64:-1.9214083e-12 65:-9.6904144e-13 66:-6.5011641e-13 67:-5.4585246e-13 68:4.3698862e-13 69:-2.5367321e-13 70:-3.0665868e-13 71:1.0464728e-13 72:-5.3205282e-13 73:-5.0598683e-14 74:-2.2232755e-13 75:1.0537559e-12 76:5.7498503e-13 77:2.2692743e-13 78:1.1979813e-12 79:1.9281165e-13 80:6.3456786e-13 81:4.8145413e-13 82:1.6068915e-12 83:9.7670791e-13 84:7.9347934e-13 85:5.6425198e-13 86:-1.1055046e-12 87:-8.5251114e-13 88:-3.6615047e-12 89:-2.9189115e-12 90:-2.1297446e-12 91:2.3735382e-12 92:4.598328e-13 93:4.2472228e-13 94:5.1978647e-13 95:1.1377037e-12 96:3.2074412e-13 97:870.03106 98:1.9753247e-12 99:145.7081 100:-1.8702741e-12 
1 3:-7.9262318e-37 4:-6.1653344e-34 5:-1.6767336e-22 6:-5.8910357e-30 7:-7.6146265e-31 8:-1.1481856e-13 10:-3.7294965e-13 11:1.7429373e-12 12:3.1313215e-13 13:-4.3473958e-27 16:-2.1974373e-11 17:1.8952228e-12 18:-1.8608015e-12 19:-2.2839112e-13 20:7.2225414e-15 21:-2.4940286e-25 22:-5.3400814e-12 23:-3.4569023e-24 24:2.2709355e-12 25:3.9295456e-13 26:-7.6960462e-13 27:-5.1479324e-21 28:-1.0806303e-12 29:-2.9366674e-12 30:-4.1235835e-13 31:-3.3015844e-12 32:-1.2628426e-12 33:-1.2037586e-12 34:2.5116929e-12 35:-2.199777e-12 36:1.4748488e-20 38:7.2346014e-21 39:-9.3308362e-12 40:5.8795429e-14 41:8.6111377e-13 42:5.9566057e-12 43:-3.1765011e-13 44:2.4769927e-12 45:3.5817971e-21 46:2.7707676e-20 47:1.2767903e-11 48:2.2669391e-15 50:-4.7368947e-12 51:7.0823794e-12 52:-1.2658489e-17 53:2076.4595 54:-166.97593 55:-1408.4891 56:-1813.759 57:-1815.6931 58:2669.8648 59:345.84049 60:2602.426 61:1304.8995 62:-2126.4055 63:1400.9946 64:-1541.7038 65:1298.606 66:-190.31967 67:4419.9778 68:674.45471 69:-1182.0684 70:-3391.1031 71:741.69631 72:-2238.4199 73:6574.2685 74:154.99121 75:-2723.9682 76:-864.38913 77:-1176.007 78:-2262.6114 79:638.05978 80:1667.5215 81:42.456228 82:-890.91695 83:-4585.0006 84:3298.1171 85:-1806.4367 86:1262.9478 87:94.478093 88:-1294.1313 89:-1987.8743 90:2782.4218 91:369.98613 92:2.5507893e-13 93:1310.7588 94:2454.7246 95:-1555.8659 97:3.781472e-13 98:-5.8528139e-15 99:-1.1590025e-14 100:2.0457261e-12 
0.140625 1:-2.061117e-14 2:-1.5623343e-17 3:2.6754529e-14 4:4.8551846e-14 5:5.5644722e-12 6:-1.8137788e-13 7:4.3142136e-13 8:-1.5446992e-12 9:-1.5831121e-18 10:-1.3526382e-12 11:2.8534021e-13 12:1.0201361e-12 13:-4.5043642e-11 14:-1.0861612e-11 15:-7071.0678 16:-9.821761e-11 17:-1.1795726e-12 18:-6.8729226e-14 19:8.272401e-14 20:-1.2907764e-12 21:3.7919671e-13 22:-1.0016253e-12 23:2.1157377e-12 24:2.58134e-13 25:6.3092548e-13 26:-1.9322032e-13 27:2.6479283e-13 28:6.0349089e-13 29:-1.9109319e-12 30:1.92343e-13 31:1.310948e-12 32:-1.4880564e-13 33:1.823253e-12 34:1.6248206e-12 35:6.6777216e-13 36:-1.6207227e-11 37:-1.4178869e-16 38:-7.5836588e-13 39:8.2945776e-13 40:-5.746502e-14 41:-3.5140833e-13 42:5.2344586e-13 43:2.0075746e-13 44:4.1117931e-13 45:7.3613415e-13 46:2.4986099e-12 47:-1.7627732e-12 48:5.6136831e-12 49:-1.8478018e-16 50:2.6994607e-12 51:-5.5870163e-14 52:3.3442716e-12 53:2.7967272e-12 54:9.8130779e-13 55:-6.3785006e-13 56:-4.9065389e-13 57:-2.1588771e-12 58:-2.9745892e-12 59:-9.077097e-13 60:-1.7418213e-12 61:-2.4532695e-13 62:-1.0794386e-12 63:3.0911195e-12 64:-2.1466108e-13 65:-1.2757001e-12 66:5.2499967e-12 67:1.1039713e-12 68:-7.3598084e-13 69:1.2842291e-12 70:-1.3002328e-12 71:3.1953835e-12 72:-3.6799042e-12 73:1.4719617e-13 74:6.5992949e-12 75:3.6247056e-12 76:1.9626156e-13 77:2.4287368e-12 78:3.0328544e-12 79:-1.484228e-12 80:-1.1722028e-12 81:2.0607464e-12 82:1.6682232e-12 83:7.3598084e-13 84:6.2558371e-12 85:1.9626156e-13 86:-3.4345773e-13 87:7.8504623e-13 88:1.9871483e-12 89:2.7599282e-13 90:-4.6857447e-12 91:7.8504623e-13 92:-4.7046835e-13 93:-1.1775693e-12 94:-7.8504623e-13 95:-2.9439234e-13 96:-1.4464409e-14 97:-1.5081574e-12 98:1.9103585e-11 99:8.530258e-12 100:9.5853414e-13 
1 1:-4.4504199e-13 2:10362.157 3:1.1861711e-10 4:-1.4890846e-12 5:-9.9834005e-13 6:1.6474401e-12 7:1.7064554e-13 8:1.1349367e-13 9:-578.24742 10:-5.1619852e-13 11:-5.0838452e-12 12:-6.1757407e-13 13:6.0860198e-13 14:-4.8737145e-12 15:8.8443565e-14 16:1.2089627e-12 17:8.997425e-14 18:-1.6412783e-12 19:-4.8557091e-14 20:5.213314e-13 21:-3.8046873e-13 22:-1.2198199e-13 23:-1.0801398e-12 24:-2.689435e-13 25:2.8750543e-12 26:1.0979737e-12 27:1.6053065e-12 28:2.967861e-12 29:-4.0889081e-12 30:9.110734e-13 31:-2.0469844e-12 32:-3.2541859e-12 33:-9.3833007e-13 34:-1.4918471e-12 35:-7.0891865e-14 36:1.73207e-12 37:-331.4529 38:-4.5516176e-14 39:8.5242202e-13 40:-1.1526992e-12 41:-1.1149255e-12 42:-1.0384155e-13 43:1.3046199e-13 44:6.0290277e-13 45:-2.0281247e-13 46:-3.2540036e-12 47:1.7470944e-12 48:-4.9400411e-12 49:-370.48687 50:1.4582195e-12 51:-1.2847461e-13 52:1.814721e-13 53:1.8399521e-12 54:-3.532708e-12 55:1.0303732e-12 56:-1.2757001e-12 57:2.1588771e-12 58:1.3872472e-12 59:1.3492982e-12 60:-9.322424e-13 61:2.8457926e-12 62:-2.9439234e-13 63:-2.9439234e-12 64:-6.7403579e-12 65:3.532708e-12 66:-4.3177543e-12 67:-3.4345773e-13 68:1.4719617e-12 69:5.6827687e-14 70:2.4042041e-12 71:-1.0917049e-12 72:5.8878467e-13 73:1.5210271e-12 74:-4.1705581e-13 75:1.3646311e-12 76:6.6238276e-12 77:2.5023349e-12 78:-2.5115346e-12 79:-4.5140158e-12 80:2.5682665e-13 81:4.9065389e-13 82:2.9439234e-12 83:-2.9439234e-13 84:4.2441562e-12 85:3.3364465e-12 86:-1.2266347e-12 87:4.8084082e-12 88:2.2324752e-12 89:-4.713344e-12 90:-6.9182199e-12 91:2.3551387e-12 92:7.9942073e-12 93:-2.0362137e-12 94:-8.3411162e-13 95:8.8317701e-13 96:-116.02996 97:-1.0339963e-12 98:-4.4949611e-12 99:8.3448176e-13 100:4.3423606e-13 
1 1:-19.1721 2:-6.6155429e-13 3:-7.7290004e-13 4:-1490.0699 5:2.4528626e-12 6:72.726365 7:2.7907274e-11 8:2.8828272e-12 9:2.7821396e-14 10:3.9833476e-24 11:7.9080584e-13 12:-5.915678e-12 13:2658.5877 14:2.1796414e-10 15:-1.8437535e-11 16:6.5201539e-12 17:-9.0614346e-12 18:2.7117094e-26 19:-3.9288971e-28 20:1.877399e-12 21:2.2013828e-11 22:-8.8569774e-13 23:3.2494338e-12 24:-7.0007878e-13 25:-4.3659137e-25 26:2.5264895e-11 27:1531.2729 28:8.4535115e-15 29:9.2631945e-14 30:-3.3254584e-11 31:2.9445734e-13 32:-3.9941842e-12 33:-1.2064333e-14 34:2.0028759e-12 35:1.1784836e-12 36:-711.42047 37:3.9763882e-13 38:-5.8162324e-11 39:-2.6780678e-12 40:1.4653991e-12 41:3.6996292e-13 42:-3.8355184e-13 43:-3.7194265e-28 44:-1.5563914e-13 45:-5.3166914e-11 46:1935.5956 47:-2.3353799e-13 48:-4.0418518e-12 49:6.265929e-13 50:-1.4766002e-12 51:-5.6587341e-12 52:5857.3203 54:7.6542007e-12 55:1.128504e-12 56:-4.8574735e-12 57:-5.8878467e-13 58:2.0649629e-12 59:2.1098117e-12 60:-6.8691545e-13 61:1.4719617e-12 62:1.3738309e-12 63:5.3726601e-12 64:2.3551387e-12 65:2.1588771e-12 66:6.3785006e-13 67:2.5759329e-12 68:-1.0303732e-12 69:-1.1175792e-12 70:-2.8703253e-12 71:-4.1398922e-12 72:-9.8130779e-13 73:-3.532708e-12 74:-9.7394798e-12 75:-2.5820661e-12 76:7.8504623e-13 77:3.0420541e-12 78:1.5792922e-12 79:-1.2757001e-12 80:-4.2617891e-12 81:2.7476618e-12 82:-1.8644848e-12 83:-1.2757001e-12 84:-1.3492982e-12 85:-1.9626156e-13 86:-6.8691545e-13 87:1.383644e-11 88:-2.894858e-12 89:9.1077629e-13 90:4.5876139e-12 91:-2.1588771e-12 92:4.3143032e-27 93:1.4719617e-12 94:1.8399521e-12 95:3.6308388e-12 96:-4.065282e-12 97:-3.0591149e-11 98:4640.9454 99:-8.1593773e-12 100:2.2264853e-12 
0.140625 3:1.3130679e-34 4:1.0214665e-31 5:-8.3990171e-20 6:9.7857399e-28 7:1.263056e-28 10:-4.449313e-13 11:1.2824453e-12 12:5.4599361e-13 13:1.6250812e-24 14:1.2550972e-25 15:1.130329e-18 16:6.9941171e-12 17:1.4578637e-13 18:-3.1926264e-13 19:-7.5845075e-14 20:-6.3560485e-11 21:-2.5269941e-23 22:1.6287239e-11 23:-5.1535623e-22 24:12131.314 25:1.0109898e-08 26:6.044814e-11 27:-9.3046156e-19 28:2.4833712e-12 29:-1.6973469e-11 30:5.1474386e-12 31:-1.5962915e-11 32:7.2120398e-12 33:-3.5995888e-12 34:6.021007e-12 35:7.1113399e-13 36:5.3781285e-18 38:-7.3247513e-19 39:3.0327976e-12 40:1.0572832e-12 41:-3.1243449e-13 42:7.6800699e-13 43:-2.1358807e-13 44:-6.208051e-13 45:-4.6195389e-19 46:-3.9353017e-18 47:1.0339893e-13 48:-5.4966676e-18 50:-8.4993076e-13 51:-7.6208798e-13 52:-1.8305362e-16 53:-4.1204664e-12 54:-6.7376234e-13 55:4.7703779e-13 56:1.1075674e-12 57:4.4085462e-13 58:-4.3411149e-13 59:-1.2020399e-12 60:-8.2526e-13 61:4.7524753e-12 62:-1.962533e-12 63:-9.1967754e-14 64:3.2839255e-13 65:-5.2800534e-12 66:-1.6717716e-12 67:2.0466694e-12 68:1.0875955e-12 69:-1.5291347e-12 70:3.3837973e-12 71:-8.3258016e-13 72:-3.7202742e-13 73:-7.3478971e-13 74:1.9086284e-13 75:5.5498162e-12 76:-1.9474877e-12 77:1.4352575e-12 78:-2.7062546e-12 79:4.0496667e-14 80:3.1312741e-12 81:-2.0581324e-12 82:-4.6617566e-12 83:2.6247742e-12 84:-1.6125907e-12 85:-5.8315974e-13 86:8.0165172e-12 87:1.7932622e-13 88:-2.7224224e-12 89:1.1144876e-12 90:2.8748149e-12 91:-1.4947987e-12 92:-1.0967461e-13 93:2.9846223e-12 94:-2.0867823e-12 95:-2.7425725e-12 97:-1.0339963e-14 98:4.5725109e-15 99:8.7377919e-15 100:6.1673471e-12 
1 1:-1.373354e-12 2:-3.8454046e-11 3:2709.1399 4:7.2101926e-11 5:4.9382954e-13 6:-3.4487693e-10 7:9845.7593 8:2.0865864e-13 9:-6.0974421e-13 10:6.3217739e-13 11:-3.5931217e-12 12:-2.1405225e-12 13:5.4623691e-10 14:-6731.666 15:9.4829191e-12 16:5.7721648e-12 17:-2.0457887e-12 18:-1.0230287e-12 19:-1.5590736e-13 20:-1.2865816e-12 21:-2970.5243 22:1.6396567e-12 23:-4962.2483 24:8.739114e-16 25:1.985539e-12 26:5.7477797e-12 27:1.1791556e-11 28:-1.9862746e-12 29:4.2865459e-12 30:4.3303177e-12 31:-4.3780391e-12 32:3.6611494e-12 33:3.7518189e-12 34:-2.6546017e-12 35:-2.0642919e-12 36:-1.9795086e-12 37:-4.2924623e-12 38:785.48557 39:-4.2440984e-12 40:-3.6884022e-12 41:-4.4201784e-13 42:3.4286347e-13 43:4.0917178e-14 44:-4.2938463e-13 45:-2.5839811e-11 46:1.0633619e-11 47:-7.7161828e-12 48:-2.2454732e-13 49:-4.4740233e-12 50:-8.4085669e-12 51:-6.4314231e-12 52:2.4498734e-12 53:-1512.8574 54:-922.06452 55:-344.10078 56:616.31457 57:-355.18042 58:-3492.1349 59:-321.33519 60:1139.6588 61:1819.9428 62:1702.059 63:-348.78381 64:-1630.5771 65:1583.1031 66:-3990.4851 67:-1886.6189 68:-1257.2542 69:558.25683 70:-793.31102 71:-230.64802 72:2198.216 73:-1205.2715 74:797.73305 75:78.074946 76:-323.10042 77:2188.034 78:660.41674 79:-1403.7758 80:-56.51018 81:-721.1114 82:-222.75262 83:-2010.7659 84:3177.5884 85:95.385938 86:3165.182 87:375.55809 88:1001.2823 89:745.28352 90:2401.956 91:-168.18615 92:4.999135e-13 93:-596.05268 94:907.53097 95:-1201.4375 96:4.442584e-13 97:-3415.0784 98:-2.4675464e-11 99:714.067 100:-1.8603171e-12 
1 1:6.0155535e-19 3:2.1458283e-18 4:4.2072032e-16 5:-1.06975e-15 6:3.0538865e-13 7:3.2086624e-14 8:-2.5027277e-12 10:4.80885e-13 11:-6.4721718e-11 12:-5324.7404 13:-2.3416811e-12 14:1.6517574e-14 15:-1.3534642e-12 16:-8.4528463e-12 17:3.4657834e-12 18:-1.158493e-24 19:-3.886709e-28 20:-2.4311579e-11 21:-2.3178824e-13 22:-4.3221739e-12 23:-1.9426153e-12 24:2.735293e-11 25:-1.9516101e-13 26:-6065.8661 27:9.9941537e-11 28:-1.2099861e-11 29:-2.8117595e-13 30:1.2073383e-10 31:3.2459685e-12 32:2.707209e-11 33:-3.6842004e-12 34:-1.7041412e-12 35:-2.500691e-12 36:7.2098744e-13 38:5.4186615e-12 39:-1.2258887e-11 40:3.192113e-12 41:-6.3979666e-12 42:-1.389641e-13 43:-2.0311067e-27 44:-2.6290505e-14 45:2.7531158e-12 46:3.7371172e-12 47:9.5326403e-12 48:-1.68787e-12 50:2.7865661e-11 51:-2.128778e-13 52:-3.0334546e-12 53:-7.2000398e-12 54:8.1130328e-12 55:4.2458847e-12 56:-1.1064704e-11 57:-3.3075911e-12 58:5.9434303e-12 59:4.4543446e-12 60:-4.2059851e-13 61:6.1537895e-13 62:-1.3962726e-12 63:-2.9560048e-12 64:-6.1022284e-13 65:-3.3333066e-12 66:1.5007367e-12 67:-4.6454521e-12 68:-2.9139112e-12 69:-3.3795833e-14 70:-5.4576541e-12 71:-5.0824002e-12 72:2.5577195e-12 73:-2.0588978e-12 74:-1.0022429e-11 75:-7.1213125e-13 76:6.3915731e-12 77:1.0465882e-11 78:-8.7370437e-13 79:1.6559653e-12 80:-5.7776767e-12 81:1.2943655e-11 82:-2.764323e-12 83:6.5590398e-12 84:6.0504733e-12 85:-1.0888048e-11 86:6.9395506e-12 87:-3.7152497e-12 88:8.6306662e-12 89:1.5802347e-11 90:9.6297476e-12 91:-2.8433644e-11 92:-1.4945124e-26 93:-1.3575224e-13 94:6.3851376e-12 95:8.3112091e-12 96:-2.3786495e-24 97:5.7990985e-12 98:8.4508202e-13 99:1.4493325e-11 100:10583.709 
1 1:-12457.707 2:3.910097e-13 3:-1.341491e-12 4:213.54175 5:5.8071673e-12 6:-3.5281782 7:-5.3493289e-12 8:-3.1033875e-12 9:2.0336789e-14 10:-8.0174451e-24 11:-9.2952871e-12 12:2.1705346e-12 13:197.94333 14:1.7588076e-11 15:1.5015359e-11 16:-1.4164998e-11 17:-2.0603357e-12 18:1.2104085e-25 19:8.9363149e-28 20:7.3810749e-13 21:-2.2665439e-12 22:-6.8621854e-13 23:-9.588693e-12 24:2.4262192e-12 25:1.4396175e-23 26:-9.0037822e-11 27:-5184.7668 28:1.8544907e-13 29:-2.5265252e-12 30:1.044636e-10 31:-1.4700117e-12 32:6.9064633e-12 33:1.0818759e-12 34:5.1422761e-12 35:1.1143928e-11 36:-5695.7333 37:9.2982623e-13 38:1.8366725e-11 39:1.4655096e-11 40:2.2851459e-12 41:8.084515e-13 42:-5.4391862e-13 43:1.3093048e-27 44:-2.1388758e-13 45:-1.8448423e-11 46:-99.891242 47:2.2959087e-13 48:-1.1901008e-11 49:1.2671147e-12 50:-4.704561e-13 51:-3.9150738e-12 52:3207.9932 53:2.5514002e-12 54:1.766354e-12 55:1.2266347e-12 56:9.8130779e-13 57:-1.0794386e-12 58:1.3036827e-12 59:4.9065389e-13 60:1.0549059e-12 61:5.8878467e-13 62:-3.6799042e-13 63:4.1705581e-13 64:1.5455598e-12 65:-5.8878467e-13 67:4.8329408e-12 68:-1.3738309e-12 69:2.6333356e-12 70:-1.128504e-12 71:1.6559569e-13 72:-5.4217255e-12 73:-5.7406506e-12 74:9.5186855e-12 75:3.1432515e-12 76:3.1401849e-12 77:-4.8574735e-12 78:-1.8675514e-12 79:3.636972e-12 80:5.1794652e-12 81:-5.4953236e-12 82:2.6985964e-12 83:-2.8457926e-12 84:8.5864431e-13 85:-4.3177543e-12 86:-7.8504623e-13 87:-6.6728929e-12 88:-1.9871483e-12 89:-2.0239473e-13 90:-5.5198563e-12 91:-1.1775693e-12 92:9.0643946e-27 93:-2.6985964e-13 95:3.8271004e-12 96:7.9319107e-12 97:5.1397369e-11 98:-3331.6051 99:4.3578492e-12 100:-8.3914017e-13 
1 1:-7466.5116 2:-5.0234085e-13 3:-1.761156e-12 4:-1543.8405 5:-3.5010251e-12 6:85.126643 7:3.3560656e-11 8:-1.925413e-12 9:4.5034023e-14 10:8.3412232e-24 11:-7.3288103e-12 12:-1.8056466e-14 13:3864.1475 14:3.1382758e-10 15:-4.1714702e-11 16:-5.3734533e-11 17:-7.2016543e-12 18:-5.7315675e-26 19:-1.7564481e-27 20:-4.7563486e-13 21:3.8959918e-11 22:7.2767128e-13 23:-2.2754521e-11 24:-7.2300321e-13 25:7.6104055e-24 26:-2.0826675e-10 27:-12252.991 28:3.5261888e-16 29:8.3232664e-13 30:2.5361295e-10 31:-2.6181473e-12 32:2.7416508e-11 33:-2.6731957e-13 34:-1.3676821e-11 35:-1.4111847e-12 36:4469.9549 37:1.0042856e-12 38:1.6126476e-11 39:3.0254524e-11 40:5.0696208e-14 41:2.386911e-14 42:8.8543411e-14 43:-6.671617e-28 44:1.7899722e-15 45:-1.84334e-11 46:-150.40268 47:6.2616688e-13 48:4.4909465e-13 49:1.4131284e-12 50:1.6778541e-12 51:4.9681413e-12 52:-3210.2708 53:-3.6308388e-12 54:-2.3551387e-12 55:-3.4345773e-12 56:-4.5630812e-12 57:-1.5700925e-12 58:-2.4942851e-12 59:3.9252311e-13 60:-1.9135502e-12 61:-2.7476618e-12 62:1.9135502e-12 63:-3.6799042e-12 64:-4.8084082e-12 65:-2.5514002e-12 66:6.0841083e-12 67:-5.2499967e-12 68:-1.2266347e-12 69:-4.0956184e-12 70:-5.8878467e-13 71:-3.4591099e-12 72:4.0233619e-12 73:1.2413544e-11 74:-1.2168217e-11 75:-2.7169959e-12 76:-1.766354e-12 77:1.0156536e-11 78:1.6620901e-12 79:-8.4024479e-12 80:-1.0092137e-11 81:8.439247e-12 82:-2.1588771e-12 83:5.2009313e-12 84:9.8130779e-14 85:2.9439234e-12 86:1.3738309e-12 87:1.1775693e-11 88:-8.3411162e-13 89:-1.2511674e-12 90:4.2686889e-12 91:-3.9252311e-13 92:-6.1881924e-27 93:-5.3971928e-13 94:-9.322424e-13 95:-1.766354e-12 96:-1.2139312e-11 97:-4.3654583e-11 98:5994.6008 99:-5.2850512e-12 100:-3.4347978e-12 
1 8:2.3198256e-24 10:2.8899453e-12 11:-4.6320238e-26 12:-5.3303311e-27 16:-1.1783889e-18 17:-3.8783139e-24 18:1.1263917e-12 19:3.2831631e-13 20:4.5709964e-12 22:-5.3386535e-16 24:1.7258826e-12 25:-2.7176192e-12 26:-2.0338818e-18 28:3.9869802e-13 29:1.4259706e-14 30:-1.0069703e-18 31:2.6904038e-12 32:-3.1302256e-17 33:9.5281044e-14 34:-2.8710399e-18 35:-9.768324e-16 36:2.06034e-29 39:5.8684164e-17 40:-1.6138835e-12 41:1.5738314e-14 42:-7.3834549e-14 43:-2.4070702e-13 44:7.1467452e-13 47:-3.5927572e-12 48:-2.192845e-15 50:5.442512e-14 51:-1.3837057e-12 52:-7.3682105e-28 53:1403.5162 54:62.65024 55:462.33218 56:-1388.735 57:-1081.3552 58:-3566.1772 59:1125.9913 60:-7331.473 61:-1432.6064 62:-607.04412 63:189.29854 64:-2231.6227 65:658.98001 66:-5107.7471 67:4486.707 68:981.93861 69:1098.0037 70:-813.59883 71:3455.5828 72:394.2667 73:825.44807 74:-58.15378 75:-1363.9113 76:8.0528123 77:2586.8446 78:215.39832 79:1028.3181 80:268.98155 81:-496.98222 82:-1301.827 83:2297.7319 84:-2391.7064 85:-1593.4378 86:283.1455 87:-35.449344 88:-3450.4162 89:27.425338 90:274.21833 91:3872.3609 92:2.6477628e-13 93:-5.6483475 94:-2097.8455 95:779.13962 97:-9.6298406e-24 98:-2.5550896e-25 99:-2.7406771e-25 100:1.4569134e-11 
1 1:-1.4723435e-22 3:-2.112202e-21 4:-7.6117234e-19 5:5.4560095e-13 6:-1.5878323e-15 7:-1.7950099e-16 8:3.8075985e-13 10:3.2034067e-12 11:1.3882976e-12 12:-3.2430273e-12 13:-2.6328217e-13 14:-6.4921059e-15 15:-5.3641878e-13 16:1.6757844e-12 17:1.9576349e-12 18:-2.7465568e-13 19:1.8684099e-13 20:2.7241088e-12 21:-9.2842957e-14 22:3.0067297e-12 23:-4.2799789e-13 24:-2.3253056e-13 25:-5.8152586e-12 26:-2.0582233e-12 27:1.0304566e-12 28:-6.4212157e-13 29:-1.7148449e-12 30:8.5197739e-13 31:3.145524e-12 32:-9.8518564e-13 33:5.567986e-12 34:-1.9026709e-13 35:-4.5012437e-12 36:-3.8943772e-12 38:5.955574e-12 39:-1.6825924e-12 40:1.5624072e-12 41:-7.2111101e-13 42:1.953009e-12 43:-3.8208874e-14 44:-9.6148134e-13 45:3.6942016e-12 46:7.902949e-12 47:-3.9356002e-11 48:-1.0413703e-11 50:-1.1837464e-11 51:1.5872701e-11 52:2.1074695e-12 53:-378.77543 54:2033.6688 55:-1459.2627 56:2143.4166 57:357.06511 58:184.87204 59:-975.27169 60:2035.6164 61:400.66247 62:821.89952 63:-5529.198 64:-2907.3232 65:-2289.6953 66:-2280.6133 67:-2250.151 68:1784.8914 69:-413.69578 70:-266.83552 71:2530.6389 72:-1680.1273 73:1223.7894 74:1570.4411 75:1240.9744 76:-437.06168 77:-1856.403 78:-2864.0439 79:1127.5298 80:2246.8789 81:-2525.5998 82:741.71859 83:1049.9739 84:-42.514118 85:83.271755 86:-1073.7746 87:7541.5139 88:1689.0599 89:-1368.5292 90:-2327.5196 91:3891.4146 92:-4.3143456e-13 93:132.8083 94:-621.90874 95:-543.89293 96:-1.2222481e-26 97:-2.1002899e-11 98:7.9782053e-12 99:-1.6805852e-11 100:1.6599155e-11 
1 3:1.5027618e-32 4:1.1697638e-29 5:6.1427287e-16 6:1.013728e-25 7:1.2799364e-26 8:1.1931048e-13 10:-1.0165944e-11 11:1.4665106e-13 12:-5.7102645e-13 13:-9.9134211e-22 14:-2.4901203e-22 15:-3.350778e-15 16:-1.4195591e-12 17:-1.4836063e-12 18:1.0217475e-09 19:1.794237e-15 20:-1.1484995e-11 21:1.1921622e-19 22:2.3448826e-12 23:1.6704737e-18 24:4.2210875e-12 25:8.1277967e-11 26:-2.4986307e-11 27:1.5514664e-15 28:14382.719 29:7412.2048 30:0.032572975 31:1.5349091e-10 32:2.7058345e-12 33:-1.237727e-12 34:-3.1947665e-12 35:-1.3654285e-12 36:-8.5961465e-15 38:9.5823104e-16 39:4.0651988e-13 40:-5.0740676e-12 41:2.8905472e-12 42:-4.6867814e-12 43:1.890837e-27 44:-5.2170222e-13 45:5.7692511e-16 46:4.0585556e-15 47:1.8350776e-12 48:2.1557766e-14 50:-8.1006529e-13 51:-5.100024e-13 52:9.6860508e-14 53:4.9449919e-12 54:-7.9665374e-14 55:-2.8605568e-13 56:7.0197001e-12 57:1.181509e-12 58:-2.7343236e-12 59:-2.3063443e-12 60:4.9293111e-12 61:-7.2250053e-15 62:-4.2465257e-13 63:-6.7364133e-14 64:-5.811218e-12 65:1.0041656e-12 66:1.3919331e-12 67:-7.735597e-12 68:-1.7909982e-12 69:2.8380477e-12 70:-3.1966301e-13 71:1.5318603e-12 72:7.1507986e-12 73:-3.0963094e-12 74:-3.3460831e-13 75:-3.6217405e-12 76:-2.1409259e-12 77:-2.3998069e-12 78:-1.6635774e-12 79:1.0768502e-12 80:2.7980573e-12 81:1.4203492e-12 82:1.1623154e-12 83:-4.7953194e-13 84:2.650519e-12 85:-1.8970591e-12 86:2.2898462e-12 87:-3.3538398e-13 88:-4.8437285e-13 89:-3.5241431e-12 90:3.5079307e-12 91:7.3717628e-13 92:-2.8399538e-26 93:1.0984669e-12 94:1.3250526e-12 95:1.4250869e-12 97:6.5125087e-13 98:-1.3905108e-12 99:-2.4272909e-12 100:2.6524218e-12 
1 1:-1.1060908e-12 2:230.7573 3:3.1199299e-12 4:8.7925978e-13 5:-3.3883476e-13 6:-1.3529078e-12 7:-6.5425486e-13 8:-1.6872322e-29 9:8030.4679 10:-8.9918365e-29 11:-1.4410838e-25 12:9.1133451e-24 13:-1.81183e-13 14:-5.2379984e-12 15:-8.6202995e-13 16:-1.2231346e-23 17:-1.0513125e-14 18:-2.7733391e-28 19:2.6963019e-29 20:1.6948184e-27 21:-3.993817e-13 22:3.6416078e-28 23:1.2166818e-12 24:1.1161833e-27 25:5.1344431e-28 26:-4.0820012e-24 27:-1.1501938e-12 28:-2.5789889e-27 29:-5.8027249e-27 30:-2.0819474e-24 31:-4.124755e-14 32:-7.5772068e-14 33:-5.6417712e-27 34:-3.1553053e-13 35:-3.198326e-25 36:1.2371929e-13 37:1365.4541 38:-4.5302819e-13 39:2.1407472e-13 40:2.1057943e-13 41:5.5680541e-14 42:-3.7678217e-14 43:-5.3247843e-28 44:-1.8692743e-14 45:-1.5210935e-12 46:1.7141626e-12 47:-5.8932708e-16 48:1.9086523e-12 49:102.46101 50:-4.2731868e-25 51:-2.1459838e-26 52:-3.2146486e-12 53:2.4532695e-13 54:-2.9439234e-12 55:9.8130779e-14 56:-3.6799042e-14 57:2.4532695e-14 58:-3.2716648e-13 59:6.1331737e-14 60:-1.1039713e-13 61:-2.6985964e-13 62:1.1039713e-13 63:3.3119138e-13 64:2.0239473e-13 65:2.9439234e-13 66:4.415885e-13 67:7.3598084e-14 68:-2.4532695e-14 69:-4.079998e-14 70:7.3598084e-14 71:1.7326216e-13 72:2.330606e-13 73:4.9065389e-14 74:-4.7102774e-12 75:-1.1806359e-13 76:-1.2266347e-13 77:2.2079425e-13 78:2.905591e-13 79:-1.9932814e-13 80:9.9664072e-14 81:1.2266347e-13 82:2.4532695e-14 83:1.9626156e-13 84:4.8452072e-13 85:4.9065389e-13 86:-2.4532695e-13 87:2.6004656e-12 88:2.6985964e-13 89:-1.2113018e-13 90:1.2266347e-13 92:5.4582472e-27 93:9.8130779e-14 94:6.0105102e-13 95:-2.9439234e-13 96:2684.7784 97:-2.2175527e-13 98:3.5819221e-12 99:-1.7153236e-12 100:-5.1759961e-27 
1 8:2.4136179e-22 10:9.5511057e-13 11:8.3437609e-25 12:7.4297508e-26 16:9.1761146e-18 17:1.9912375e-23 18:-1.4389446e-12 19:9.8608794e-14 20:-4.4408921e-12 22:8.3416461e-18 24:6.4343586e-12 25:-9.2112454e-13 26:3.1143816e-18 28:4.012614e-12 29:-5.6670778e-12 30:1.6481271e-18 31:-4.017575e-12 32:1.5284305e-18 33:4.9625544e-16 34:-1.8691666e-20 35:-1.1447255e-17 36:3.4875547e-31 39:6.8770505e-18 40:1.8422245e-12 41:7.5862507e-13 42:7.0574202e-13 43:6.402702e-13 44:-9.7541653e-13 47:-2.8068415e-14 48:-5.1394804e-18 50:1.5944859e-16 51:-3.3262156e-15 52:-2.1586554e-30 53:3.3855118e-12 54:1.2580672e-12 55:-2.4164704e-12 56:1.7617541e-12 57:2.1711435e-12 58:2.2171423e-12 59:-2.6019989e-12 60:-1.839952e-13 61:-5.3971925e-13 62:2.2815406e-12 63:-9.322424e-12 64:5.0292024e-12 65:2.4532745e-14 66:2.612732e-12 67:-1.7418213e-12 68:1.1837025e-12 69:-1.269567e-12 70:-1.7172885e-13 71:-9.4450872e-13 72:-3.1585845e-12 73:2.1711435e-12 74:-1.1657938e-12 75:-4.4158848e-13 76:-2.8871915e-12 77:5.6670525e-12 78:2.5299341e-12 79:-1.5792922e-13 80:5.6915852e-12 81:2.7139293e-12 82:4.8452067e-13 83:1.7540877e-12 84:-4.6612114e-13 85:-4.2380231e-12 86:-5.7529169e-12 87:-7.0761491e-13 88:4.0601611e-12 89:6.0902415e-12 90:1.3983636e-12 91:-4.1705581e-12 92:-4.3464934e-12 93:3.0236546e-12 94:1.7602209e-12 95:1.6121822e-13 97:9.6728309e-26 98:3.3269395e-27 99:9.2234326e-27 100:-1.0016279e-12 
1 8:1.2199949e-22 10:1.0166591e-12 11:4.2174636e-25 12:3.7554652e-26 16:4.6381878e-18 17:1.0064972e-23 18:1.3335677e-13 19:1.1656184e-13 20:-1.110223e-12 22:6.2562346e-18 25:-7.4219816e-13 26:1.5929426e-18 28:-7.8996556e-13 29:2.586125e-12 30:8.319305e-19 31:3.859871e-12 32:8.2535246e-19 33:6.203193e-17 34:-1.8691666e-21 35:-9.5393789e-19 36:1.3413672e-31 39:3.1519815e-18 40:1.628349e-13 41:-1.0958344e-12 42:-6.837279e-13 43:1.2981522e-13 44:-3.4498259e-13 47:-3.5085519e-15 48:-8.5658006e-19 50:2.6574765e-17 52:-3.597759e-31 53:-2.011681e-12 54:-1.1678904e-12 55:-3.4468436e-12 56:-7.0531501e-13 57:-4.0478948e-13 58:-1.2159017e-12 59:-2.085279e-13 60:2.5146012e-12 61:-6.6238274e-13 62:3.1156522e-12 63:4.4772647e-12 64:-5.9123794e-12 65:-4.7041442e-12 66:-5.2131976e-12 67:6.2558371e-12 68:-1.7111554e-12 69:-1.6344908e-12 70:9.5064192e-13 71:2.6004656e-12 72:3.3502461e-12 73:-3.5817734e-12 74:1.0838371e-12 75:1.5639593e-12 76:-3.6385053e-12 77:-2.7200625e-12 78:1.1377037e-12 79:2.5176678e-12 80:-3.4790427e-12 81:-2.3735382e-12 82:3.1892501e-13 83:4.5385485e-12 84:-2.2570079e-12 85:5.3358608e-13 86:4.170558e-13 87:6.6104112e-13 88:4.8268077e-12 89:-1.0487727e-12 90:-1.8951507e-12 91:1.6436905e-12 92:-4.4823106e-12 93:3.495909e-13 94:-4.8513404e-12 95:1.4547266e-12 97:2.149518e-26 98:9.9808186e-28 99:1.9764499e-27 100:-1.3658563e-13 
1 8:-9.3164918e-23 10:4.5483977e-11 11:-4.632792e-25 12:-4.5118381e-26 16:-7.6487574e-18 17:-2.4623395e-23 18:-6.2627828e-13 19:2.9394926e-13 20:2.6194324e-12 22:-1.1469763e-17 24:-9.2938445e-09 25:11153.551 26:6.751075e-17 28:-2.8713031e-11 29:-3.8614921e-11 30:1.3217068e-17 31:2.8400044e-11 32:6.1404694e-18 33:-1.1611602e-15 34:1.8750077e-20 35:1.0761612e-17 36:2.6659673e-31 39:7.8942809e-18 40:-2.2953875e-12 41:1.0167351e-12 42:7.4795796e-12 43:-2.4655555e-13 44:2.2933885e-12 47:-1.852954e-14 48:-3.3460159e-18 50:1.4948306e-16 51:-3.508118e-15 52:-2.1024404e-30 53:-1318.0222 54:0.2141204 55:322.64855 56:-2381.5462 57:-448.43585 58:-163.84334 59:990.02671 60:-61.624769 61:706.43572 62:-268.93261 63:1810.2324 64:1799.9041 65:2107.796 66:-2504.1015 67:-303.24895 68:919.56538 69:-508.89333 70:1141.188 71:-227.49953 72:-1948.6357 73:1780.5014 74:-0.1987528 75:1262.3307 76:666.4142 77:-235.05542 78:-1098.3739 79:-2443.1912 80:-499.64724 81:-1462.0568 82:673.48904 83:2090.765 84:900.98384 85:-103.67349 86:-8.2254555 87:-0.12115561 88:1541.343 89:-1619.6279 90:-2287.8736 91:-1251.5038 92:-1.9408742e-13 93:-299.94748 94:-976.60156 95:-689.93342 97:-5.5753123e-26 98:-2.0377505e-27 99:-2.9646748e-27 100:2.3902485e-13 
1 8:-2.1535546e-23 10:-2.2839941e-12 11:-7.4447346e-26 12:-6.6292076e-27 16:-8.1874036e-19 17:-1.7766849e-24 18:1.1276026e-12 19:-8.4458303e-14 22:1.6292278e-20 24:8.378071e-15 25:-4.7605559e-12 26:-2.8261635e-19 28:-1.7948379e-12 29:3.518628e-12 30:-1.4788954e-19 31:-3.7662875e-13 32:-1.5594767e-19 33:1.6961856e-18 34:-5.8411456e-23 35:-2.9810559e-20 36:-1.8758182e-32 39:-5.5562628e-19 40:4.9796814e-13 41:8.3365027e-13 42:-3.4966063e-12 43:8.5070335e-14 44:-1.2169721e-12 47:-2.7410562e-17 48:-1.3384063e-20 50:8.3046142e-19 52:-6.7457982e-32 53:-1.3983636e-12 54:2.33287e-12 55:5.5198563e-12 56:3.6385053e-12 57:4.0662941e-12 58:-1.612258e-12 59:4.431218e-13 60:1.4412958e-12 61:1.1971955e-11 62:8.8931018e-13 63:-1.3857139e-12 64:9.0188319e-12 65:-5.0721346e-12 66:-5.2591964e-12 67:-5.8019823e-12 68:8.5864431e-13 69:-8.0344575e-13 70:1.4872946e-12 71:-2.4962017e-12 72:4.6842114e-13 73:3.6308388e-12 74:-2.165452e-12 75:4.9372048e-13 76:-1.2128351e-12 77:-2.9439234e-12 78:3.8596829e-12 79:-4.3376871e-12 80:-9.8437438e-13 81:-1.5762256e-12 82:-2.9071243e-12 83:2.330606e-12 84:9.5677509e-13 85:1.5946252e-13 86:1.9012839e-13 87:-1.3200219e-12 88:-9.2066603e-12 89:5.6701191e-12 90:1.4535622e-12 91:1.6191579e-12 92:5.6772142e-12 93:2.1159449e-12 94:-3.0849864e-12 95:5.7440292e-13 97:3.3586218e-27 98:1.0396686e-28 99:3.2940831e-28 100:-5.1219611e-14 
1 8:-7.692319e-24 10:9.2483499e-13 11:-2.6591974e-26 12:-2.3678981e-27 16:-2.9244726e-19 17:-6.3461716e-25 18:-1.0235864e-13 19:3.2446902e-13 20:1.3552527e-16 22:-5.0913368e-22 24:-3.9272208e-16 25:-3.1849081e-13 26:-1.009225e-19 28:1.8642e-12 29:-1.7580895e-12 30:-5.2806648e-20 31:-1.7489197e-12 32:-5.5875776e-20 33:4.5433542e-19 34:-1.825358e-23 35:-1.304212e-20 36:-6.7461339e-33 39:-1.9870579e-19 40:7.8431385e-13 41:-5.6985533e-13 42:1.4873025e-12 43:6.3001376e-13 44:-4.432174e-13 47:3.0836882e-17 48:5.8555278e-21 50:-2.5951919e-19 51:7.3085791e-18 52:-2.2485994e-32 53:7.9731258e-12 54:-2.4309873e-12 55:7.2984767e-13 56:1.0119737e-13 57:1.2266347e-12 58:8.2184527e-13 59:2.4701357e-12 60:-1.6191578e-12 61:4.9249385e-12 62:2.2692743e-12 63:-2.1719101e-12 64:3.0543205e-12 65:-2.8212599e-12 66:-6.093308e-12 67:9.1568283e-12 68:3.3824453e-12 69:2.4992683e-13 70:-7.2892769e-12 71:-2.9439234e-13 72:2.0492467e-12 73:-1.7786204e-13 74:2.2565491e-12 75:-2.0423468e-12 76:-2.7982605e-12 77:-9.8437437e-13 78:-2.5659665e-12 79:3.0405208e-12 80:-3.2153163e-12 81:-2.1558105e-12 82:-2.5514002e-12 83:1.4167631e-12 84:1.6927559e-12 85:3.7075035e-12 86:2.4360966e-11 87:1.3755154e-12 88:-1.7993198e-12 89:1.8276858e-12 90:-1.3370319e-12 91:-7.4824719e-13 92:-8.1231976e-12 93:3.8087008e-12 94:3.9252311e-13 95:1.8384034e-12 97:-1.847242e-27 98:-9.3570175e-29 99:-1.6470415e-28 100:2.2764271e-14 
1 8:-9.0670618e-25 10:-5.0671703e-13 11:-3.1344401e-27 12:-2.7910802e-28 16:-3.4471242e-20 17:-7.4803352e-26 18:-2.5060738e-13 19:-1.208307e-13 22:1.2728342e-22 25:-1.3585427e-12 26:-1.189497e-20 28:-3.8882908e-12 29:-4.7226099e-13 30:-6.224685e-21 31:1.5375668e-12 32:-6.5861323e-21 33:5.30058e-20 34:-3.1943765e-24 35:-2.7947399e-21 36:-7.9578182e-34 39:-2.3449578e-20 40:-1.2631766e-12 41:-8.8187811e-13 42:1.4985601e-12 43:-1.7741306e-13 44:1.2318939e-12 47:3.4263202e-18 48:4.1825198e-22 51:4.0603217e-19 52:-3.5134365e-33 53:-2.3060733e-12 54:-5.1001696e-13 55:-1.3186323e-12 56:3.0972527e-13 57:1.3738309e-12 58:1.1407703e-12 59:-5.9798443e-13 60:1.1591698e-12 61:-8.1264551e-12 62:-3.176984e-12 63:7.0661827e-12 64:-5.7498503e-12 65:-2.2386084e-12 66:1.4872946e-12 67:-7.0960819e-12 68:-6.9304862e-13 69:-3.0343877e-12 70:3.2045832e-12 71:6.8691545e-13 72:-1.5317601e-12 73:-1.1714362e-12 74:4.7340928e-13 75:1.9503492e-12 76:-3.4652431e-13 77:-1.7602208e-12 78:-2.3336726e-12 79:-5.7084514e-12 80:-6.9105534e-12 81:-1.2665004e-12 82:4.0356283e-12 83:5.084401e-12 84:4.661212e-13 85:1.1162376e-12 86:-1.0254666e-11 87:2.8855414e-13 88:3.5388412e-12 89:-2.1098117e-12 90:2.4594026e-12 91:-2.367405e-12 92:-8.5087707e-12 93:-2.5881993e-12 94:-5.3358611e-13 95:8.10732e-13 97:-1.6793109e-28 99:6.1764058e-29 100:-1.7073204e-14 
1 3:1.3658874e-31 4:-7.3987064e-29 5:6.8045928e-13 6:-3.3525475e-23 7:-5.1932082e-24 8:2.5145263e-13 10:2.3648761e-12 11:2.7092306e-12 12:1.6323967e-12 13:-1.6990931e-18 14:-3.2885404e-19 15:-4.1894826e-12 16:-3.9596921e-13 17:2.0238664e-12 18:3.0086639e-12 19:-8.0696367e-14 20:6.1814694e-13 21:1.8478572e-17 22:3.1946503e-12 23:1.7334195e-16 24:2.7381192e-12 25:1.8732418e-13 26:3.4892301e-12 27:8.0472019e-15 28:-8.3518122e-13 29:-8.0873484e-12 30:2.3468046e-13 31:-1.5197578e-11 32:1.7521751e-12 33:-8.4884493e-13 34:1.8583054e-12 35:-1.8989622e-12 36:8.3634242e-13 38:-9.7625719e-14 39:-3.5055572e-12 40:1.0628876e-12 41:2.8994672e-12 42:-8.0711852e-12 43:-1.5596815e-13 44:-2.6403179e-12 45:-5.8588811e-14 46:-3.7596956e-13 47:7.0680875e-13 48:-1.6412845e-12 50:-4.3284978e-12 51:-1.4988759e-12 52:-4.4576332e-12 53:-2449.9442 54:2988.0198 55:1409.3742 56:-201.47053 57:1273.0808 58:258.81201 59:566.34293 60:903.76283 61:2173.82 62:684.35666 63:574.94296 64:427.95515 65:1690.9211 66:-877.36753 67:-1740.8103 68:1438.001 69:392.01867 70:641.17241 71:-532.1522 72:-800.50551 73:99.268978 74:-2520.9547 75:-2315.6676 76:343.30782 77:-490.21651 78:-2085.1694 79:2.2777488 80:279.68504 81:-366.35414 82:-951.10802 83:-1858.4861 84:-4535.5261 85:227.61758 86:1189.6275 87:-1055.7564 88:841.01415 89:-107.57697 90:2410.8453 91:2019.354 92:-1.0156228e-12 93:1052.117 94:-213.6472 95:2893.9893 97:1.1559219e-11 98:-5.6278219e-12 99:-7.3217582e-12 100:-6.4907074e-13 
1 8:4.3635316e-30 10:-2.5092975e-12 11:8.0526835e-33 12:5.8019774e-34 16:-1.5015271e-26 17:-1.8177118e-31 18:-1.7974579e-13 19:-1.9921791e-13 20:-1.0339758e-20 22:8.5456397e-26 25:-8.9663481e-13 26:-1.4964181e-25 28:1.1878704e-12 29:2.6397121e-13 30:-9.1905785e-26 31:-3.5899932e-12 32:-2.0406748e-25 33:1.3310608e-22 34:-2.8966863e-27 35:-1.3646191e-24 36:-2.3985515e-39 39:-7.1733226e-25 40:5.7688881e-12 41:-2.0431479e-12 42:4.6324892e-12 43:2.180564e-13 44:9.2783748e-13 47:-1.3593189e-21 48:-2.5528075e-25 50:6.0191219e-23 51:-3.0234329e-21 52:-9.4569428e-36 53:-3126.0112 54:1.1367945e-05 55:-1.1869845 56:396.28546 57:291.16592 58:614.6661 59:-21.20442 60:1447.6357 61:-4804.5455 62:574.72154 63:-453.35328 64:-970.88027 65:2212.5087 66:-610.40321 67:2339.3761 68:995.12352 69:12.580422 70:81.546406 71:366.36799 72:-273.93324 73:-2525.9091 74:-1.0552058e-05 75:626.64676 76:-2.9986417 77:-776.66476 78:-257.39032 79:799.5927 80:4.0645027 81:3799.6233 82:643.89528 83:871.5807 84:-168.37874 85:296.26128 86:2759.543 87:-6.432317e-06 88:213.6678 89:-3932.9604 90:-262.63517 91:417.4757 92:1.4835399e-12 93:452.64422 94:1870.893 95:-341.84749 97:-1.6527642e-29 98:-9.5057591e-31 99:-2.3422893e-30 100:6.0752427e-16 
1 8:6.5886202e-31 10:3.8043748e-13 11:2.6986451e-33 12:1.3744081e-34 16:2.2483107e-26 17:3.8450409e-32 18:-1.0482396e-14 19:2.106685e-14 22:-2.3708384e-31 24:1.7068377e-24 25:-1.5740301e-12 26:4.4950256e-27 28:2.3922693e-13 29:-1.6928378e-13 30:3.0927718e-27 31:-7.825564e-17 32:4.9794473e-27 34:6.9359882e-31 35:4.3033032e-28 36:4.8342387e-40 39:1.052948e-26 40:4.4717333e-14 41:-3.5521524e-13 42:5.8590269e-13 43:-1.7201412e-13 44:7.511573e-14 47:-6.3820188e-27 50:7.7342747e-28 51:-1.5125877e-27 52:1.19106e-39 53:3.2383157e-12 54:-3.1401849e-12 55:-2.7231291e-12 56:4.0524945e-12 57:-4.0478946e-13 58:-4.6918779e-13 59:-1.5915586e-12 60:-1.6682232e-12 61:-1.9994146e-12 62:-2.2079425e-13 63:1.4719617e-12 64:-4.5385485e-12 65:3.0665868e-13 66:1.8460853e-12 67:-1.3615646e-12 68:-1.4719617e-13 69:-7.5744695e-13 70:-2.1466108e-13 71:1.202102e-12 72:-3.1125856e-12 73:-1.3615646e-12 74:-1.5700925e-12 75:-1.9626156e-13 76:3.1585844e-13 77:3.0911195e-12 78:-2.9009911e-12 79:8.0651234e-13 80:-2.2478081e-12 81:1.8276858e-12 82:2.2079425e-13 83:4.9065389e-14 84:-8.8317701e-13 85:2.2079425e-13 86:-1.9012838e-12 87:3.9252311e-12 88:1.0641056e-12 89:-1.6743564e-12 90:-8.5864431e-14 91:2.1588771e-12 92:1.5897226e-13 93:-1.766354e-12 94:-4.0478946e-13 95:-3.3855119e-12 97:1.2511841e-35 98:6.1969078e-37 99:-1.533927e-37 100:-1.2720528e-22 
1 8:5.0444927e-23 10:-1.9640381e-12 11:-2.0322857e-24 12:-2.4140734e-25 16:-6.755344e-17 17:-3.8988867e-22 18:-2.9274074e-12 19:-1.3138646e-13 20:1.1533791e-12 22:7.2684344e-12 24:6.1158232e-13 25:-6.7946156e-12 26:3.5008131e-15 28:7.9350393e-12 29:-7.7252996e-13 30:2.2859408e-15 31:1.4189919e-12 32:1.2332298e-14 33:9.1982398e-13 34:-1.0502633e-15 35:-7.7198491e-13 36:9.5089934e-27 39:4.1001103e-14 40:1.7230111e-12 41:7.583843e-12 42:-1.9036718e-12 43:-2.7308428e-14 44:1.7745842e-12 47:5.4334294e-12 48:9.9396982e-16 50:-1.1000969e-12 51:7.1206998e-12 52:-1.1460926e-26 53:1524.8203 54:2092.0891 55:207.41032 56:-1210.5936 57:-1017.7147 58:-1544.5364 59:540.5443 60:-741.94979 61:149.80397 62:1598.6799 63:-3644.1163 64:-23.966142 65:3850.1796 66:-977.3806 67:1490.9613 68:-1041.0539 69:441.07573 70:-2571.6793 71:496.36604 72:1084.7116 73:1840.2169 74:-1941.9381 75:4944.7206 76:266.88637 77:-1695.3261 78:-584.58759 79:269.68248 80:-2500.1494 81:2531.3275 82:66.658233 83:-5657.6121 84:-3128.9136 85:3051.079 86:-1493.7451 87:-1183.7654 88:790.75134 89:3068.5021 90:-4867.1175 91:-471.2082 92:5.6935722e-13 93:-1101.9711 94:1546.0957 95:-2103.0435 97:-2.0499825e-22 98:-4.5337975e-24 99:-3.2787442e-24 100:-1.8957804e-12 
1 1:2.0964354e-16 3:1.8970957e-16 4:1.8614847e-14 5:2.5978054e-12 6:2.6412762e-12 7:2.3268956e-13 8:1.0758165e-13 10:-2.4368686e-12 11:1.7068058e-13 12:-9.7493724e-13 13:-1.2546624e-12 14:-8.371293e-14 15:-8.4343087e-13 16:-5.1415193e-13 17:1.7103266e-12 18:-4.9082104e-26 19:-2.2712521e-29 20:7.5852346e-13 21:1.2774299e-12 22:3.6832438e-11 23:6.726838e-12 24:-2.0295754e-15 25:1.8976654e-12 26:-3.9987744e-13 27:-6.5346701e-12 28:3.2668651e-14 29:-3.1628983e-12 30:1.8684212e-12 31:1.0491599e-11 32:1.2001703e-11 33:-2.4709551e-11 34:-1.0956629e-12 35:-10649.615 36:-1.5202688e-11 38:-4.1794643e-12 39:1.5864442e-11 40:-4.326666e-12 41:2.7882959e-11 42:-6.2496287e-12 43:-4.2736496e-28 44:-7.2111101e-13 45:-3.0124133e-12 46:1.5611801e-12 47:-5.7315487e-12 48:4.8033036e-15 50:-1.2844328e-11 51:-5.9073588e-12 52:-9.5520304e-13 53:-3.2377615e-12 54:3.7529077e-12 55:8.1180261e-14 56:1.4184423e-12 57:1.8248151e-12 58:-1.4093195e-13 59:-6.8091421e-13 60:3.7376018e-12 61:3.1997608e-12 62:-8.9606357e-13 63:4.4240314e-12 64:4.4800748e-14 65:2.809265e-13 66:-3.8803403e-13 67:-4.2291756e-12 68:2.3499542e-12 69:-5.7126733e-13 70:-3.5020264e-12 71:-2.2437913e-12 72:-7.2019526e-12 73:-3.1355581e-13 74:-2.5764896e-12 75:-5.4489254e-12 76:6.7469548e-13 77:8.9503357e-13 78:-5.3365381e-14 79:-1.5262886e-12 80:1.2078838e-13 81:-1.5181282e-12 82:-1.5426459e-12 83:-7.4892452e-13 84:-1.1382298e-11 85:-2.0161422e-12 86:4.1677502e-12 87:5.7650487e-12 88:3.222879e-13 89:-1.7140763e-12 90:3.9636105e-12 91:4.304216e-12 92:-2.2220788e-27 93:1.3576508e-12 94:-2.6584351e-12 95:1.6850229e-12 96:1.3113559e-25 97:1.1007698e-12 98:-1.8504527e-12 99:-1.909881e-12 100:1.9262842e-11 
1 8:2.2180492e-30 10:2.0247816e-14 11:8.6389306e-33 12:6.6945004e-34 16:7.0482653e-26 17:2.129403e-31 18:-3.2783225e-13 19:6.1387247e-15 20:3.3640727e-36 22:9.1320813e-31 24:7.6198112e-27 25:3.3512284e-14 26:2.8544106e-26 28:-1.5015296e-12 29:-2.6249701e-14 30:1.6589516e-26 32:1.6279128e-26 33:3.3060212e-29 34:3.1830545e-30 35:2.6793791e-27 36:1.574274e-39 39:5.5505599e-26 40:9.1934703e-15 41:-5.870562e-13 42:-1.0575329e-12 43:-2.0855575e-13 44:2.5570431e-13 47:5.0843695e-30 48:1.069997e-33 50:2.8327617e-27 51:1.3816306e-28 52:6.0390462e-39 53:2.4172072e-12 54:1.4374626e-16 55:-1.5361125e-12 56:3.9730995e-12 57:1.5187797e-12 58:-1.236726e-12 59:-9.1527906e-13 60:-6.3812407e-13 61:-1.9251348e-12 62:-5.9423222e-13 63:-1.1769831e-12 64:4.2902151e-13 65:-2.7975544e-12 66:6.1907501e-13 67:2.2614861e-13 68:-4.2317782e-13 69:1.5007722e-12 70:-6.592748e-13 71:-1.4938986e-12 72:1.1603612e-12 73:1.2663488e-12 75:-1.5691608e-12 76:-3.5111689e-13 77:3.189693e-13 78:-4.4472124e-13 79:-3.7195292e-13 80:-1.515468e-12 81:2.5987132e-12 82:2.676591e-12 83:-2.8391103e-13 84:1.6961772e-12 85:3.0607363e-12 86:8.4865846e-13 88:-4.8419173e-12 89:-4.1373434e-13 90:-1.0382383e-12 91:2.3095966e-12 92:1.1589017e-12 93:2.9405412e-13 94:-1.4219767e-12 95:7.0094512e-13 97:6.4430533e-35 98:1.7991065e-36 99:2.0263583e-36 100:-1.293999e-27 
1 8:-3.3970038e-23 10:1.6021084e-11 11:-1.6916295e-25 12:-1.6479115e-26 16:-2.7957667e-18 17:-9.0057753e-24 18:-5.1899998e-13 19:2.8827385e-13 20:8.7137871e-13 22:-3.9593644e-18 24:-3.4017686e-09 25:4082.4829 26:2.4710384e-17 28:-1.4456117e-11 29:-3.3622256e-12 30:4.8375202e-18 31:-1.3985879e-13 32:2.2440952e-18 33:-4.2042378e-16 34:6.6273487e-21 35:3.7929637e-18 36:9.855491e-32 39:2.8928205e-18 40:-2.1930586e-12 41:2.6023671e-12 42:3.1600224e-12 43:-2.4655555e-13 44:8.4657742e-14 47:-8.6458993e-15 48:-1.5816462e-18 50:7.5050088e-17 51:-1.8003168e-15 52:-1.4025583e-30 53:-1318.0222 54:0.2141204 55:322.64855 56:-2381.5462 57:-448.43585 58:-163.84334 59:990.02671 60:-61.624769 61:706.43572 62:-268.93261 63:1810.2324 64:1799.9041 65:2107.796 66:-2504.1015 67:-303.24895 68:919.56538 69:-508.89333 70:1141.188 71:-227.49953 72:-1948.6357 73:1780.5014 74:-0.1987528 75:1262.3307 76:666.4142 77:-235.05542 78:-1098.3739 79:-2443.1912 80:-499.64724 81:-1462.0568 82:673.48904 83:2090.765 84:900.98384 85:-103.67349 86:-8.2254555 87:-0.12115561 88:1541.343 89:-1619.6279 90:-2287.8736 91:-1251.5038 92:-1.9408742e-13 93:-299.94748 94:-976.60156 95:-689.93342 97:-6.7427807e-26 98:-2.4260631e-27 99:-3.4593988e-27 100:2.4797423e-13 
1 1:-3.9495211 2:-5.0604805e-13 3:9.3430666e-13 4:-1126.8804 5:9.5560742e-12 6:2969.1271 7:8.5730156e-11 8:1.1667123e-12 9:3.877786e-14 10:-9.9183392e-14 11:-4.6047056e-14 12:1.0640694e-12 13:-2618.8127 14:-2.2286066e-10 15:1.6766541e-11 16:5.9953456e-12 17:2.1304776e-12 18:-2.5568757e-13 19:-6.4814914e-15 20:-5.9647019e-13 21:-2.6225496e-11 22:-8.3258301e-13 23:-1.3119695e-11 24:7.188271e-13 25:1.4751316e-13 26:-9.0245978e-12 27:-787.02443 28:-8.9738315e-14 29:5.2560803e-13 30:1.9988105e-11 31:-3.0416507e-12 32:9.2551631e-12 33:6.8568275e-13 34:-3.5407614e-12 35:1.8984719e-12 36:376.17191 37:1.7811343e-13 38:-1.9072416e-10 39:2.6306012e-11 40:4.3755376e-12 41:4.652306e-13 42:-8.4223874e-13 43:1.7271518e-15 44:1.7596675e-14 45:-1.9094419e-10 46:8254.955 47:-2.6284536e-12 48:2.6945679e-12 49:2.7240341e-13 50:-1.2259766e-11 51:5.4301077e-12 52:-928.36144 53:145.49547 54:5956.3478 55:-43.753039 56:-25.240555 57:-5.905517 58:-182.32867 59:-27.616609 60:-59.913961 61:-64.149112 62:15.612573 63:299.62222 64:37.771368 65:166.30797 66:272.52308 67:-23.972247 68:-109.60027 69:-43.40158 70:-176.09902 71:33.342892 72:53.471408 73:96.188077 74:7574.0571 75:-42.326451 76:-190.93745 77:119.7949 78:271.47369 79:-217.91734 80:-30.341923 81:61.025361 82:18.0927 83:196.96872 84:-147.66938 85:262.31111 86:4.9055616 87:-2522.3577 88:-9.7049222 89:-140.4229 90:264.3278 91:-134.88659 92:2.0136524e-14 93:-36.681001 94:46.451166 95:-237.0191 96:2.0730972e-11 97:-6.1094407e-12 98:-759.26331 99:-1.0940983e-11 100:1.5958883e-12 
1 1:5.1890884e-13 2:-3.1405727e-26 3:2.352476e-12 4:-1.1602248e-11 5:-16293.252 6:4.4529067e-12 7:4.8688355e-12 8:3.0936566e-13 9:-3.166913e-27 10:-4.4155416e-14 11:1.2467417e-12 12:1.5583142e-12 13:-1.04794e-12 14:-1.4974243e-13 15:1.8351746e-12 16:1.505159e-12 17:7.4606226e-13 18:1.0910677e-13 19:1.5440315e-14 20:1.6360582e-12 21:-3.1994797e-13 22:-2.1423221e-13 23:-1.3206375e-12 24:3.5025522e-12 25:3.2533954e-13 26:-3.3465083e-12 27:-2.3720021e-12 28:1.0275099e-12 29:1.995431e-12 30:-5.2524485e-13 31:-5.1078569e-12 32:8.0640464e-13 33:3.9511017e-12 34:5876.2187 35:-2.7061454e-12 36:-5.3049478e-12 37:-1.5283091e-25 38:1.1550989e-11 39:-2.9681132e-12 40:-2.2291752e-12 41:-5.3312271e-13 42:-5.9526216e-13 43:-2.9685181e-13 44:-4.018552e-13 45:2.9161445e-12 46:3.1243406e-12 47:2.5238041e-12 48:-2.0289298e-13 49:-1.9264493e-25 50:6.4313846e-13 51:3.1791341e-13 52:-9.7955187e-13 53:5.1626169e-13 54:2.460888e-12 55:2.7932294e-13 56:7.1952189e-13 57:-3.3844457e-13 58:5.7326728e-13 59:8.805177e-13 60:7.8605245e-13 61:-1.4765616e-12 62:2.3160307e-12 63:2.2097304e-12 64:-7.8171761e-13 65:-4.477097e-13 66:1.2835523e-12 67:-9.3083189e-13 68:-8.0478139e-13 69:2.6966206e-13 70:1.4627589e-12 71:-5.7123116e-13 72:-1.2383141e-12 73:-4.9333117e-13 74:2.8511741e-12 75:-4.5194602e-12 76:7.1729383e-13 77:-6.4851723e-13 78:-5.2119848e-13 79:-1.7289815e-12 80:-1.8448809e-12 81:-6.5376996e-13 82:8.5978829e-13 83:8.3085337e-13 84:-1.6472243e-12 85:5.0033281e-13 86:7.8553736e-13 87:-4.194396e-13 88:8.8089504e-14 89:2.1218782e-13 90:-2.4357983e-12 91:9.0106144e-13 92:2.8016046e-13 93:-4.371713e-13 94:-1.254836e-12 95:-7.4571965e-13 96:2.8459505e-18 97:2.562312e-13 98:1.5019212e-12 99:-8.9313363e-14 100:-4.8108319e-13 
1 3:7.8558946e-31 4:1.1324197e-27 5:-1.554408e-13 6:3.8185539e-23 7:5.4449809e-24 8:-4.0518397e-13 10:6.1261441e-13 11:-5.8387881e-13 12:-6.6050027e-13 13:3.4221616e-19 14:4.3420322e-20 15:4.8590291e-13 16:3.0536684e-12 17:-9.6529918e-13 18:1.0217012e-12 19:5.6815103e-13 20:-1.2450515e-12 21:6.0931517e-18 22:3.2085308e-13 23:6.2682278e-17 24:8.7545858e-13 25:2.4457008e-13 26:-6.4194192e-13 27:3.4048265e-15 28:1.1087106e-12 29:6.31647e-13 30:-1.5829572e-13 31:1.3645558e-12 32:2.9010931e-13 33:5.3316444e-13 34:2.5103607e-13 35:-1.754391e-12 36:4.7004315e-13 38:-5.7301898e-14 39:-9.679366e-13 40:1.2206306e-13 41:2.9670713e-13 42:1.5882282e-12 43:-5.0955364e-13 44:6.2533845e-13 45:-3.4968259e-14 46:-2.3384201e-13 47:-1.0419687e-11 48:-1.0406349e-12 50:-4.4917732e-12 51:-6.9310017e-12 52:-2.6375332e-12 53:1835.627 54:-740.20537 55:-262.31291 56:-820.64891 57:-77.27296 58:1727.4717 59:306.49797 60:-967.38496 61:-859.39607 62:-2836.4212 63:1517.2332 64:-1754.2518 65:-1379.7123 66:-3098.4151 67:-2074.0601 68:1532.4296 69:-695.60166 70:-678.12956 71:1482.3475 72:487.83144 73:-1747.1696 74:786.6567 75:-1846.9643 76:-282.3201 77:1481.3222 78:1324.0908 79:-390.17532 80:1014.9716 81:1386.3315 82:313.08418 83:-3034.8176 84:-1493.3544 85:1757.8577 86:-1610.4728 87:669.11999 88:2989.6869 89:-1641.8411 90:-1162.5689 91:-2913.8202 92:2.5809443e-13 93:343.99311 94:319.61319 95:1429.7065 97:4.2694525e-12 98:5.1818777e-13 99:1.0520905e-12 100:-4.2992878e-12 
1 1:5.0992621e-12 2:-1.476077e-11 3:1081.0377 4:-8.5972435e-12 5:2.6279995e-12 6:4.0393503e-11 7:-1887.0538 8:-7.8454314e-13 9:1.7942923e-13 10:2.2113983e-24 11:1.7961841e-12 12:-3.7476832e-12 13:3.5101008e-10 14:-3633.689 15:5.7647516e-12 16:-1.4407543e-12 17:-4.7015463e-13 18:9.038004e-26 19:9.2444637e-29 20:-1.8944276e-13 21:-4429.2693 22:9.2278574e-13 23:3883.2731 24:2.6319098e-12 25:1.0711639e-24 26:-5.3598903e-12 27:-1.6458529e-11 28:2.4609572e-13 29:-6.144878e-13 30:-3.461461e-12 31:-2.1714387e-13 32:-6.1477298e-12 33:-1.5670771e-13 34:1.1680822e-11 35:3.7604037e-12 36:-2.4743858e-12 37:-6.1177001e-12 38:-3953.4248 39:1.762596e-12 40:3.178526e-12 41:6.0856024e-13 42:-5.0853896e-13 43:1.4177186e-29 44:-2.4029681e-13 45:1.6942353e-10 46:-8.30352e-11 47:8.3054003e-15 48:1.3360566e-11 49:-7.8498911e-12 50:-1.9135341e-13 51:1.7395635e-13 52:-9.7217197e-13 53:-2.2447416e-12 54:3.1401849e-12 55:-1.0303732e-12 56:1.9380829e-12 57:-4.9065389e-13 58:-8.9065181e-13 59:-2.6985964e-13 60:3.3977782e-12 61:3.4345773e-13 62:8.4637797e-13 63:-4.5385485e-12 64:6.6851593e-13 65:-1.1775693e-12 66:-1.3738309e-12 67:-1.2266347e-12 68:2.7231291e-12 69:9.2433635e-13 70:6.3785006e-13 71:1.8798177e-12 72:-2.3060733e-12 73:2.2079425e-12 74:4.9065389e-12 75:-1.0227067e-12 76:2.4778022e-12 77:-1.6927559e-12 78:-3.7979678e-12 79:1.1346371e-12 80:-1.0698555e-12 81:-2.2079425e-12 82:9.8130779e-14 83:-1.1530366e-12 84:-1.7050223e-12 85:-1.4719617e-12 86:-1.3492982e-12 87:-4.8084082e-12 88:1.2634338e-12 89:-9.7517461e-13 90:-4.9065389e-14 91:4.415885e-12 92:-4.2489349e-28 93:2.4532695e-14 94:-1.9626156e-13 95:6.3785006e-13 96:3.616839e-12 97:513.21276 98:7.1170217e-12 99:3071.735 100:-4.7954135e-12 
1 8:-2.2058998e-31 10:8.3789953e-31 11:-3.8846463e-34 12:-6.0338131e-35 16:-4.6720441e-27 17:-1.9177276e-32 18:-6.4618023e-27 19:2.220446e-12 20:-1.8039267e-37 22:-8.9889897e-32 24:1.0459637e-33 25:1.4575601e-29 26:-2.1805401e-27 28:1.6668265e-34 29:3.503697e-33 30:-6.7860786e-28 31:1.7272106e-33 32:-9.9213256e-28 33:-3.2086169e-30 34:-1.7097141e-31 35:-1.0714402e-28 36:-3.5795861e-41 39:-2.4717423e-27 40:3.9642229e-31 41:-1.1620622e-29 42:3.7297008e-25 43:-6.9518416e-13 44:-1.1731371e-24 47:-3.3025782e-31 48:-4.5875636e-35 50:-1.5192513e-28 51:-1.0019028e-29 52:-3.6490294e-40 53:-1.0199225e-12 54:2.4198095e-27 55:1.8108579e-12 56:1.4187569e-12 57:8.0326326e-13 58:-2.6862916e-12 59:5.3481736e-13 60:2.015495e-12 61:-3.5162248e-13 62:-2.1267554e-12 63:1.0407983e-12 64:1.5203563e-12 65:-5.4794167e-13 66:-1.7569065e-12 67:3.5094024e-12 68:1.6497357e-12 69:2.5998839e-12 70:2.7417399e-12 71:3.3917591e-12 72:-1.6612664e-12 73:-9.9146571e-14 74:-2.2482629e-27 75:-1.9932814e-14 76:4.2552791e-13 77:-3.155441e-12 78:-4.0438757e-13 79:6.6832441e-13 80:8.0919116e-13 81:-1.0260137e-12 82:-2.6981846e-12 83:2.2692743e-13 84:-3.8528747e-21 85:-1.2848966e-14 86:9.7649514e-12 87:-1.3764272e-27 88:-3.7696082e-13 89:-2.9377806e-12 90:-3.6467245e-13 91:-4.4634517e-14 92:5.5161087e-12 93:-4.7896267e-13 94:-5.9568428e-13 95:5.9150131e-28 97:-2.1034394e-36 98:-1.3134998e-37 99:-1.2052432e-37 100:-2.1993496e-31 
1 8:-9.4969696e-31 10:2.8416015e-24 11:-2.0929831e-33 12:-2.6310423e-34 16:-2.2568355e-26 17:-8.020024e-32 18:-5.2984644e-13 19:7.8062556e-14 20:-8.7366418e-37 22:-3.8699927e-31 24:9.7509728e-33 25:1.77712e-23 26:-9.7880244e-27 28:6.5576386e-20 29:-9.030288e-21 30:-3.3286846e-27 31:1.0683418e-26 32:-4.4743284e-27 33:-1.4607153e-29 34:-7.573399e-31 35:-5.2465947e-28 36:-2.5351158e-40 39:-1.3317338e-26 40:9.515019e-21 41:-2.883463e-19 42:3.519603e-13 43:-4.5195821e-14 44:6.9232554e-15 47:-1.4459213e-30 48:-2.2580191e-34 50:-7.3578956e-28 51:-4.7992544e-29 52:-1.6456269e-39 53:3.489873e-12 54:5.577321e-21 55:9.029179e-14 56:5.0278507e-13 57:1.0824286e-12 58:-1.346739e-13 59:-2.2018603e-12 60:3.3055886e-12 61:5.1641657e-12 62:5.1459353e-12 63:-4.4466501e-12 64:-2.7846057e-12 65:1.1101566e-12 66:5.2624304e-12 67:1.1686428e-11 68:3.925074e-12 69:-1.5028752e-12 70:-9.9076875e-13 71:2.5326776e-12 72:5.3834426e-13 73:2.950066e-12 74:-5.1770321e-21 75:-3.532708e-12 76:3.0232308e-12 77:5.2104317e-12 78:2.8619307e-12 79:-2.9317207e-12 80:6.5233926e-13 81:-2.6065011e-12 82:4.815565e-12 83:1.7271017e-11 84:-9.7323103e-13 85:-1.5915573e-12 86:8.1071253e-12 87:-3.155812e-21 88:8.8321292e-13 89:-6.1917066e-13 90:5.2976684e-12 91:1.1011964e-12 92:2.9590675e-13 93:-5.274073e-13 94:-4.6856879e-12 95:3.0767658e-15 97:-1.3976312e-35 98:-6.2918478e-37 99:-6.3728624e-37 100:-6.4059841e-31 
1 8:2.3463342e-18 10:1.9157765e-12 11:9.0315664e-21 12:8.2599102e-22 16:1.1194992e-13 17:2.7051671e-19 18:-5.5520032e-12 19:4.3913009e-15 20:4.4421326e-12 22:2.4939396e-12 24:2.6295192e-12 25:-1.1175316e-12 26:6.2747449e-14 28:-4.2307349e-12 29:2.1211228e-12 30:3.3106066e-14 31:1.6633272e-12 32:-1.2736605e-14 33:3.2630066e-12 34:8.2499217e-15 35:6.5752074e-12 36:-9.3835924e-26 39:-3.6884454e-13 40:241.87784 41:2788.8196 42:-2885.2016 43:8.7777371e-28 44:16847.54 47:8.4332024e-13 48:1.5427363e-16 50:-7.2460858e-13 51:1.8980382e-12 52:-9.0908269e-27 53:-2.6209958e-12 54:2.2710345e-13 55:1.0570183e-12 56:-2.0929987e-13 57:2.3202879e-13 58:5.2582103e-13 59:-1.1283176e-12 60:-1.5789973e-12 61:-2.6250104e-12 62:1.3720232e-12 63:-2.6010879e-12 64:-5.0870588e-12 65:6.1609124e-14 66:1.099759e-12 67:-3.0847312e-12 68:-5.6659108e-12 69:8.389056e-13 70:2.4998477e-12 71:-2.9379179e-12 72:-2.4866348e-12 73:3.2622952e-14 74:-3.709596e-13 75:-1.3827276e-11 76:-1.720147e-12 77:8.5416202e-13 78:-3.3350087e-12 79:-3.4398699e-13 80:-2.6575999e-12 81:-1.1684104e-12 82:1.5815477e-12 83:2.4923731e-12 84:2.1183547e-12 85:-1.255681e-12 86:3.6478951e-12 87:-5.3074682e-13 88:1.2484082e-12 89:2.2597399e-12 90:-8.3602686e-12 91:7.5327136e-13 92:-6.1146319e-27 93:-6.75919e-13 94:4.0655093e-12 95:1.7297558e-12 97:-5.4409435e-23 98:-1.6854235e-24 99:-1.5599813e-24 100:7.6226498e-13 
1 8:-8.66422e-24 10:-9835.7687 11:-3.0395317e-26 12:-2.7167322e-27 16:-3.4005573e-19 17:-7.5014738e-25 18:9.2028255e-15 19:-7.6680606e-14 20:-2.3896354e-15 22:2.3146484e-20 24:7.3181387e-16 25:2.7673096e-11 26:-1.3032226e-19 28:-1.0320514e-12 29:3.5425756e-12 30:-6.9887608e-20 31:3.5361281e-12 32:-1.0369205e-19 33:3.7907424e-17 34:-7.5112261e-22 35:-4.4958516e-19 36:-4.5497929e-33 39:-2.5392755e-19 40:-1.2107052e-12 41:-2.1631251e-12 42:-2.1630483e-12 43:-3.4895138e-13 44:5.2717573e-13 47:7.2730501e-16 48:1.3305027e-19 50:-6.1439631e-18 51:1.5644255e-16 52:6.3837935e-32 53:1690.9659 54:-9.2878123e-05 55:-2295.3924 56:-2479.2081 57:-2087.5696 58:1749.7562 59:-46.643259 60:-318.40582 61:-1316.1251 62:-1115.7047 63:-979.18192 64:1306.4466 65:2661.2876 66:1321.0461 67:-1442.2679 68:-640.97769 69:-2251.5946 70:-273.19533 71:-311.81924 72:1836.812 73:-2143.0016 74:8.6212183e-05 75:-44.07045 76:-400.99658 77:874.31628 78:-481.39203 79:-894.85292 80:769.91274 81:-942.52629 82:417.8787 83:-150.86902 84:-634.63535 85:-2868.5802 86:772.54914 87:5.2553168e-05 88:1704.7078 89:474.1111 90:245.1741 91:3151.9989 92:4.7810347e-13 93:-1419.5391 94:-113.69654 95:-112.0783 97:-7.2547686e-29 98:-1.8771949e-30 99:1.5921712e-30 100:-1.5794986e-15 
1 3:1.7032874e-34 4:1.3248668e-31 5:1.3056424e-23 6:1.2668999e-27 7:1.6343996e-28 8:3.7453732e-13 10:-4.0429292e-13 11:-7.7302253e-12 12:-3.4800976e-13 13:1.6234419e-24 14:4.9842404e-26 15:-4.5161758e-20 16:-2.5294351e-12 17:-5.7453844e-12 18:-7.0126949e-13 19:6.6431788e-13 20:-8.3888732e-13 21:6.0725845e-23 22:1.8172735e-12 23:8.152088e-22 24:1.3577603e-12 25:1.1614793e-12 26:-1.0991189e-12 27:1.0963254e-18 28:1.8762876e-12 29:1.8994652e-13 30:3.8010544e-13 31:1.7723665e-13 32:6.2175023e-13 33:9.2472379e-13 34:6.3871205e-13 35:-6.8026456e-13 36:2.9521549e-20 38:4.2656443e-19 39:-3.0913908e-12 40:-1.128436e-12 41:2.2470386e-12 42:1.6180819e-12 43:2.0799567e-13 44:-3.5626881e-13 45:1.9247522e-19 46:8.6683242e-19 47:8.2415593e-14 48:1.3907962e-17 50:-4.8392067e-12 51:-4.1976256e-13 52:-9.6554076e-17 53:572.72652 54:2214.9448 55:-64.240643 56:397.80183 57:-50.003139 58:2703.2301 59:-477.24749 60:3112.31 61:-1820.1733 62:-512.03882 63:39.880018 64:2120.3934 65:1062.3069 66:-6676.4067 67:-545.76556 68:-1735.3824 69:-300.41355 70:-1081.4036 71:-3895.7549 72:1447.6775 73:-477.27924 74:-2055.8236 75:-2744.4046 76:789.38826 77:-1793.0027 78:3169.2848 79:1350.4022 80:761.83699 81:-119.75642 82:-474.58224 83:2439.3112 84:2241.502 85:2933.7835 86:-5400.1923 87:-1252.8969 88:-2825.9426 89:887.89241 90:124.63548 91:3454.9902 92:3.2770824e-13 93:-271.46225 94:1042.4998 95:-1024.3256 97:3.9783724e-12 98:1.1090702e-13 99:9.494373e-14 100:4.56511e-12 
1 1:-3.9632371e-13 2:-1.8586092e-11 3:1293.6268 4:1.6107278e-11 5:7.4109595e-13 6:-8.0239415e-11 7:2445.7378 8:4.7524846e-12 9:-1.438076e-13 10:-5.4610527e-13 11:4.7536017e-12 12:3.3088339e-12 13:7.0823979e-12 14:-317.13815 15:8.4611011e-13 16:-8.2182413e-12 17:5.1953978e-12 18:-6.8355e-14 19:-5.097652e-14 20:-4.3049247e-12 21:596.56261 22:-1.0667016e-12 23:1141.3275 24:9.1393989e-15 25:4.2273734e-14 26:-7.199387e-13 27:-4.4973407e-12 28:-1.2114083e-13 29:-2.329562e-12 30:1.1390395e-12 31:-3.1622463e-13 32:-2.5185239e-15 33:4.1099505e-14 34:3.4717123e-12 35:2.7255898e-13 36:-1.2371929e-12 37:5.3705043e-13 38:-490.63581 39:-3.9114669e-12 40:1.5903237e-12 41:4.4655062e-13 42:-1.1611298e-14 43:-5.7214021e-14 44:1.3946685e-14 45:1.8583632e-11 46:-1.0866048e-11 47:3.3485017e-12 48:-2.1331996e-12 49:6.822167e-13 50:7.5816099e-13 51:-4.2908824e-13 52:1.3480785e-12 53:1.7908867e-12 54:1.2757001e-12 55:-4.0724273e-12 56:1.8767511e-12 57:-3.8761658e-12 58:-1.4831739e-12 59:-1.3124992e-12 60:4.2196235e-12 61:-1.0303732e-12 62:5.1518659e-13 63:-3.2015167e-12 64:-1.6099581e-12 65:-5.299062e-12 66:4.342287e-12 67:3.7657686e-12 68:-3.5449744e-12 69:-4.2857947e-13 70:-3.3364465e-12 71:2.0392802e-12 72:-2.011681e-12 73:2.1956762e-12 74:1.2033287e-11 75:1.2235681e-11 76:-2.5391339e-12 77:3.176984e-12 78:4.5538814e-12 79:4.3545533e-13 80:2.9600229e-12 81:-3.3855119e-12 82:2.3551387e-12 83:3.9006985e-12 84:4.7348101e-12 85:-1.766354e-12 86:3.4345773e-13 87:6.0841083e-12 88:-3.8271004e-12 89:-5.0982006e-12 90:-1.1910623e-11 91:3.0420541e-12 92:4.9166336e-14 93:-2.9439234e-13 94:5.8019823e-12 95:1.0941582e-11 96:-1.2577187e-12 97:8242.0249 98:5.8668607e-11 99:-1903.8103 100:-7.6581974e-13 
1 8:1.015996e-32 10:1.6005518e-21 11:4.2929991e-35 12:3.8821104e-36 16:3.959751e-28 17:9.2817502e-34 18:-1.2265221e-12 19:8.402691e-14 20:1.2643366e-38 22:4.1401615e-33 24:-7.7241685e-32 25:9.5690928e-21 26:1.3404496e-28 28:-6.1510639e-17 29:8.4704147e-18 30:7.9561513e-29 31:5.6666596e-24 32:7.446712e-29 33:1.556833e-31 34:1.6277687e-32 35:1.0225215e-29 36:9.3679013e-42 39:2.7315734e-28 40:-7.3017873e-18 41:2.2128067e-16 42:-2.7662129e-13 43:1.7486663e-13 44:-1.165536e-12 47:2.3076838e-32 48:4.3326366e-36 50:1.3707654e-29 51:6.7296894e-31 52:3.1827576e-41 53:-2611.3054 54:2.6284619e-18 55:-385.1211 56:-131.19379 57:-390.51619 58:-561.95509 59:-410.21716 60:-1174.0147 61:5977.7652 62:-2845.9838 63:-5995.1907 64:524.00549 65:2312.4816 66:116.72299 67:1188.0405 68:-2245.416 69:-311.21241 70:2695.5943 71:891.52006 72:-1572.3307 73:-782.31628 74:-2.439815e-18 75:-2330.3307 76:-2793.7003 77:-1795.8722 78:5016.9 79:-2227.5553 80:1924.5674 81:3455.7145 82:1109.014 83:-120.92043 84:-525.88687 85:-2766.2602 86:-1939.6248 87:-1.4872609e-18 88:-1576.1219 89:-2690.4317 90:-178.22107 91:-1592.7751 92:5.5496756e-13 93:-644.51588 94:-118.8929 95:1.6774662e-12 97:3.3303133e-37 98:8.8224838e-39 99:1.0126923e-38 100:1.6227996e-28 
1 3:-1.0483379e-36 4:-8.1542856e-34 5:-6.4781716e-28 6:-7.7975079e-30 7:-1.0059398e-30 8:-1.0540098e-12 10:5.4710509e-13 11:5.4590085e-15 12:3.5136156e-16 13:-9.9923871e-27 14:-3.0481476e-28 15:3.0986304e-22 16:-9.6193449e-13 17:-2.9640792e-14 18:7.8828213e-13 19:2.0087452e-13 20:-9.9864115e-13 21:-3.684076e-25 22:-6.519931e-13 23:-4.9197856e-24 24:1.5061935e-12 25:9.9465626e-13 26:-6.2910854e-13 27:-6.4470746e-21 28:-6.0113516e-13 29:5.2075267e-13 30:1.5858572e-12 31:9.317581e-13 32:-1.5532928e-13 33:-2.7731629e-13 34:-9.802442e-12 35:3.2130727e-13 36:-4.4053411e-22 38:-2.0687432e-21 39:1.8376606e-12 40:-5.807825e-13 41:5.3904339e-13 42:9.3412169e-13 43:1.7883679e-13 44:6.8944723e-15 45:-9.1003181e-22 46:-3.7868033e-21 47:-1.1882624e-12 48:-2.1737395e-16 50:1.1479925e-12 51:4.5717091e-14 52:6.5402288e-20 53:-3.5372643e-13 54:-1.8707204e-12 55:-1.4005843e-12 56:-6.7024679e-13 57:-1.0745401e-12 58:1.1616073e-13 59:-1.3433555e-12 60:1.1097634e-12 61:-5.1072501e-12 62:-4.3190874e-12 63:-2.9921305e-12 64:-5.4230436e-12 65:-7.7393064e-12 66:4.8780733e-13 67:2.6060593e-12 68:-2.6757618e-12 69:-2.3094594e-12 70:-3.7610399e-12 71:-2.7786519e-12 72:1.1267196e-12 73:-2.1201134e-12 74:1.9333381e-12 75:6.4285719e-13 76:-2.0229669e-12 77:3.278314e-12 78:1.3945432e-12 79:-2.4479539e-12 80:-2.6028326e-12 81:9.1049763e-14 82:-2.720804e-12 83:1.0557882e-12 84:-9.1644686e-13 85:1.7886398e-12 86:4.9152657e-12 87:-1.089402e-14 88:1.3062729e-12 89:-4.985653e-12 90:-4.99284e-12 91:7.233324e-13 92:7.5624835e-12 93:-2.1676596e-13 94:4.4345771e-12 95:-1.1700318e-12 97:2.4995864e-15 98:9.1745141e-17 99:1.004883e-16 100:-1.4655506e-12 
1 1:-30.568766 2:-2.0948509e-12 3:5.3480954e-13 4:-4650.9291 5:1.0257849e-11 6:8190.1153 7:2.5956288e-10 8:6.9990714e-13 9:1.2486045e-13 10:1.9877545e-24 11:3.5935396e-12 12:4.8208173e-12 13:-4190.704 14:-3.6708787e-10 15:2.8679374e-11 16:-1.2657124e-11 17:8.2345309e-12 18:1.7035621e-25 19:-6.4759394e-29 20:-1.0026213e-12 21:-4.1684775e-11 22:-9.5293016e-13 23:9.1086254e-12 24:7.4919428e-13 25:4.033972e-24 26:-9.8959549e-12 27:-206.11263 28:1.1094153e-12 29:-1.8046486e-12 30:1.0916553e-12 31:4.668497e-15 32:-6.0441748e-12 33:-5.5062468e-14 34:-1.9120659e-12 35:-1.1632858e-12 36:-105.28766 37:2.0895252e-12 38:1.6149601e-10 39:-2.0793758e-11 40:-2.6998493e-12 41:-7.1083934e-13 42:5.0004056e-13 43:-1.4327298e-27 44:2.4617658e-13 45:1.2945867e-10 46:-6182.6355 47:5.0520578e-13 48:-2.754915e-11 49:2.9559844e-12 50:4.8120885e-12 51:-2.8266602e-13 52:1464.3933 53:-4.9295383e-13 54:-2.0239473e-12 55:-7.1451473e-13 56:-6.0871749e-13 57:1.2067019e-12 58:1.3481962e-12 59:-5.4048593e-13 60:3.3119138e-13 61:1.5639593e-12 62:5.1365329e-13 63:-6.7081587e-13 64:-2.1665436e-12 65:-4.3545533e-13 66:-1.0518393e-12 67:-2.6924632e-12 68:8.2184527e-13 69:-2.1221679e-12 70:-5.9185126e-13 71:-2.3848462e-12 72:-1.358498e-12 73:1.6099581e-13 74:-1.4249662e-11 75:-1.2330554e-12 76:-6.2405042e-13 77:1.1055046e-12 78:-7.5476368e-13 79:-2.1331945e-12 80:-2.7907378e-12 81:1.4044968e-12 82:-1.9120169e-12 83:7.1604803e-13 84:-5.1518659e-12 85:4.661212e-13 86:2.5606e-12 87:1.074532e-11 88:-8.3564491e-14 89:-2.6861384e-13 90:3.276648e-12 91:-4.5998803e-13 92:1.6146634e-26 93:6.9688186e-13 94:-8.1111222e-13 95:-1.113171e-12 96:-1.2049518e-12 97:-1.6458785e-11 98:1819.3503 99:3.2162318e-12 100:1.8950936e-12 
1 3:-1.3587705e-29 4:-1.9532702e-26 5:3.2717778e-14 6:-2.5184157e-22 7:-3.713077e-23 8:-4109.9443 10:-2.3568587e-13 11:2.523824e-12 12:1.7136821e-12 13:-7.9149544e-19 14:-4.1648163e-20 15:-2.3869945e-13 16:-1.5622634e-12 17:-4.1568438e-12 18:9.814539e-25 19:1.7902121e-27 20:-3.6281217e-12 21:-2.6793473e-17 22:-5.5735543e-13 23:-2.6480979e-16 24:2.7799899e-12 25:4.7498199e-13 26:-6.4337052e-12 27:4.2898764e-14 28:-1.0071388e-11 29:-1.7004433e-12 30:-1.2981506e-11 31:-2.2934614e-12 32:-4.2457879e-11 33:8033.6059 34:-6.1887676e-12 35:-2.681991e-11 36:8.5706161e-13 38:-2.1426154e-14 39:-1.2581885e-11 40:1.5323609e-12 41:6.5500917e-12 42:4.4919207e-12 43:3.8706499e-28 44:-2.9220019e-12 45:6.6791077e-18 46:1.180064e-13 47:7.7636853e-12 48:4.8447535e-13 50:-5.3132523e-12 51:3738.092 52:3.5026899e-12 53:1.6712617e-12 54:-4.5247489e-12 55:2.2013575e-12 56:9.1864279e-13 57:3.1195921e-13 58:-1.702589e-12 59:1.3395951e-12 60:-3.814331e-12 61:-5.7198575e-13 62:-2.3555799e-12 63:2.0222846e-13 64:2.5142035e-12 65:-9.4542206e-13 66:-4.6388524e-12 67:6.9501326e-13 68:3.7920313e-12 69:2.2912792e-12 70:4.9641164e-13 71:2.2209877e-12 72:-3.6332525e-12 73:-1.7955237e-12 74:-3.0063118e-12 75:-9.9627088e-13 76:3.1564716e-12 77:-1.2960069e-12 78:-4.5234449e-13 79:1.1292714e-12 80:-3.5329469e-13 81:-1.356056e-12 82:-1.346502e-12 83:1.7012412e-12 84:3.0490716e-13 85:-4.6601363e-12 86:3.0006434e-15 87:-1.0444795e-11 88:2.4222486e-12 89:-1.0821544e-12 90:-1.8156912e-12 91:1.1982569e-12 92:1.604018e-27 93:5.415741e-13 94:-1.9316909e-12 95:5.4654313e-12 97:1.501309e-12 98:-1.3439027e-12 99:4.1066181e-14 100:-1.161258e-11 
1 1:-4.3905924e-16 3:-2.8715913e-16 4:-2.1019472e-14 5:-9.4681163e-14 6:4.0458949e-14 7:3.5505985e-14 8:5.5038206e-12 10:-1.6382199e-12 11:3.0231768e-15 12:-6.7747372e-13 13:1.1067501e-12 14:-2.5403179e-13 15:-7.4681148e-13 16:2.2025764e-12 17:9.3831564e-14 18:4.0152967e-14 19:-4.629672e-19 20:-1.8184087e-11 21:-4.314407e-12 22:-9.4942614e-12 23:-5.7928013e-12 24:6.1035637e-12 25:6.7283038e-14 26:-3.3354803e-10 27:-3.3483393e-10 28:0.43394285 29:-0.77092263 30:-16180.34 31:1.1777434e-10 32:8.2540119e-11 33:-1.871677e-11 34:-1.0677624e-12 35:-3.2508982e-12 36:1.7432233e-12 38:1.2697038e-11 39:-2.9163682e-11 40:1.4121757e-12 41:-2.4037034e-13 42:2.9896061e-12 43:-6.7923958e-28 44:4.8074067e-13 45:-3.2365084e-12 46:6.9289696e-12 47:-7.9665939e-13 48:1.6350327e-12 50:-1.2517778e-12 51:-1.6029033e-11 52:-3.0258024e-12 53:8.0571058e-13 54:1.245515e-12 55:-3.974898e-13 56:5.9284947e-13 57:-1.6021336e-13 58:-1.7463594e-12 59:-6.3756742e-13 60:6.3420191e-14 61:-1.4316984e-12 62:-3.3052036e-13 63:2.0397697e-13 64:-3.5773455e-13 65:-6.1366902e-13 66:1.8402705e-12 67:4.3931792e-14 68:-5.6113773e-13 69:4.6905406e-13 70:1.3825939e-13 71:1.8501151e-13 72:9.1910239e-14 73:5.1359223e-13 74:-2.4781075e-12 75:-5.0512814e-13 76:7.7574965e-13 77:-1.5883984e-12 78:8.2535152e-13 79:-7.5240892e-13 80:5.8292122e-13 81:1.3523569e-13 82:1.3297276e-12 83:2.1205557e-12 84:4.0150245e-12 85:-4.8715865e-13 86:2.0775184e-13 87:4.4475951e-12 88:1.7895562e-13 89:2.087698e-13 90:-8.3359247e-13 91:1.3116547e-12 92:1.1190602e-26 93:-1.0420905e-12 94:-1.0386911e-12 95:-1.2384631e-12 96:-1.5471798e-25 97:1.8411759e-12 98:2.5828755e-12 99:-2.7407467e-12 100:-7.0071273e-14 
1 1:-6.676531e-14 2:-8.1296947e-15 3:1.4307362e-13 4:-1.2175551e-12 5:8.8688432e-13 6:1.7733775e-12 7:5.8101178e-13 8:1.5135598e-13 9:-5.4274661e-15 10:1.2046656e-12 11:3.0795766e-13 12:-1.0978432e-12 13:5.9310779e-14 14:-1.6002531e-12 15:-1.8665277e-13 16:7.8659349e-13 17:-2.0548515e-14 18:-5.4581814e-12 19:-1.9645384e-13 20:-1.5787013e-12 21:5.4929838e-13 22:2.3587811e-12 23:-4.47397e-12 24:3.7304698e-12 25:2.6528182e-12 26:-4.485667e-12 27:5.3636063e-12 28:-3.8549208e-12 29:3.0302257e-12 30:-3.9731778e-12 31:2.0463115e-11 32:-1.7864524e-11 33:2.92626e-12 34:7.9346945e-12 35:5.3406052e-12 36:4.4693593e-12 37:5.2682724e-13 38:5.2527571e-11 39:1909.6793 40:11445.265 41:3026.3096 42:-2047.8599 43:4.9350084e-13 44:-1015.9748 45:987.19034 46:1.1930136e-11 47:-2.4969189e-12 48:-5.1926569e-12 49:6.888658e-13 50:-1.4215142e-12 51:9.6892483e-14 52:1.5360317e-12 53:2.6679305e-12 54:-2.3490055e-12 55:-1.4106299e-13 56:-2.8396594e-12 57:-2.2999401e-12 58:-6.7140283e-13 59:5.3435276e-13 60:-1.7908867e-12 61:3.8792323e-12 62:-1.2864332e-12 63:8.3487827e-13 64:-1.1033963e-12 65:-3.9344309e-12 66:-1.9534158e-12 67:-7.1336476e-12 68:9.6137497e-13 69:1.1231404e-12 70:3.0535538e-12 71:4.0344783e-13 72:2.2010427e-12 73:-1.1070378e-12 74:3.380912e-12 75:-1.6859519e-12 76:1.254234e-12 77:-8.4791126e-13 78:-3.7927929e-12 79:-3.0320877e-13 80:2.2743293e-12 81:-4.8973392e-12 82:-1.3385652e-12 83:2.04848e-12 84:8.0497904e-14 85:-3.0175214e-12 86:-7.1788798e-12 87:1.2051686e-12 88:-2.829693e-12 89:1.0333439e-12 90:4.0885269e-12 91:-6.4398324e-13 92:-2.6979546e-12 93:1.0541392e-12 94:-2.9554231e-12 95:1.8951507e-12 96:7.6506636e-14 97:-2.1199231e-14 98:-2.6630303e-13 99:-2.7236558e-13 100:-2.170832e-12 
1 43:2.2146695e-13 53:-9.622075e-13 55:-2.9439234e-13 56:-1.5700925e-12 57:1.3983636e-12 58:-2.9439234e-13 59:6.0105102e-13 60:1.4719617e-13 61:-9.9700317e-14 62:2.5514002e-12 63:-5.076159e-16 64:3.0665868e-15 65:3.4345773e-13 66:-9.6409186e-15 67:-1.5700925e-12 68:-2.2631411e-12 69:-1.4167631e-12 70:-1.6191578e-12 71:3.0420541e-12 72:1.5210271e-12 73:-4.9065389e-14 76:-2.2570079e-12 77:-5.8878467e-13 78:2.0607464e-12 79:-4.9065389e-13 80:-1.1898357e-12 81:-5.2502685e-13 82:7.6051353e-13 85:1.5243362e-12 86:6.3785006e-13 88:2.1588771e-12 89:-7.3598084e-14 92:9.9628586e-13 93:4.9065389e-13 94:-7.3598084e-13 
1 1:7.6645216e-12 2:-8.5871085e-13 3:1.2507499e-12 4:1.3288082e-11 5:-2.6000444e-12 6:-1.6582905e-11 7:-7.4713149e-12 8:-2.8080491e-14 9:4.5989244e-13 10:4.8824901e-15 11:1.7397182e-12 12:-3.6633787e-13 13:1.3250479e-11 14:-1.6080645e-12 15:-1.9092018e-12 16:-6.0869971e-12 17:2.1849091e-13 18:-5.2220688e-13 19:-1.272608e-15 20:9.4902429e-14 21:-3.9091672e-11 22:2.43832e-13 23:-4.8598336e-12 24:3.7967235e-13 25:1.7483352e-13 26:-6.7138569e-12 27:4.4096281e-11 28:-2.6663316e-13 29:4.7494166e-13 30:2.6910463e-12 31:2.7795423e-12 32:-6.1985497e-12 33:-1.7442506e-13 34:6.6044146e-12 35:8.079021e-12 36:1.398028e-11 37:-1.8494017e-11 38:-7.2677362e-10 39:-105.30857 40:1357.3422 41:358.9028 42:-242.86433 43:6.254641e-29 44:-120.48874 45:-17261.061 46:-3.6828348e-10 47:-3.1930564e-13 48:7.4100617e-11 49:-1.6620349e-11 50:1.9998773e-12 51:2.6979054e-13 52:-2.4783904e-11 53:-4.1705581e-13 54:-1.5700925e-12 55:-5.8878467e-13 56:-7.6051353e-13 58:8.6496915e-13 59:2.2079425e-13 60:-4.9065389e-14 61:3.9252311e-13 62:2.4532695e-13 63:-1.7418213e-12 64:-1.165303e-12 65:-6.8691545e-13 66:-6.3785006e-13 67:-2.6985964e-13 68:8.8317701e-13 69:-7.8035052e-13 70:1.4719617e-13 71:-1.0487727e-12 72:-9.8130779e-14 73:1.0549059e-12 74:-3.1156522e-12 75:2.9745892e-13 77:7.3598084e-14 78:-8.8777689e-13 79:-2.6985964e-13 80:-1.9135502e-12 81:1.4228963e-12 82:-4.9065389e-13 83:8.8317701e-13 84:9.1997605e-13 85:-1.9626156e-13 86:2.9439234e-13 87:4.6121466e-12 88:1.2266347e-13 89:-9.2304264e-13 90:3.4345773e-13 91:7.8504623e-13 92:2.6365186e-27 93:-1.4719617e-13 94:-2.9439234e-13 95:1.9626156e-13 96:2.1369708e-13 97:1.2204849e-12 98:-5.2441213e-12 99:2.8743261e-12 100:6.3470546e-13 
1 1:-4.2146273e-19 3:-1.5769695e-18 4:-3.2130388e-16 5:5.8565215e-13 6:-2.5701777e-13 7:-2.7129871e-14 8:9.3482271e-12 10:8.0356035e-13 11:3.9825438e-12 12:-3.9364886e-12 13:-2.3844786e-11 14:-6.2214086e-13 15:-3.0229126e-12 16:-1.9502414e-11 17:-14856.335 18:-1.1998932e-26 19:-8.0544135e-29 20:-4.651909e-12 21:8.9797802e-13 22:2.1793635e-12 23:3.1918853e-12 24:-2.2617889e-11 25:1.4252675e-13 26:-7.4598261e-12 27:3.1852658e-12 28:-4.6504138e-12 29:-8.8366743e-13 30:-1.0377065e-12 31:2.3984372e-12 32:-3.2203742e-12 33:-5.0999629e-12 34:8.5550156e-13 35:-1.2899072e-12 36:-7.4038173e-13 38:-1.4713392e-12 39:-7.9488434e-13 40:2.0721378e-13 41:-1.1032623e-14 42:-6.5961e-13 43:-2.8452186e-29 44:1.9512485e-14 45:-7.5995569e-13 46:-1.3547033e-12 47:-1.1981297e-12 48:-5.1714664e-12 50:-2.8846908e-13 51:-2.7170504e-12 52:-1.2119471e-12 53:-5.5749949e-14 54:-3.2898324e-12 55:6.2503507e-13 56:-2.5591328e-12 57:-1.1657915e-12 58:-2.2461052e-12 59:9.2970451e-13 60:-6.3287375e-12 61:-1.035671e-12 62:1.9614911e-12 63:-5.0936118e-14 64:-7.2303377e-13 65:1.4163679e-12 66:4.6258083e-12 67:2.8215928e-12 68:-2.0505327e-12 69:3.1526612e-13 70:-3.7342582e-12 71:3.5046681e-12 72:-1.4540846e-12 73:-9.7305499e-13 74:3.4709002e-12 75:4.2953785e-12 76:-1.8085665e-12 77:2.2883419e-12 78:-2.0205932e-13 79:9.9638103e-13 80:2.7835238e-13 81:8.689527e-13 82:1.439388e-12 83:3.5837481e-12 84:-4.6950206e-12 85:-8.9603439e-13 86:2.0232454e-12 87:5.7946775e-13 88:-1.9789471e-12 89:3.9041381e-12 90:-2.9299896e-13 91:-5.0112286e-12 92:-4.6048767e-27 93:-3.6298906e-13 94:-1.705775e-12 95:4.9463696e-12 96:1.2601012e-24 97:5.0104094e-13 98:-5.0782318e-12 99:4.1593398e-12 100:1.2274911e-11 
1 3:8.6669885e-33 4:6.8932205e-30 5:2.2924976e-15 6:3.3834516e-26 7:3.6898063e-27 8:3.3899157e-13 10:-3.244545e-12 11:3.2473263e-13 12:-1.1940951e-12 13:-2.0280673e-21 14:-4.4280798e-22 15:-5.802187e-15 16:-2.5144596e-13 17:-2.0981318e-12 18:6.388693e-10 19:3.4999055e-15 20:-6.968124e-12 21:1.0576581e-19 22:2.0656752e-12 23:1.3579656e-18 24:2.549107e-12 25:5.0647316e-11 26:-1.6697134e-11 27:9.6968009e-16 28:8889.0095 29:4580.9945 30:0.020131206 31:9.6006219e-11 32:1.388349e-12 33:-4.3692771e-13 34:-8.5599539e-13 35:-3.0245173e-13 36:-1.5390482e-15 38:5.1087662e-17 39:7.8868949e-13 40:-5.0631523e-12 41:9.5202146e-12 42:-2.569134e-12 43:-2.2558865e-27 44:1.6769293e-12 45:-2.672644e-18 46:-8.0163466e-16 47:-4.6618085e-14 48:-8.1163025e-15 50:4.673704e-13 51:4.1180758e-13 52:-7.4254681e-14 53:2.3696306e-12 54:1.0874345e-12 55:-3.4723879e-12 56:-8.1279501e-13 57:-1.0486265e-12 58:2.1039299e-12 59:-1.1929339e-12 60:-5.6586895e-12 61:-1.5811669e-12 62:-2.5085045e-12 63:-2.7060791e-12 64:-1.9617958e-13 65:-9.113628e-12 66:8.0256206e-12 67:8.6738625e-12 68:-3.204659e-13 69:-3.5593939e-12 70:-5.4271619e-13 71:-5.4661114e-13 72:-5.4224203e-12 73:4.0683306e-12 74:-6.0208909e-13 75:1.8217542e-12 76:-5.7564874e-13 77:1.3126807e-12 78:5.03817e-12 79:-5.7550469e-13 80:-3.1992833e-13 81:1.2581201e-13 82:-4.7998096e-13 83:2.5936952e-12 84:4.5034011e-14 85:3.4212377e-12 86:-1.7726264e-13 87:-3.0800032e-13 88:1.0924627e-12 89:5.224476e-12 90:1.4150781e-12 91:5.575785e-12 92:3.4901463e-26 93:-3.1686976e-12 94:-3.1041347e-12 95:-7.8743443e-12 97:-7.4491002e-13 98:1.638952e-12 99:2.9478615e-12 100:-2.106296e-13 
1 3:2.8816845e-30 4:2.2413148e-27 5:-3.1762722e-15 6:2.1482353e-23 7:2.7726077e-24 8:-4.310296e-14 10:-4.7230711e-13 11:-4.3202861e-14 12:-3.8980285e-13 13:3.2500631e-20 14:1.9649933e-21 15:1.4090148e-14 16:2.5542686e-12 17:-1.0568367e-12 18:-5.3263519e-24 19:-2.3815327e-28 20:-8.2820312e-12 21:4.5668959e-19 22:-8845.5193 23:4.5855786e-18 24:8.4942398e-12 25:3.310072e-13 26:7.2995857e-12 27:1.5472471e-15 28:2.9705072e-12 29:-1.1241546e-11 30:7.1843219e-12 31:-1.4056415e-12 32:2.8307256e-12 33:-1.0867994e-12 34:-6.9235701e-13 35:-2.7320049e-11 36:1.0892913e-14 38:-1.1815638e-15 39:-1.4459778e-13 40:1.5023146e-12 41:4.8674993e-12 42:-3.8985064e-12 43:-9.527723e-28 44:-2.0281247e-13 45:-7.3708365e-16 46:-5.2637705e-15 47:2.7964255e-13 48:-2.6950512e-14 50:-6.5922426e-12 51:7.5671404e-13 52:-1.0747685e-13 53:-1.2765337e-12 54:6.8844874e-13 55:6.1464469e-12 56:-4.2024218e-12 57:6.1841207e-14 58:-5.6923123e-12 59:4.1469698e-12 60:-3.9842929e-12 61:1.1126908e-13 62:3.5114468e-13 63:-8.9602683e-13 64:1.2520329e-12 65:6.2838544e-12 66:-3.4388801e-12 67:2.8824762e-12 68:1.3341574e-12 69:4.1581475e-12 70:-2.3989104e-13 71:-4.6556033e-12 72:-1.3305922e-12 73:-2.3566508e-13 74:2.6674224e-13 75:-4.6728031e-12 76:5.9345976e-12 77:-1.7846403e-14 78:-1.4319316e-12 79:-1.1411195e-12 80:-5.4415089e-12 81:4.5263321e-12 82:-3.4995463e-12 83:-7.1002091e-12 84:4.2689598e-12 85:-1.7304455e-12 86:2.3937996e-12 87:-5.6118539e-13 88:-1.1194354e-12 89:2.2188023e-12 90:-2.371382e-12 91:8.260454e-12 92:-7.1577014e-27 93:-3.143853e-13 94:-4.2727106e-13 95:7.293626e-12 97:7.1589366e-12 98:1.744568e-12 99:2.9979006e-12 100:3.4934064e-11 
1 1:-2.061117e-14 2:-1.5623343e-17 3:2.6754529e-14 4:4.8551846e-14 5:5.5644722e-12 6:-1.8137788e-13 7:4.3142136e-13 8:2.7092047e-13 9:-1.5831121e-18 10:1.3526382e-12 11:-1.2065333e-12 12:1.3393657e-12 13:-4.5043642e-11 14:-1.0861612e-11 15:-7071.0678 16:-9.5743236e-11 17:2.793106e-12 18:6.8729226e-14 19:-8.272401e-14 20:1.6527357e-12 21:3.7919671e-13 22:3.5008212e-13 23:2.1157377e-12 24:1.8237167e-12 25:-6.3092548e-13 26:-2.2856105e-13 27:2.6479283e-13 28:3.8242532e-14 29:9.9368286e-13 30:-8.7797777e-13 31:4.131657e-12 32:-8.469862e-14 33:-1.2406461e-12 34:1.9932937e-12 35:4.5430705e-14 36:-1.5959788e-11 37:-1.4178869e-16 38:-7.5836588e-13 39:2.0461089e-12 40:-6.5201498e-13 41:3.7780191e-13 42:-3.9100482e-13 43:-2.0075746e-13 44:-3.7211259e-13 45:7.3613415e-13 46:2.3823955e-12 47:-2.051242e-12 48:5.6136831e-12 49:-1.8478018e-16 50:2.5054982e-13 51:-1.2824041e-12 52:3.4479699e-12 53:-2.6985964e-13 54:5.299062e-12 55:5.3971928e-13 56:9.8130779e-14 57:-4.9065389e-14 58:-1.8215526e-12 59:1.7418213e-12 60:-8.0957892e-13 61:5.3971928e-13 62:-8.3411162e-13 63:1.6191578e-12 64:1.2082352e-12 65:1.1775693e-12 66:5.3481274e-12 67:6.1331737e-13 68:5.3971928e-13 69:5.9731362e-13 70:-3.2628484e-12 71:4.9678707e-13 72:-1.3247655e-12 73:-2.3060733e-12 74:3.4591099e-12 75:-2.4103373e-12 76:1.4719617e-13 77:3.0175214e-12 78:1.2910331e-12 79:-6.5011641e-13 80:-3.135585e-13 81:6.8691545e-13 82:-3.9252311e-13 83:-2.8457926e-12 84:1.1039713e-12 85:-7.8504623e-13 87:-1.1775693e-12 88:-1.3983636e-12 89:-2.1282113e-12 91:-5.8878467e-13 92:4.7046835e-13 93:4.9065389e-13 94:1.5700925e-12 95:1.8644848e-12 96:-1.4464409e-14 97:-1.2393184e-12 98:1.8729005e-11 99:8.530258e-12 100:-1.3363013e-13 
1 3:-6.7962958e-29 4:-8.1250573e-26 5:1.4605548e-13 6:-8.6293231e-22 7:-1.2481981e-22 8:-14337.5 10:1.4545867e-12 11:1.5560719e-11 12:5.8930074e-12 13:-1.9148875e-18 14:-9.2432289e-20 15:-5.1226359e-13 16:6.1317463e-12 17:-3.9403373e-12 18:1.4976031e-24 19:8.4409898e-30 20:7.9016872e-12 21:-2.3786507e-17 22:1.4280898e-12 23:-1.9274752e-16 24:-5.0671948e-12 25:-1.8910417e-13 26:1.1274279e-11 27:-2.8681734e-14 28:1.4476088e-11 29:-3.2086774e-11 30:1.5539501e-11 31:7.8411315e-13 32:6.3290658e-11 33:-11957.942 34:5.7145637e-12 35:3.9479658e-11 36:-3.7769636e-12 38:3.2865576e-13 39:1.7653135e-11 40:-2.8168399e-13 41:-2.568958e-12 42:-1.6919818e-12 43:4.1499876e-28 44:-6.7604157e-14 45:1.663598e-13 46:6.8610911e-13 47:4.6305485e-12 48:1.5641492e-12 50:1.8293643e-11 51:7097.0075 52:5.3864484e-12 53:-1.1416856e-12 54:-6.5624958e-12 55:2.0910268e-12 56:1.0516432e-12 57:9.0895898e-13 58:-2.157087e-12 59:6.2617884e-13 60:2.8763877e-13 61:1.6946084e-12 62:-2.4291841e-12 63:4.3320607e-12 64:3.0384781e-12 65:3.065964e-13 66:-5.2320169e-12 67:-2.7377167e-12 68:-9.7305876e-14 69:2.1008895e-12 70:7.0319896e-13 71:-2.1333809e-12 72:1.0138296e-12 73:-4.4844523e-12 74:2.2696523e-12 75:-5.8877644e-13 76:1.9179369e-12 77:3.2286888e-12 78:4.7811045e-12 79:2.4200319e-13 80:1.1016499e-13 81:1.2907123e-14 82:-2.1662207e-12 83:-2.6744227e-12 84:-1.4771554e-12 85:-1.2778474e-12 86:2.4563182e-12 87:-9.4144216e-13 88:1.0330536e-12 89:1.338891e-12 90:-9.8586395e-13 91:1.8111405e-12 92:-2.8679528e-27 93:5.7994635e-13 94:1.4624666e-12 95:1.3346154e-12 97:2.3336183e-12 98:-8.5984334e-13 99:6.383242e-14 100:-5.1948779e-13 
1 3:1.3108813e-34 4:1.0197658e-31 5:-8.3990172e-20 6:9.7694766e-28 7:1.2609579e-28 8:-4.0634844e-13 10:1.7406168e-12 11:1.2919458e-12 12:5.4605807e-13 13:1.6230051e-24 14:1.2544679e-25 15:1.1304002e-18 16:6.0675639e-12 17:1.8910341e-13 18:3.1926264e-13 19:7.5845075e-14 20:-6.3034942e-11 21:-2.5346747e-23 22:1.7160818e-11 23:-5.1637998e-22 24:12131.314 25:1.0108764e-08 26:6.1155212e-11 27:-9.3180626e-19 28:3.5505989e-13 29:-5.0218797e-12 30:5.8251472e-12 31:2.9427231e-12 32:7.4727485e-12 33:-3.8652386e-12 34:-4.1193004e-12 35:1.1426497e-12 36:5.3778139e-18 38:-7.3290436e-19 39:5.6263424e-12 40:-4.7663278e-12 41:1.2702187e-13 42:1.8395725e-12 43:2.1358807e-13 44:-8.5806518e-13 45:-4.6214899e-19 46:-3.9360498e-18 47:5.5665204e-12 48:1.0399494e-15 50:3.3557949e-13 51:1.948615e-12 52:-1.8301246e-16 53:3.8804743e-12 54:-5.1969199e-12 55:-1.7356811e-12 56:4.957992e-14 57:-1.7101075e-13 58:2.9646326e-12 59:2.643035e-13 60:2.2806187e-12 61:-3.4695909e-12 62:3.6549305e-12 63:-2.0782304e-12 64:-4.0665841e-13 65:1.6632352e-12 66:6.4335648e-13 67:2.1822711e-13 68:-2.9781092e-12 69:6.4489202e-13 70:-2.8321905e-12 71:3.1961199e-13 72:1.2012906e-13 73:-1.0469617e-12 74:4.6661425e-12 75:2.3527917e-13 76:1.0221729e-13 77:6.4725155e-13 78:3.9972157e-12 79:1.9654733e-12 80:-2.5088851e-12 81:-2.4657923e-12 82:4.3307799e-12 83:-2.3424053e-12 84:-2.3618084e-15 85:-1.3183052e-12 86:-7.211207e-12 87:1.5326675e-12 88:7.1556123e-13 89:-8.1294743e-13 90:-4.8473787e-12 91:-6.2073438e-13 92:1.0967461e-13 93:-2.554549e-12 94:5.1239147e-12 95:-2.0733104e-14 97:-9.9900904e-15 98:4.5774701e-15 99:8.7026205e-15 100:5.6308276e-13 
1 3:2.7471214e-31 4:2.1368613e-28 5:1.1094292e-16 6:2.0416097e-24 7:2.6334222e-25 8:2.3791989e-13 10:5.8103893e-13 11:-9.5989967e-13 12:-2.1837549e-12 13:2.4847571e-21 14:5.1315352e-23 15:-4.5316784e-16 16:-2.1177973e-12 17:-1.0629339e-12 18:-1.8568276e-25 19:1.0013989e-28 20:-1.8783668e-12 21:1.0483616e-19 22:-8.4474182e-13 23:1.4047559e-18 24:-5.9075775e-12 25:2.4832811e-12 26:3.8194023e-12 27:1.8965756e-15 28:-2.0892796e-12 29:2.4683573e-12 30:7.7476291e-13 31:-2.6462642e-12 32:5.799729e-12 33:-1.6581135e-12 34:-3.8293289e-12 35:-8.8110283e-13 36:1.3292988e-15 38:8.8002178e-16 39:-5.413174e-12 40:-8.0608568e-13 41:3.8900559e-12 42:-5.2504722e-12 43:-3.4590493e-28 44:-1.526023e-12 45:3.7541839e-16 46:1.121419e-15 47:8506.5079 48:1.5561465 50:1.0758528e-11 51:-9.8328129e-12 52:5.4826431e-14 53:-3.5576592e-12 54:8.0798813e-12 55:4.4369616e-13 56:2.3236749e-12 57:-5.7581163e-14 58:1.1011833e-12 59:-5.7236532e-13 60:-5.5925828e-13 61:-1.1190346e-12 62:-1.6795984e-12 63:1.3444212e-13 64:3.5677355e-12 65:-4.677614e-12 66:-4.9479294e-12 67:-2.4579132e-12 68:-1.1894052e-12 69:6.1908094e-13 70:-9.6090839e-13 71:6.4854944e-14 72:-3.6835797e-13 73:-4.6414889e-12 74:4.8936844e-12 75:2.6844802e-12 76:-3.7307361e-14 77:5.9575044e-12 78:5.3190224e-12 79:2.696209e-12 80:2.1715425e-12 81:-4.5049755e-12 82:-6.8911526e-13 83:-4.3577042e-12 84:-5.0316871e-12 85:-2.6403752e-12 86:7.0312267e-13 87:2.6529426e-11 88:9.7002828e-15 89:-1.7776684e-13 90:-4.0116683e-12 91:4.0727043e-13 92:-1.3506434e-28 93:1.9199027e-12 94:2.4168263e-12 95:-1.8360198e-12 97:-1.3737179e-12 98:-4.296219e-13 99:-6.6983489e-13 100:-3.4033809e-12 
1 43:-9.2081508e-13 53:-1.3836411e-19 55:8.8317701e-13 56:3.2628484e-12 57:1.8215526e-12 58:-3.6676379e-12 59:-4.9832036e-13 60:-1.816946e-12 62:-2.2202089e-12 63:-1.0863494e-16 67:4.4952282e-13 68:3.0788532e-12 69:2.2018093e-12 71:9.5064192e-14 76:-4.7225437e-13 77:9.322424e-13 78:1.050306e-12 79:-6.1331737e-13 80:-7.3839941e-13 82:3.9252311e-13 85:-2.0753402e-19 86:9.5826389e-13 88:1.0025927e-13 89:5.7651832e-13 92:2.6895324e-12 93:-2.2079425e-13 94:1.3983636e-12 
