svm_type epsilon_svr
kernel_type rbf
gamma 0.00571429
nr_class 2
total_sv 249
rho -89.9217
probA 35.0235
SV
-1 1:-0.0005163797 2:0.021890992 3:-0.0012461176 4:0.010768649 5:-0.0030678005 7:0.00021999429 8:-0.19033698 9:0.049971951 10:-1.5091058e-18 11:-0.040524057 12:1.1535282e-16 16:0.040730004 17:-0.0020818129 18:0.043871324 19:-0.49827899 20:4.1803015e-15 24:0.13721417 25:-0.039918019 26:0.041111925 27:-0.055799785 28:1.0856934 29:-3.0379016 30:2.6057396 31:-0.42077459 32:0.91656922 33:-0.03219827 34:-0.16417823 35:0.014764148 36:0.052716265 37:-0.07876023 38:-0.21786681 39:0.05774652 40:4.6157857e-15 71:0.014053645 72:-0.04046241 73:-0.010849666 75:-0.10716 76:1.1387783 77:-0.65303253 78:4.7349447 79:-0.1791783 81:-0.60328711 82:0.24144531 84:-0.035699227 86:-0.00069902231 87:-0.0087325176 88:0.0014251133 89:0.04193324 90:0.028164427 91:-0.21571446 92:-0.080612029 94:0.030013467 96:6.7365907e-15 98:0.010207463 100:0.22165618 101:-0.034151746 102:-0.075967945 103:-0.030785516 105:0.10371185 106:-1.153979 107:-0.097674176 108:0.066355546 109:0.0090591306 110:0.00015507029 111:-0.13531951 115:-1.0603967e-14 173:-1.1210388e-43 
1 1:5.43061e-16 2:2.3216035e-16 3:1.1071625e-15 4:-7.1417601e-16 5:-1.116261e-15 6:-3.9597169e-16 7:-1.3284569e-15 8:6.2238036e-16 9:-2.1575453e-16 10:-1.5163103e-15 11:8.1769476e-16 12:4.5175406e-18 13:-1.7817087e-15 14:1.7559491e-16 15:7.5772022e-16 16:4.1080686e-15 17:-5.81068e-16 18:-3.8599118e-16 19:6.8361406e-16 20:-1.9168017e-15 21:5.5009918e-16 22:-3.9639096e-17 23:2.1586698e-16 24:-2.813503e-16 25:8.4172708e-17 26:9.501397e-16 27:1.6653412e-16 28:-4.3046913e-16 29:1.7042504e-15 30:-8.4594493e-16 31:1.4724426e-15 32:8.3308367e-16 33:1.596383e-15 34:-2.0450485e-15 35:-2.6005592e-16 36:-6.3248857e-17 37:-2.5374896e-15 38:7.9274488e-16 39:5.803495e-16 40:3.0465583e-15 41:9.1000964e-16 42:2.4149371e-15 43:-6.8691545e-16 44:1.5248603e-15 45:3.4805761e-16 46:-2.4816021e-19 47:-3.3789954e-16 48:7.3291425e-16 49:-1.3968303e-15 50:-3.9022317e-16 51:-7.7891306e-16 52:-1.4412958e-16 53:-1.1607031e-15 54:-3.6823e-17 55:-1.7172886e-16 56:-8.0938726e-16 57:1.02424e-15 58:-1.1021984e-15 59:2.7369287e-16 60:1.1980292e-15 61:-7.4364731e-16 62:-1.6229911e-15 63:-3.9405641e-16 64:1.2910331e-15 65:-8.1877868e-16 66:1.2120684e-15 67:5.7958491e-16 68:-1.3646311e-15 69:-1.6869103e-15 70:-1.3055993e-15 71:-4.0729963e-15 72:-2.499801e-15 73:4.8078099e-16 74:-8.6259296e-16 75:-1.33576e-15 77:9.1993927e-16 79:2.9144224e-15 80:-2.319133e-16 81:-7.9974255e-16 82:1.1903656e-15 83:-2.7322576e-16 84:2.1985091e-16 85:-2.3112535e-15 86:-4.8542061e-15 87:1.4175061e-15 88:-4.214361e-15 89:-3.8100129e-16 90:2.799327e-15 91:2.0293429e-15 92:-1.7244116e-15 93:-2.1128743e-17 94:-4.9715501e-16 95:-1.996887e-16 96:7.8424776e-16 97:7.0920086e-17 98:1.7878956e-16 99:-9.6425353e-16 100:-7.7849988e-16 101:-6.9969866e-16 102:-1.247869e-16 103:-6.0946765e-16 104:-4.9526414e-16 105:7.6113592e-16 106:5.1142726e-16 107:-7.9801785e-16 108:-2.4991864e-15 109:2.265192e-15 110:2.848956e-16 111:3.1414077e-16 112:1.420152e-15 113:4.4861182e-16 114:9.3764939e-16 115:-6.8594721e-16 116:1.2340405e-15 117:3.505896e-16 118:5.1889431e-16 119:7.1547208e-16 120:1.0145153e-16 121:6.1877137e-16 122:1.2712868e-16 123:-3.0829849e-15 124:1.0931633e-15 125:-1.0867769e-15 126:3.8735503e-16 127:-3.5783162e-16 128:7.3255969e-16 129:-5.1291189e-16 130:-1.8711756e-17 131:2.5412349e-16 132:1.0970327e-16 133:3.4990784e-16 134:-9.83389e-16 135:5.8689422e-16 136:-1.8863854e-15 137:1.5302022e-15 138:2.5333252e-15 139:1.8274215e-15 140:5.6568605e-16 141:6.0808102e-16 142:3.3873126e-16 143:3.7919416e-16 144:-8.3150239e-17 145:7.1764176e-16 146:-3.8937931e-16 147:1.4655541e-16 148:2.2195918e-16 149:1.5604132e-16 150:-2.0103388e-16 151:6.6279774e-16 152:8.2693638e-16 153:-2.5024181e-17 154:5.0368118e-16 155:-1.408772e-15 156:1.6602848e-16 157:4.7222047e-16 158:-8.14802e-16 159:-1.2400869e-15 160:1.6659726e-16 161:4.1468555e-16 162:1.487598e-15 163:-8.7767341e-16 164:-2.5905839e-16 165:-4.953658e-16 166:1.4732386e-15 167:2.8597993e-16 168:1.0940427e-15 169:1.3188365e-15 170:4.8615193e-16 171:6.021816e-16 172:2.2716393e-15 173:1.5550247e-15 174:-1.7815458e-16 175:7.6297947e-16 
1 1:-0.00067946499 2:0.0302815 3:-0.0017527458 4:0.015269969 5:-0.0045340802 6:-3.9802907e-17 7:0.00032574888 8:-0.28551908 9:0.076047109 10:4.4238886e-16 11:-0.063433636 12:9.5768544e-16 13:-5.2901888e-16 14:2.8714716e-17 15:1.4467611e-16 16:0.069047058 17:-0.0036342166 18:0.076951286 19:-0.88186693 20:7.3871051e-15 21:-1.9977929e-17 22:2.4133689e-26 23:1.8052565e-18 24:0.25044949 25:-0.073391418 26:0.076409189 27:-0.10570982 28:2.2778146 29:-6.6363793 30:5.87266 31:-0.97204231 32:2.2251928 33:-0.083242906 34:-0.4446806 35:0.042224633 36:0.15416042 37:-0.24453753 38:-0.78571362 39:0.21691504 40:2.4070272e-14 41:-2.2546109e-15 42:7.634227e-16 43:4.1050304e-16 44:2.2809689e-15 45:-8.0148361e-15 46:-1.0312821e-21 47:-3.163566e-15 48:5.4741849e-15 49:2.1622817e-16 50:-9.1463046e-16 51:2.5731797e-15 52:3.5495996e-15 53:-4.2517746e-16 54:1.461498e-15 55:1.9126674e-15 56:-1.0421109e-15 57:-1.2196883e-16 58:-4.7962009e-16 59:-2.3238429e-15 60:-1.9541617e-15 61:-9.5757719e-16 62:-1.5198091e-15 63:-2.0267006e-15 64:-2.6303864e-15 65:8.5728315e-16 66:2.4223878e-15 67:1.2846881e-15 68:2.7976057e-15 69:-1.8897642e-15 70:3.6989573e-16 71:0.10468079 72:-0.48979974 73:-0.17626524 74:1.8491968e-17 75:1.4838374 76:-6.8382552 77:1.1190269 78:-1.0604968 79:-0.14688686 80:-1.3480657e-16 81:-0.87510075 82:0.49365085 83:1.4770831e-15 84:-0.31869416 85:1.7400079e-15 86:-0.33132084 87:0.051403192 88:-0.0046189134 89:-0.07562038 90:-0.044802552 91:0.17311572 92:0.042239954 93:-7.9389956e-17 94:-0.00085191324 95:5.4098422e-16 96:-4.9735239e-16 97:4.3021997e-27 98:3.2852282e-05 99:-9.6038146e-16 100:0.1238011 101:-0.026227507 102:-0.068849643 103:-0.041240911 104:-3.8683287e-17 105:0.15685419 106:-3.2295833 107:-0.32519404 108:0.24109846 109:0.050104744 110:0.0014696738 111:-3.6022285 112:5.6824782e-15 113:4.3470965e-16 114:8.5427071e-16 115:-1.4441176e-13 116:-3.4114576e-15 117:5.9720863e-16 118:-8.3683325e-16 119:-3.3158463e-14 120:1.2204794e-14 121:4.283832e-15 122:7.671881e-15 123:-2.494147e-14 124:-1.3073119e-14 125:6.4440818e-15 126:4.3000767e-15 127:1.4144149e-14 128:-6.3012787e-16 129:-1.4516085e-14 130:1.695526e-14 131:3.0326287e-15 132:-9.9290325e-15 133:-9.6764357e-15 134:-5.9502283e-15 135:-9.5700844e-15 136:1.4332941e-15 137:-2.160693e-14 138:-7.0923937e-15 139:-3.2603695e-14 140:2.0509836e-14 141:-1.1516043e-15 142:-1.4800159e-15 143:-1.2844607e-14 144:1.9234547e-14 145:1.6210954e-14 146:1.4469534e-15 147:7.2829621e-15 148:-1.7629902e-14 149:-3.1723015e-15 150:1.4950587e-14 151:1.3039614e-14 152:-1.9322444e-14 153:-5.9916818e-15 154:-1.7028571e-14 155:-1.3159064e-14 156:-5.4029952e-15 157:1.5023561e-14 158:1.1914965e-14 159:1.6385118e-14 160:2.7582559e-14 161:1.006871e-15 162:2.5597851e-14 163:-1.2323636e-15 164:1.0366639e-14 165:-3.4930713e-15 166:-2.0050353e-14 167:-7.1154471e-15 168:5.8003432e-15 169:-5.5249011e-15 170:2.9958646e-14 171:2.961159e-14 172:-5.7778582e-15 173:1.8551291e-14 174:-3.3940141e-15 175:-1.4655206e-15 
-1 1:-0.005353255 2:0.092423278 3:0.0012247014 4:-0.093336912 5:-0.014268398 6:7.8913098e-16 7:0.001134636 8:-0.018697657 9:-0.12285165 10:5.5276994e-16 11:0.031431254 12:1.3306723e-15 13:-2.9545883e-16 14:4.4641541e-16 15:-7.2980758e-17 16:0.15789694 17:0.12707019 18:-0.034743344 19:-0.0044762022 20:1.066343e-15 21:6.500297e-16 22:-1.5793451e-15 23:-1.2955854e-16 24:0.041320342 25:0.14658243 26:-0.0018589995 27:0.004304441 28:-0.083554147 29:-0.052905098 30:0.0098088687 31:-0.10954858 32:-0.19733915 33:0.068945023 34:0.11010928 35:-0.060654897 36:-0.034323637 37:-0.094769793 38:-0.063287618 39:0.081118513 40:2.6928304e-15 41:4.1051855e-15 42:-2.9823365e-15 43:6.3253175e-16 44:9.8835676e-16 45:-1.3842657e-15 46:-4.9237961e-16 47:-7.177225e-16 48:9.316767e-16 49:-1.4513042e-15 50:-3.1034362e-15 51:-8.9725272e-16 52:8.0892926e-16 53:3.3924162e-15 54:-1.446147e-15 55:1.8340138e-15 56:-2.4311543e-15 57:-3.2646169e-16 58:1.3668194e-15 59:-3.1137951e-15 60:-7.6268399e-16 61:-3.1179789e-16 62:8.5471994e-17 63:2.2939877e-15 64:7.358924e-16 65:-1.227926e-15 66:2.9214347e-15 67:-2.672602e-15 68:2.9691886e-15 69:4.6897003e-16 70:2.4964625e-15 71:-0.03960698 72:-0.19691968 73:0.18561907 74:-2.2727087e-16 75:0.05592177 76:-0.022659116 77:-0.019366998 78:0.037088071 79:0.022917765 80:-3.6004279e-17 81:0.19134261 82:0.075596554 83:1.7075328e-15 84:0.33344045 85:-6.1554668e-15 86:-0.18645222 87:0.09235092 88:0.02548583 89:0.2846943 90:-0.40900809 91:8.7909877e-06 92:0.24983915 93:-4.5868259e-15 94:-0.20064345 95:9.0481051e-15 96:-1.1861786e-13 97:-6.1512063e-16 98:-0.1595796 99:3.6563665e-15 100:0.091894871 101:-1.1022293 102:0.56364847 103:-1.585587 104:5.4944171e-15 105:-0.71331866 106:-0.030277497 107:0.74280193 108:1.0343094 109:-0.93096987 110:-0.73683143 111:0.0013411723 112:-0.15135727 113:-1.24931 114:0.3826249 115:-0.44610989 116:-0.10558494 117:-0.28038373 118:0.35875625 119:-0.44682798 120:0.34568568 121:-0.47933279 122:-0.18949681 123:0.19767654 124:0.093466953 125:0.0019605443 126:-0.38495385 127:-0.5432229 128:-0.14567043 129:0.29480116 130:0.28160423 131:0.028335347 132:0.31759868 133:0.22520499 134:0.12929226 135:1.3216712 136:1.2796602 137:0.12530752 138:0.4593384 139:-0.67314076 140:0.11696841 141:-0.44510567 142:-0.56624195 143:0.0074981521 144:0.53909824 145:-0.24697502 146:-0.0097857311 147:0.03839546 148:-0.20806476 149:0.24688097 150:-0.0077500894 151:-0.12965528 152:0.030417791 153:0.88514003 154:0.78669733 155:0.66761213 156:0.30196693 157:0.38188421 158:-0.67174746 159:0.13457894 160:0.62425986 161:0.61618362 162:0.13722565 163:0.093656577 164:-0.029181201 165:-0.48352785 166:-0.25551323 167:-0.45615276 168:-1.0851482 169:-0.17767119 170:0.37284063 171:-0.10992229 172:-0.66113446 173:-0.28236233 174:-0.7535258 175:0.32510253 
0.3976945921726184 1:-4.5318631e-16 2:-4.2452178e-15 3:6.5367528e-16 4:2.3373033e-15 5:-1.1319829e-15 6:1.5785448e-15 7:-2.2040363e-15 8:7.9664686e-15 9:-1.0356217e-14 10:1.4224004e-15 11:-3.8764789e-15 12:7.5513606e-15 13:4.7387936e-15 14:1.0790739e-15 15:4.6027298e-16 16:-1.1612915e-15 17:2.1487877e-16 18:-5.0893653e-15 19:5.4689125e-15 20:1.0428701e-15 21:-3.1625708e-15 22:1.1248784e-16 23:-7.974707e-16 24:1.2379413e-15 25:8.9784222e-16 26:-2.1238417e-15 27:3.719262e-15 28:1.9909197e-15 29:-2.7694069e-15 30:8.4594493e-16 31:-1.8931405e-15 32:4.1654184e-15 33:-4.3771791e-16 34:-9.7139803e-16 35:3.932553e-16 36:-4.0479268e-16 37:-2.7636026e-16 38:1.7341294e-15 39:-2.494268e-15 40:2.0539043e-15 41:-9.1039297e-17 42:-2.3950043e-15 43:1.0169569e-15 44:-3.0021885e-15 45:3.4713763e-15 46:-1.0090447e-15 47:-1.8589266e-15 48:7.6396344e-16 49:5.199398e-15 50:2.2754074e-15 51:5.9152543e-15 52:1.5141272e-15 53:2.5216927e-15 54:2.2448134e-15 55:9.5447515e-16 56:2.3227479e-15 57:-2.3459389e-16 58:-1.9752892e-15 59:-1.7107721e-15 60:-4.0491165e-15 61:1.9921315e-15 62:-3.4364939e-15 63:-4.1912576e-15 64:3.2291159e-15 65:-3.3042473e-16 66:-3.7933679e-15 67:-2.8722419e-15 68:2.100612e-15 69:1.3234718e-15 70:5.1959481e-16 71:-6.7903267e-15 72:-2.2260133e-15 73:1.3518256e-15 74:-9.8466617e-16 75:2.6715201e-15 76:4.4725262e-15 77:3.2470981e-15 78:-3.6356819e-15 79:5.447728e-15 80:8.5909808e-16 81:3.1101099e-15 82:5.9959158e-15 83:2.2405694e-15 84:-5.2227997e-15 85:-4.3610394e-15 86:2.6088867e-15 87:4.1227005e-15 88:1.0568663e-14 89:-3.192173e-15 90:3.4105561e-15 91:-1.4611269e-15 92:-1.5328103e-15 93:3.0108197e-15 94:2.6249784e-15 95:7.8010708e-16 96:3.0026302e-15 97:-3.2525934e-15 98:-5.5524092e-15 99:2.8561898e-15 100:2.2576496e-15 101:1.7777171e-14 102:1.1710771e-14 103:1.5231967e-14 104:1.9776603e-14 105:1.0035718e-14 106:-3.5069298e-15 107:-5.8037662e-16 108:-4.508478e-14 109:1.1212784e-14 110:1.805327e-14 111:1.0254951e-13 112:0.037401818 113:-0.078647022 114:-0.369621 115:-3.7146334 116:-0.14337612 117:-0.0014420673 118:2.2205797 119:2.2806994 120:1.3162479 121:-0.47388447 122:-0.57811728 123:3.1945626 124:-0.76237657 125:-0.86212899 126:0.92854336 127:-0.21547364 128:-0.90933257 129:-1.0662482 130:0.25117099 131:0.7264015 132:-1.1502773 133:-0.62539061 134:-1.1742531 135:0.23869583 136:-1.1274016 137:0.60681403 138:-0.88193208 139:1.4936918 140:2.3113316 141:0.0017163267 142:0.0083778612 143:0.88371257 144:1.6257052 145:-1.7796733 146:-0.12226187 147:-0.090233577 148:-0.27049299 149:0.36799789 150:-0.47971914 151:-0.61228248 152:-0.14143395 153:-0.63300693 154:0.37054805 155:0.48718232 156:0.90753474 157:-0.13636037 158:-0.33096319 159:-0.6302212 160:-0.42621032 161:-0.55959862 162:-0.4929754 163:0.1417967 164:-1.1210789 165:0.22080705 166:0.95718354 167:-0.23026151 168:-1.5731928 169:1.933517 170:0.4184143 171:-0.066788698 172:0.2523389 173:-3.0476528 174:1.2186949 175:-2.8941046 
1 1:-0.0090987604 2:0.20760096 3:-0.010445251 4:0.10047015 5:-0.0014068331 6:2.2897662e-16 7:-9.1621973e-05 8:-0.19056962 9:0.001010061 10:5.3426256e-15 11:0.039911093 12:1.6576161e-15 13:1.5784834e-15 14:1.3793438e-16 15:-9.7614199e-16 16:0.052615167 17:-0.37013357 18:0.021984448 19:-0.068416974 20:-8.0358902e-16 21:1.9415202e-15 22:-3.4856271e-16 23:-3.2590406e-16 24:-0.54408862 25:0.14823243 26:-0.141514 27:0.12150343 28:0.18910596 29:-0.21315845 30:-0.13455599 31:0.019160496 32:-0.92344758 33:-0.53420369 34:-0.80645546 35:2.122938 36:-0.68896881 37:0.28599573 38:-0.13127426 39:0.4714072 40:5.0890353e-15 41:-1.6123841e-15 42:-5.1095288e-15 43:-1.4012128e-15 44:1.9038393e-15 45:1.1471077e-15 46:7.7687098e-17 47:-5.8263286e-15 48:1.2491902e-14 49:-6.1465151e-15 50:-5.4392418e-16 51:-2.8024724e-15 52:-4.884626e-15 53:-2.0365603e-15 54:3.7498583e-15 55:-1.5187151e-15 56:-2.6712232e-15 57:-3.4831855e-16 58:-4.1451248e-15 59:-5.2147882e-15 60:-7.959683e-16 61:6.2000096e-15 62:1.9569647e-15 63:-2.3798102e-15 64:7.5064937e-15 65:4.4577528e-16 66:-3.5397823e-15 67:-4.7796357e-15 68:5.0879304e-15 69:-5.9750975e-15 70:-7.1696951e-16 71:-1.5259951 72:0.097371909 73:-0.014813132 74:1.2277981e-15 75:0.02337869 76:-0.11168431 77:0.021553261 78:0.040115345 79:-0.015383717 80:4.8120703e-17 81:-0.044385199 82:0.096861283 83:7.5791466e-15 84:-0.13664571 85:-1.4033642e-15 86:-0.86415894 87:0.16573389 88:-0.5364596 89:2.0373993 90:2.0513549 91:-0.20239837 92:0.4393964 93:3.3463959e-16 94:0.24217857 95:1.5043661e-16 96:4.0963543e-14 97:-7.30702e-16 98:0.046563212 99:1.1160974e-15 100:0.048910634 101:-0.19353716 102:-0.40346164 103:-0.31885558 104:1.4108903e-15 105:0.42525466 106:0.095598482 107:-0.26513241 108:0.1918572 109:0.074949477 110:-0.025642845 111:0.0018500477 112:-2.7084726e-16 113:-1.6589648e-15 114:-3.1550283e-16 115:-1.2569145e-15 116:-5.6351408e-16 117:7.312859e-16 118:1.1275703e-16 119:-2.0816682e-16 120:-1.4528309e-16 121:9.3241387e-17 122:5.1499603e-16 123:9.8879238e-16 124:2.7907364e-15 125:-1.8561541e-15 126:9.3024546e-16 127:1.7206288e-15 128:-1.1752752e-15 129:4.7271215e-16 130:6.1962154e-16 131:2.7538735e-16 132:4.7054374e-16 133:-1.2988742e-15 134:-9.6710834e-16 135:1.0793233e-15 136:7.8279397e-16 137:7.6978354e-16 138:-8.2399365e-17 139:2.6411165e-15 140:3.9464959e-16 141:-2.4422924e-16 142:-1.9060782e-15 143:-2.1467203e-16 144:-2.3678975e-15 145:2.1944252e-15 146:1.5097515e-16 147:-1.3376344e-15 148:-7.6707304e-16 149:1.4842728e-15 150:-1.8778382e-15 151:8.6627754e-16 152:-2.1740964e-15 153:-1.3595895e-15 154:7.979728e-16 155:6.7979476e-16 156:3.6429193e-16 157:-1.6073297e-16 158:4.6187013e-16 159:-1.4528309e-15 160:-1.4647571e-15 161:2.3017612e-15 162:-7.0473141e-16 163:3.5315175e-15 164:-1.0842022e-17 165:3.3610267e-16 166:-1.3509159e-15 167:1.6479873e-16 168:-8.7169855e-16 169:2.2291197e-15 170:-1.1199808e-15 171:5.8514391e-15 172:2.1299152e-15 173:-4.7097742e-15 174:-7.0473141e-16 175:2.3678975e-15 
1 1:-1.8127452e-15 2:-1.0613044e-15 3:-8.4977786e-16 4:-1.5582022e-15 5:-1.4149787e-15 6:1.3491355e-15 7:-1.3630483e-15 8:-3.9832343e-15 9:-3.4212504e-15 10:-1.1839798e-16 11:6.0569982e-16 12:6.6849614e-15 13:1.6944314e-15 14:1.1174685e-15 15:1.9237102e-15 16:-4.4129076e-15 17:2.3708291e-15 18:2.0586197e-15 19:-7.2918833e-15 20:1.6051238e-15 21:-3.1825578e-15 22:5.3465591e-16 23:-1.2633533e-15 24:-2.2508024e-16 25:-1.4028785e-15 26:6.1479628e-16 27:7.7715923e-16 28:-6.457037e-15 29:-1.3847034e-15 30:8.4594493e-16 31:-1.3672682e-15 32:-4.998502e-15 33:-7.2094714e-16 34:-1.6360388e-15 35:-1.2685655e-15 37:8.0395711e-16 38:5.7474004e-15 39:-1.4323519e-15 40:-1.9930553e-15 41:1.2319054e-15 42:9.0004324e-16 43:7.8590871e-16 44:-2.2738741e-15 45:7.8521872e-15 46:1.1582609e-15 47:2.6085633e-15 48:2.3969209e-15 49:-1.3895472e-15 50:2.4296951e-15 51:-1.8742595e-15 52:1.4152298e-15 53:2.2961069e-15 54:-1.4606357e-15 55:-4.0337117e-15 56:3.2312003e-15 57:9.1997605e-18 58:6.2476915e-16 59:1.5051192e-15 60:-1.0334637e-15 61:1.2036353e-15 62:1.0205984e-15 63:4.2058238e-15 64:-3.0129216e-16 65:-4.4350512e-15 66:-6.6129028e-15 67:3.3878118e-15 68:-1.2603672e-15 69:8.6372335e-16 70:-4.5741976e-15 71:-2.609357e-15 72:-3.142607e-15 73:-1.1960169e-15 74:-3.0466203e-15 75:4.1713208e-15 76:1.3044868e-15 77:7.3595142e-16 78:-1.1815966e-15 79:2.1297702e-15 80:-5.035006e-15 81:-5.7759184e-15 82:-2.3807313e-15 83:-1.6006659e-15 84:6.3166921e-15 85:2.2034287e-15 86:-8.4666385e-15 87:-5.7382116e-15 88:-4.2597222e-15 89:-3.068605e-15 90:5.2801984e-15 91:-7.7926767e-15 92:1.0326301e-14 93:5.8074233e-15 94:1.4516926e-15 95:-3.6950741e-15 96:-3.434312e-15 97:-9.2884009e-15 98:-1.2028564e-14 99:7.1743741e-16 100:-1.4012998e-14 101:-9.4579956e-15 102:-3.0716776e-15 103:-2.4945653e-15 104:-2.8612616e-15 105:2.2552175e-16 106:1.7534649e-15 107:1.7229931e-14 108:3.5793049e-14 109:-2.7300497e-14 110:-2.4512133e-14 111:4.9424815e-14 112:-0.52925551 113:0.25678476 114:1.7073526 115:-0.85721867 116:0.779079 117:-1.5088879 118:-0.63086501 119:1.845742 120:0.33159508 121:-0.46965219 122:-0.1669685 123:2.0045574 124:0.45476802 125:-0.75528081 126:-0.28190217 127:1.1401642 128:0.74652658 129:-0.8725651 130:-0.3564744 131:-0.48837502 132:2.8612324 133:-0.46764013 134:-1.7394618 135:0.71787868 136:1.4552683 137:1.4137109 138:0.13085085 139:1.4492056 140:-1.1271789 141:-0.91360455 142:0.80434971 143:-0.71067655 144:-0.69817335 145:1.3870544 146:0.84897508 147:-0.68504526 148:-2.9873894 149:0.67735079 150:0.91266397 151:-0.33548009 152:-0.86860751 153:0.13636311 154:-0.30114217 155:-2.2865905 156:0.62282886 157:1.5136672 158:1.9084154 159:0.37247131 160:2.0296443 161:-1.0802285 162:-0.4327086 163:-1.5487869 164:-1.2199002 165:-1.2418728 166:-0.83899562 167:-1.1334879 168:2.6495398 169:-1.7620011 170:0.72155403 171:-1.4699247 172:-1.6592535 173:-0.0046805454 174:0.7245386 175:-0.83656571 
1 1:-0.00058234857 2:0.018697716 3:-0.00059736478 4:-0.0039714978 5:-0.0019780786 6:7.1514374e-16 7:0.00013791169 8:-0.016531989 9:-0.017646975 10:-9.4961071e-16 11:0.0013267531 12:-4.1807367e-15 13:2.1205987e-16 14:1.7166178e-16 15:8.2170413e-17 16:0.022792528 17:-0.072521974 18:0.26395699 19:-3.1870284 20:2.471368e-14 21:4.1015488e-16 22:-1.4883188e-15 23:6.9329595e-16 24:0.12440664 25:-0.092446885 26:-0.003360027 27:0.043417934 28:-0.30056421 29:0.32030017 30:-0.082969247 31:-0.0050170343 32:0.055697739 33:0.0032711071 34:-0.0081017897 35:-0.00073156478 36:0.0037924859 37:-0.0085599011 38:-0.0018643303 39:0.0029562809 40:-2.1435303e-15 41:9.3888443e-16 42:2.8085487e-15 43:-1.6112818e-15 44:3.5171239e-15 45:-1.5131024e-15 46:5.1004772e-17 47:-1.8958121e-15 48:1.0536795e-15 49:2.6915188e-15 50:9.0310392e-16 51:-3.3295141e-15 52:-1.6746113e-15 53:-3.972343e-15 54:1.6112909e-15 55:1.1534052e-15 56:9.547943e-16 57:6.6098687e-15 58:3.1594692e-15 59:-2.6051941e-15 60:6.5415086e-15 61:-1.7048675e-15 62:4.6597182e-16 63:-2.2506327e-15 64:2.1333402e-15 65:-6.2503688e-16 66:-2.2947317e-15 67:-3.0102949e-16 68:2.0790086e-15 69:3.8862811e-17 70:1.4218642e-15 71:-0.0018275557 72:0.012210684 73:0.0045183685 74:3.2972883e-15 75:-0.04243306 76:0.18377487 77:-0.0083451646 78:-0.15333691 79:0.0061535252 80:-4.2141518e-16 81:-0.00016672723 82:0.018560923 83:-1.2217078e-15 84:-0.086016187 85:-1.424604e-14 86:-0.13878484 87:0.038517807 88:-0.0026145121 89:-0.13309074 90:-0.10461688 91:0.36565576 92:0.24742473 93:-6.2629073e-15 94:-0.2090512 95:-3.9282517e-15 96:-4.5901663e-14 97:-1.9871022e-15 98:-0.071894362 99:9.6469393e-15 100:-5.7966981 101:-0.77576649 102:-0.78253773 103:-0.13000927 104:-5.3295338e-15 105:0.27446512 106:-0.70813567 107:-0.046905056 108:0.022535296 109:0.00091377105 110:-0.0027361649 111:-0.043214315 112:0.11281485 113:1.6374138 114:-0.64487005 115:-1.7018235 116:0.75417337 117:0.04467145 118:0.24284247 119:0.50048387 120:-0.59255424 121:-0.4874877 122:-0.13314541 123:1.0594954 124:-0.65067415 125:1.258696 126:-0.82280819 127:-0.05964293 128:-0.38348069 129:0.49906647 130:-1.3815571 131:-0.04632063 132:-1.5554064 133:-0.83336023 134:1.4159607 135:0.3144709 136:-0.049131626 137:-0.27955123 138:0.24347302 139:-0.2042736 140:-1.1032952 141:-0.4302486 142:-1.4397995 143:-1.634509 144:-0.36549974 145:-0.90666312 146:0.25150334 147:0.16651852 148:0.91391015 149:-0.086918963 150:-0.10254654 151:2.0232506 152:1.1097483 153:-0.64986575 154:0.31370911 155:0.38098673 156:0.17293346 157:-0.57133014 158:0.45765749 159:0.18006479 160:-1.235355 161:0.63909764 162:-1.9612002 163:-1.0676606 164:0.027860013 165:0.3003587 166:-0.82125234 167:-0.79753316 168:-0.90979499 169:-2.5061114 170:-0.65948012 171:0.97185379 172:-0.67235573 173:0.27910071 174:-0.036685763 175:-0.23900718 
1 1:-0.0049331657 2:0.09970108 3:-0.0043335987 4:0.032166868 5:-0.0032698815 6:1.0945605e-16 7:0.00022217842 8:-0.024703498 9:-0.034503783 10:-2.2846137e-15 11:0.040003759 12:4.9219243e-15 13:-1.103829e-17 14:1.2901513e-16 15:4.578999e-16 16:-0.044479197 17:-0.0068686194 18:0.026929245 19:-0.070383877 20:1.070948e-15 21:5.4383472e-17 22:-2.1526093e-16 23:-3.4113738e-16 24:-0.07414758 25:0.03051903 26:0.0021228922 27:-0.044497105 28:0.26968443 29:-0.14164404 30:-0.13737693 31:0.087985704 32:-0.33391358 33:-0.11140436 34:-0.047136793 35:-0.060621229 36:0.010719887 37:0.061288311 38:0.088397713 39:-0.11513033 40:-9.5746719e-15 41:4.2806563e-16 42:-1.2931788e-15 43:-1.0515445e-15 44:3.4564277e-15 45:7.6004605e-15 46:4.3140331e-17 47:1.1731725e-15 48:-4.6177791e-15 49:2.7517581e-16 50:1.1579788e-15 51:-7.4872819e-16 52:-1.1088549e-15 53:2.1289781e-15 54:-3.7679376e-15 55:-2.1606108e-15 56:1.5211761e-15 57:-1.835898e-15 58:7.6032668e-16 59:4.8810855e-16 60:1.8166706e-15 61:4.8216098e-16 62:8.9736302e-16 63:1.7198955e-15 64:1.8409623e-15 65:4.1219424e-16 66:5.1137514e-15 67:-6.906717e-16 68:-1.7204822e-15 69:1.8288927e-15 70:4.3690816e-15 71:-0.017557175 72:0.13674203 73:0.031365017 74:-1.5635893e-15 75:-0.16733144 76:0.33695047 77:0.49272127 78:-0.42454973 79:-0.28681855 80:1.2548589e-15 81:-2.2446593 82:2.2061839 83:-1.6585807e-15 84:2.0858443 85:-1.0505859e-14 86:1.8496005 87:-0.13944966 88:-0.0085132753 89:0.32014607 90:0.1816267 91:0.10618854 92:-0.098835316 93:-2.5126115e-16 94:0.16266035 95:-3.8315534e-16 96:2.885762e-14 97:3.4602851e-16 98:0.040221745 99:-6.7728482e-16 100:-0.025862363 101:-0.013408704 102:-0.03154767 103:-0.030894901 104:7.6689515e-16 105:0.013297742 106:0.0099373723 107:-0.023577789 108:0.018368666 109:0.0062784283 110:0.00024393559 111:8.7245088e-06 112:7.4376269e-16 113:-9.3675068e-16 114:1.6393137e-15 115:-4.658767e-15 116:-4.2500725e-16 117:9.6402514e-16 118:-1.010612e-15 119:-9.9312919e-16 120:1.1622647e-15 121:-3.96818e-16 122:-4.6485168e-16 123:-2.5890748e-15 124:-9.6493993e-16 125:-4.3368087e-17 126:-1.474515e-15 127:-7.4715082e-16 128:6.6136333e-16 129:9.5192951e-16 130:-1.088539e-15 131:1.7255078e-15 132:4.7704896e-16 133:-3.6429193e-16 134:-4.9439619e-16 135:-1.3205582e-15 136:-1.1863882e-15 137:-5.0740662e-16 138:-9.9204499e-16 139:-1.2522535e-15 140:-1.0148132e-15 141:-3.3393427e-16 142:4.98733e-16 143:-2.9230091e-15 144:-9.3241387e-17 145:7.3725748e-16 146:-1.4886096e-15 147:1.7330972e-15 148:-4.0332321e-16 149:1.5189672e-15 150:-2.9463194e-16 151:4.2934406e-15 152:1.3574211e-15 153:-8.5651972e-16 154:9.7578196e-16 155:-1.3324845e-15 156:-1.7808021e-15 157:1.212138e-15 158:-1.496199e-15 159:9.2482445e-16 160:-2.8319361e-15 161:1.7130394e-16 162:-7.3725748e-16 163:7.3725748e-16 164:4.4452289e-16 165:4.7704896e-17 166:-1.0755286e-15 167:-1.3357371e-15 168:-2.0014372e-15 169:-1.2836954e-15 170:1.7347235e-15 171:3.7730236e-15 172:-3.3176586e-16 173:-6.1149003e-16 174:7.8604658e-16 175:4.7325425e-16 
1 1:-0.0061166441 2:0.1280362 3:-0.0056281894 4:0.042001456 5:-0.004384992 6:4.7589578e-16 7:0.00029829486 8:-0.033435109 9:-0.04711059 10:-1.2118227e-15 11:0.05554155 12:8.7568139e-15 13:-1.5482526e-15 14:-1.14293e-16 15:-6.5705528e-16 16:-0.064533415 17:-0.010116158 18:0.039755965 19:-0.10437058 20:5.7392523e-15 21:-1.2787633e-15 22:-5.6329707e-25 23:-2.0311898e-16 24:-0.11159355 25:0.046088027 26:0.0032219196 27:-0.068118807 28:0.43059406 29:-0.22955335 30:-0.22507134 31:0.14534303 32:-0.5602497 33:-0.19030934 34:-0.081506795 35:-0.1061992 36:0.018873754 37:0.1092683 38:0.16180018 39:-0.21201378 40:-1.808111e-14 41:-1.9392686e-16 42:-7.1423129e-15 43:-1.2879799e-15 44:-1.3283732e-15 45:2.0453217e-14 46:4.8015776e-21 47:6.0897432e-15 48:-1.3020781e-14 49:3.9855359e-16 50:8.354359e-17 51:-1.4253332e-15 52:-1.2512239e-15 53:4.8599049e-15 54:-6.2043941e-15 55:-2.7631395e-15 56:-2.1544801e-15 57:4.0542703e-16 58:2.6915236e-15 59:5.9711754e-15 60:3.9698426e-15 61:3.611658e-15 62:2.5208836e-15 63:7.2337296e-15 64:3.4413565e-15 65:1.2258987e-15 66:-2.1887861e-15 67:-1.497195e-15 68:3.3830335e-16 69:2.2160598e-15 70:1.6352596e-15 71:-0.034315066 72:0.271942 73:0.062767994 74:-1.5631812e-16 75:-0.34532518 76:0.70568313 77:1.0663016 78:-0.94933444 79:-0.66682121 80:4.8147686e-15 81:-5.3659971 82:5.4057817 83:-5.5043568e-15 84:5.6255855 85:-2.8222015e-14 86:5.1727535 87:-0.41119359 88:-0.026024455 89:1.0280658 90:0.59015058 91:0.36786798 92:-0.35433754 93:1.6401424e-15 94:0.63477171 95:-5.2903568e-15 96:1.1298415e-13 97:-5.9109156e-26 98:0.15801125 99:6.4850883e-16 100:-0.11737095 101:-0.065050106 102:-0.16036971 103:-0.18310031 104:4.2404341e-16 105:0.083825456 106:0.094599476 107:-0.25825059 108:0.21652218 109:0.10739286 110:0.0069214031 111:0.00067823245 112:1.1762916e-15 113:9.6372021e-16 114:2.5825018e-15 115:-4.1513456e-15 116:9.7822141e-16 117:1.6359256e-15 118:-5.8004816e-16 119:-1.5135462e-15 120:-8.8321819e-16 121:1.5775142e-15 122:-3.9835621e-15 123:-2.3066401e-15 124:6.6841064e-16 125:-1.9776186e-15 126:-1.2931398e-15 127:-2.760582e-15 128:8.2419694e-16 129:-3.0379345e-15 130:-2.0282712e-15 131:2.5608178e-15 132:1.4888213e-15 133:8.3483567e-16 134:-1.517612e-15 135:-2.5874485e-15 136:-1.7147928e-15 137:2.0477869e-16 138:5.8709548e-16 139:1.1183545e-15 140:-1.4026527e-15 141:2.1792464e-16 142:-1.2893874e-15 143:-2.8778791e-15 144:1.4833241e-16 145:4.0657581e-19 146:-3.2046983e-15 147:-2.453685e-16 148:1.8295912e-16 149:8.2785612e-16 150:-5.2885349e-16 151:3.3100692e-15 152:-2.1747571e-16 153:6.6637776e-16 154:1.4225749e-15 155:-4.1907124e-15 156:-1.2153906e-15 157:1.8735691e-15 158:-1.4826465e-16 159:2.0884275e-15 160:1.8713499e-15 161:-3.1898583e-15 162:-1.8184781e-15 163:1.6826818e-15 164:-2.7918206e-17 165:-2.1301185e-15 166:-8.1091546e-16 167:-2.9853507e-15 168:-2.0199576e-15 169:1.3557948e-15 170:2.2813647e-15 171:5.7448485e-15 172:3.1753571e-16 173:-1.9325904e-16 174:3.1143707e-15 175:8.3375147e-16 
1 1:-0.047706417 2:0.84500163 3:-0.035292118 4:0.25710602 5:-0.023893714 6:1.5429954e-16 7:0.0016173161 8:-0.17518671 9:-0.23793046 10:8.3741716e-18 11:0.26180638 12:4.4473522e-16 13:-1.626497e-16 14:-2.1926375e-16 15:-8.4067465e-16 16:-0.25524175 17:-0.037749492 18:0.14700263 19:-0.37940484 20:4.8523651e-15 21:-1.1644989e-15 22:2.4316559e-16 23:2.5109884e-16 24:-0.38337114 25:0.15630686 26:0.010722739 27:-0.2194566 28:1.1863378 29:-0.59870644 30:-0.56407957 31:0.35344917 32:-1.2870296 33:-0.40939797 34:-0.16772727 35:-0.20835949 36:0.036357455 37:0.20101426 38:0.27010602 39:-0.34603704 40:-1.0186479e-14 41:4.4955328e-16 42:2.429808e-15 43:-3.8671173e-15 44:-6.8605635e-15 45:8.8316681e-15 46:-4.8729542e-17 47:1.4418671e-15 48:-7.3430656e-15 49:5.4630549e-16 50:2.8695062e-15 51:-1.1979723e-15 52:2.2525472e-15 53:-3.3884204e-16 54:-1.0498572e-15 55:-3.4684513e-15 56:-4.8247537e-16 57:2.1793585e-15 58:1.0253669e-15 59:1.2517655e-15 60:5.628322e-15 61:6.510798e-16 62:2.2808049e-15 63:6.0042761e-16 64:-1.1635638e-15 65:3.6596708e-15 66:-6.4365555e-15 67:2.5003421e-15 68:-2.8937299e-15 69:3.526654e-15 70:-1.6782025e-15 71:-0.044704607 72:0.33109967 73:0.074561715 74:1.7555798e-15 75:-0.36254868 76:0.69722997 77:0.91607741 78:-0.70385341 79:-0.4094132 80:2.3594331e-15 81:-2.8455702 82:2.4913465 83:7.0596497e-16 84:1.2754011 85:-6.4756393e-15 86:0.77992782 87:-0.020687117 88:0.00030997846 89:-0.092267926 90:-0.063279368 91:-0.071950927 92:0.084529308 93:1.0753323e-15 94:-0.21183307 95:-2.0962135e-15 96:-3.8385221e-14 97:-3.908848e-16 98:-0.053815369 99:3.6543709e-15 100:0.055305697 101:0.033928272 102:0.088799911 103:0.11792776 104:-1.040215e-15 105:-0.056566831 106:-0.07788645 107:0.2215138 108:-0.18912056 109:-0.10035505 110:-0.0068131811 111:-0.00069810501 112:1.9702664e-15 113:1.0928758e-15 114:-1.2663481e-15 115:-1.1624298e-15 116:8.0447801e-16 117:3.9692642e-15 118:-9.4542429e-16 119:-4.7824158e-15 120:-3.7312818e-15 121:-1.2143064e-16 122:-1.0962978e-15 123:-9.0205621e-16 124:9.3593753e-16 125:1.1465438e-15 126:-5.7354295e-16 127:-1.3726e-15 128:1.3606737e-15 129:1.1626035e-15 130:5.4643789e-16 131:5.2041704e-17 132:1.4788518e-15 133:-3.2417645e-16 134:8.3661868e-16 135:-1.3720578e-15 136:-2.0925102e-15 137:-2.2269513e-15 138:-5.0794872e-16 139:-4.9548039e-16 140:4.4235449e-16 141:3.8922858e-16 142:-5.1987494e-16 143:-4.6187013e-16 144:-1.0018028e-15 145:-1.3010426e-15 146:-3.0541975e-15 147:3.7296555e-16 148:-6.9172099e-16 149:-4.8274102e-16 150:6.5702652e-16 151:1.5189672e-15 152:-1.0173882e-15 153:4.10235e-16 154:5.0686452e-17 155:-7.1123663e-16 156:6.1609788e-16 157:-1.4094628e-17 158:7.3942588e-16 159:1.9260852e-15 160:2.0925102e-15 161:-5.6297198e-16 162:-1.1763594e-15 163:4.8789098e-16 164:1.3135109e-15 165:-1.5937772e-16 166:-1.6523241e-15 167:1.3975366e-15 168:-1.1167282e-15 169:1.9081958e-15 170:-1.6347058e-15 171:9.0151411e-16 172:-3.1875544e-15 173:1.0863706e-15 174:-8.210121e-16 175:-2.493665e-16 
-1 1:-0.29447271 2:9.3174961 3:-0.5903485 4:6.9750979 5:1.3555727 6:-6.3013686e-17 7:-1.3712404 8:4.3033571 9:4.0920101 10:1.6188566e-15 11:-3.7140571 12:3.5058254e-15 13:-3.0385741e-15 14:1.0452021e-16 15:4.3122105e-16 16:1.3380699 17:0.55267011 18:-0.2654391 19:0.12783952 20:7.6642795e-15 21:-8.7508596e-17 22:-1.0353198e-24 23:1.613442e-16 24:1.4491922 25:-0.41085348 26:-0.095342515 27:0.88037775 28:-4.2280973 29:-4.5110147 30:-3.580912 31:3.0481761 32:1.820815 33:0.75217927 34:1.2060647 35:-1.1072968 36:-0.33863854 37:-2.2452076 38:-0.53124346 39:-0.98890305 40:3.570121e-15 41:1.1114554e-14 42:-5.8119627e-15 43:-1.6077526e-14 44:-1.3122699e-15 45:7.5442972e-15 46:1.4835059e-20 47:1.8138573e-15 48:2.0319505e-15 49:4.614762e-15 50:7.0775256e-15 51:6.4259485e-15 52:9.008746e-15 53:2.7346698e-17 54:-2.4947886e-15 55:-6.6241473e-15 56:-8.0722137e-15 57:9.7987521e-15 58:8.7086049e-15 59:-1.4734527e-15 60:7.5283865e-15 61:8.2746126e-16 62:6.8744021e-15 63:-1.2387756e-14 64:-7.8600495e-15 65:3.8500763e-15 66:-1.7097653e-16 67:6.6722376e-15 68:-9.214678e-15 69:-2.7559888e-16 70:-2.1031574e-14 71:-2.6048605 72:0.37043995 73:0.036717115 74:-4.5999442e-17 75:-0.13912182 76:-0.06920064 77:-0.27534262 78:-0.048173037 79:0.030979964 80:1.5654107e-16 81:-0.15598483 82:-0.092123282 83:8.9474965e-16 84:-0.25314381 85:4.1061494e-16 86:-0.03821978 87:0.1854289 88:-0.15008582 89:0.50599217 90:0.033706026 91:-0.084410349 92:-0.5014363 93:3.6174325e-16 94:2.0443393 95:9.7690127e-16 96:2.8993543e-13 97:5.0075636e-26 98:0.3993872 99:-2.0906635e-14 100:-0.33807299 101:-0.29770914 102:2.1339333 103:0.41928154 104:1.6912191e-15 105:0.59854141 106:-0.053848212 107:0.19242735 108:-0.1915678 109:-0.081488856 110:-0.04356329 111:-0.00019558956 112:3.0171991e-15 113:2.6671373e-16 114:-9.3024546e-16 115:-1.948595e-16 116:-5.5294311e-17 117:-2.0588999e-15 118:-1.5146304e-15 119:-2.2350828e-15 120:-1.9461429e-15 121:7.0107223e-16 122:3.0804894e-15 123:-1.3056505e-15 124:1.0023449e-15 125:-7.9993792e-17 126:-1.6765831e-15 127:-6.7545795e-16 128:-9.1452453e-16 129:1.23328e-16 130:2.8026626e-16 131:7.8062556e-17 132:-5.6378513e-16 133:1.9621349e-15 134:1.1655173e-15 135:8.3320937e-16 136:-7.2194312e-16 137:-2.4551758e-15 138:-5.8435109e-16 139:1.1666015e-15 140:-1.5135462e-15 141:8.2887256e-16 142:-2.6454533e-15 143:-4.976488e-16 144:-8.8687738e-16 145:-6.1365843e-16 146:-3.0975656e-15 147:-3.4640259e-16 148:-5.9414279e-16 149:-5.6791865e-16 150:1.4354837e-15 151:2.171657e-15 152:2.3147716e-15 153:-4.0657581e-17 154:4.8626467e-16 155:-4.2110412e-15 156:-5.4921616e-16 157:9.2699286e-16 158:-3.1441863e-16 159:-2.1006417e-16 160:3.8814438e-16 161:1.7130394e-15 162:-2.1575623e-15 163:-3.2959746e-16 164:1.5986561e-15 165:-1.3774789e-15 166:9.5138741e-16 167:-2.6373218e-16 168:-9.1072982e-16 169:-4.8702362e-15 170:2.988129e-15 171:-6.5594231e-17 172:-3.3718688e-16 173:1.6447347e-15 174:3.5344991e-16 175:-3.6211675e-15 
1 1:-0.038562445 2:0.84866664 3:-0.044497228 4:0.44955857 5:0.053126113 6:1.4789213e-17 7:-0.0059240655 8:-0.03611828 9:0.0084576368 10:9.4378519e-15 11:-0.043024622 12:8.6103543e-15 13:2.2920111e-15 14:3.2938771e-16 15:-4.2402894e-16 16:1.3061099 17:-2.803545 18:-0.13504927 19:-0.017092313 20:-7.3607727e-15 21:5.6484066e-16 22:1.5448034e-15 23:3.4693967e-16 24:-0.83361033 25:-0.050561981 26:-0.16019897 27:0.13487655 28:-0.2970765 29:-0.41955121 30:0.084226788 31:-0.38619701 32:-1.9753558 33:-0.93741736 34:-1.4017333 35:2.9286802 36:-0.35624742 37:4.12415 38:0.1387351 39:2.2209773 40:4.3384128e-15 41:-1.9172576e-14 42:-1.1865604e-14 43:1.6953964e-14 44:4.1920977e-15 45:-3.5202424e-15 46:6.3022668e-16 47:-9.7257309e-15 48:1.8731819e-14 49:-1.736896e-14 50:-1.3116566e-14 51:-1.024822e-14 52:-1.5983277e-14 53:-2.0648168e-15 54:3.0453177e-15 55:8.6907462e-15 56:-5.1671807e-16 57:1.3297728e-16 58:-1.1169643e-14 59:-7.7792916e-15 60:-1.5244055e-14 61:9.3887873e-15 62:-8.7694805e-15 63:1.0458734e-14 64:2.3368583e-14 65:-1.2405104e-14 66:-4.9143886e-15 67:-1.7980129e-14 68:3.1881482e-14 69:-1.4226995e-14 70:2.3886415e-14 71:-0.08999392 72:-0.45845436 73:-0.080852006 74:2.2192398e-15 75:0.35864885 76:-0.29879244 77:-0.54164549 78:0.15446552 79:0.17402981 80:2.5980829e-15 81:0.88314849 82:0.94347675 83:4.3764001e-15 84:0.22436287 85:-1.9305033e-14 86:-1.5599404 87:0.53470585 88:-1.1350094 89:2.2981959 90:0.15199907 91:0.14428882 92:-3.2288398 93:6.4728164e-15 94:4.3873682 95:1.0411402e-14 96:6.3414845e-13 97:2.9053906e-16 98:0.88903545 99:-1.9826552e-14 100:-0.028504735 101:-1.000986 102:-1.5992071 103:-0.75372711 104:4.9539881e-15 105:0.133321 106:0.40769025 107:-0.82229196 108:0.92635961 109:0.82678837 110:0.81412291 111:0.093885473 112:0.81138348 113:-0.31866115 114:0.21529291 115:-1.4077609 116:0.42883601 117:-0.26216179 118:-0.50778236 119:-0.34201269 120:-0.30389793 121:0.24385215 122:-0.35820365 123:-0.29364895 124:0.2284924 125:-0.1889848 126:-0.32576543 127:0.38051949 128:-0.58468362 129:0.61987871 130:0.64664026 131:-0.041623344 132:-0.37806253 133:-0.55472744 134:0.36624003 135:0.45907361 136:0.10631815 137:-0.86112071 138:-0.72978252 139:0.07761195 140:-0.37151664 141:0.36372474 142:-1.432555 143:0.11767848 144:-0.22786321 145:-0.040899696 146:-1.0533134 147:-0.38052121 148:-0.5837471 149:0.27860795 150:0.34281078 151:0.61816709 152:-0.3815671 153:-0.4848164 154:0.25934263 155:-1.2399644 156:-0.40271091 157:0.29852349 158:0.063317372 159:-0.31366286 160:0.49389241 161:-0.055780996 162:1.2312131 163:0.34593747 164:-0.13149704 165:0.34045535 166:0.24043609 167:-0.75346892 168:-0.91620289 169:-0.27757031 170:1.4714522 171:0.55009947 172:0.94482465 173:0.42786915 174:1.385266 175:0.39701284 
1 1:-0.0092078004 2:0.23793282 3:-0.012416263 4:0.11923363 5:-0.00066987584 6:3.0726904e-16 7:-0.00025700012 8:-0.29595029 9:0.021803503 10:1.3382596e-14 11:0.027093134 12:6.7456889e-15 13:3.6404999e-17 14:-2.1707704e-17 15:3.3224977e-17 16:0.1591049 17:-0.71785269 18:0.032302502 19:-0.12929257 20:2.3056479e-15 21:-1.5665733e-15 22:1.6104513e-24 23:1.1316535e-16 24:-1.0370805 25:0.28856887 26:-0.29710921 27:0.30101906 28:0.37771543 29:-0.52472383 30:-0.34859845 31:-0.0084658416 32:-2.1032082 33:-0.95802597 34:-1.3561958 35:3.573226 36:-0.84773443 37:4.1041043 38:-0.65244332 39:2.2981126 40:2.9235185e-14 41:-1.9674384e-15 42:-3.2387884e-14 43:-3.178107e-15 44:-2.1851763e-14 45:-2.4545537e-14 46:-8.6239638e-21 47:-3.2426879e-14 48:4.9511084e-14 49:-1.4736091e-14 50:3.0763518e-15 51:8.6377812e-15 52:-5.8066433e-15 53:-2.7691594e-15 54:5.5924398e-15 55:1.2091675e-14 56:-1.5100582e-14 57:7.6217091e-15 58:-4.6749186e-15 59:-4.2488774e-14 60:-1.4100781e-14 61:2.1616265e-14 62:-1.4943521e-15 63:-2.1013626e-14 64:1.5889894e-14 65:4.7077438e-15 66:-2.6554217e-14 67:-1.8617538e-14 68:5.0558441e-14 69:-1.9195428e-14 70:1.5891867e-15 71:-8.6213966 72:0.56520701 73:-0.087958931 74:-1.0486614e-16 75:0.18963818 76:-1.039613 77:-0.5765041 78:0.70563384 79:0.17834758 80:-2.7529832e-15 81:1.0738046 82:-1.985476 83:-1.8045222e-14 84:1.0052388 85:5.2946486e-15 86:3.1014442 87:-0.63399062 88:1.0067887 89:-1.9053503 90:-0.92822549 91:-0.05061124 92:1.1963349 93:-8.2762024e-16 94:-2.1027006 95:-7.3185602e-15 96:-2.7696648e-13 97:-5.6973789e-26 98:-0.3839494 99:8.4816727e-15 100:-0.31251142 101:0.792704 102:1.3532118 103:0.7027919 104:-1.8766428e-15 105:-0.96298115 106:-0.13771196 107:0.33891715 108:-0.23354422 109:-0.08252779 110:0.028741382 111:-0.0018487819 112:-6.9128731e-15 113:4.9005938e-15 114:-1.0234869e-15 115:1.8302888e-15 116:2.220446e-15 117:3.6992978e-15 118:1.2663481e-15 119:2.6888214e-16 120:5.7245875e-16 121:-2.402592e-15 122:1.9081958e-16 123:-1.994932e-15 124:-4.17201e-15 125:5.3646323e-15 126:-2.9056618e-15 127:-1.2273169e-15 128:-6.6786854e-16 129:-8.4134089e-16 130:-2.4806546e-15 131:-9.5626632e-16 132:-1.2143064e-16 133:9.8879238e-16 134:6.1149003e-16 135:-1.2750218e-15 136:-7.8387817e-16 137:1.6566609e-15 138:-1.4484941e-15 139:-8.4025668e-16 140:-1.7694179e-15 141:2.9880612e-15 142:4.4929338e-15 143:-1.2728534e-15 144:-9.1072982e-16 145:4.8246997e-16 146:1.4224733e-15 147:-2.6020852e-17 148:2.0122792e-15 149:-4.98733e-16 150:2.0513105e-15 151:-1.7520707e-15 152:1.0625181e-15 153:-2.7842312e-15 154:1.383442e-15 155:-5.3776428e-16 156:2.2551405e-16 157:-3.7730236e-16 158:2.3613923e-15 159:1.8995222e-15 160:-2.7321895e-16 161:2.0038767e-15 162:-5.8113236e-15 163:-6.6570013e-15 164:-1.0310763e-15 165:-3.3827108e-16 166:-2.6606321e-15 167:-2.8622937e-16 168:-3.7123082e-15 169:-4.4755866e-15 170:1.7173762e-15 171:-1.405126e-15 172:-1.3010426e-15 173:5.8113236e-15 174:-6.4184769e-16 175:1.6870186e-15 
1 1:-0.23311215 2:2.9061443 3:0.11559907 4:-2.3363188 5:-0.44644319 6:5.7437213e-17 7:0.36407146 8:-0.57923057 9:-3.7208077 10:7.5961215e-16 11:1.1966776 12:-7.1796161e-15 13:1.9894756e-15 14:-2.4889236e-17 15:-9.77852e-17 16:5.2642001 17:2.8377868 18:-1.1251991 19:-0.12915262 20:2.1788508e-14 21:3.8055861e-16 22:-2.1669447e-25 23:9.8907151e-17 24:0.19653977 25:2.2216566 26:0.037578976 27:-0.22027125 28:3.3487658 29:0.75844728 30:-3.1097671 31:2.1673657 32:8.5470681 33:-0.84605688 34:-3.5987737 35:1.3012347 36:-1.2391722 37:2.4496266 38:0.93955614 39:-1.0418649 40:-7.063425e-14 41:5.1840471e-14 42:-1.3032177e-14 43:-1.1348808e-14 44:-7.3515644e-15 45:5.3517055e-14 46:1.4427122e-20 47:1.8968044e-14 48:-2.2894334e-14 49:-2.5566958e-15 50:5.2027065e-15 51:-9.3869085e-15 52:2.0884767e-15 53:6.5929828e-16 54:-1.4675612e-14 55:-3.2597797e-15 56:4.5231257e-15 57:-1.253653e-15 58:8.8317691e-15 59:1.5408659e-14 60:1.8623652e-14 61:-6.6401795e-16 62:1.717811e-14 63:-4.5161503e-15 64:-4.3974765e-15 65:-3.1030078e-15 66:-1.0064242e-14 67:8.2073653e-15 68:-1.1147005e-14 69:1.7422618e-14 70:-1.0360733e-14 71:-0.23191161 72:-1.4737231 73:3.1347357 74:-2.1881041e-16 75:-0.56162454 76:0.13179021 77:-0.5324035 78:-0.2068302 79:0.22674977 80:3.1060936e-15 81:0.81395322 82:2.0734094 83:-1.6070591e-14 84:-1.6547942 85:-3.6372246e-15 86:0.75148394 87:-0.16255687 88:-0.24964307 89:2.1904379 90:-2.0695653 91:0.26653462 92:0.037750033 93:-7.1812973e-17 94:-1.0922622 95:-1.6571751e-14 96:5.9557409e-14 97:-1.5040894e-25 98:0.10852543 99:5.6699528e-15 100:0.060434174 101:0.19580025 102:-0.036185609 103:0.22895563 104:-3.8360402e-15 105:0.58369494 106:-0.024873996 107:-0.011021261 108:-0.46226747 109:0.2939984 110:-0.25624043 111:0.00029980526 112:-5.5767294e-15 113:4.5367085e-15 114:-2.7957508e-15 115:2.9980467e-15 116:4.5536491e-16 117:-3.163973e-15 118:1.4593361e-15 119:-1.6795647e-15 120:2.0691321e-15 121:-1.6596425e-15 122:7.883505e-16 123:3.5223018e-16 124:7.8157424e-16 125:-7.733072e-16 126:3.3725464e-16 127:-7.8523342e-16 128:1.475938e-15 129:-2.5589882e-15 130:-8.9338259e-16 131:-7.6670034e-16 132:5.2583805e-16 133:3.6840512e-15 134:-2.7930742e-15 135:2.1277468e-17 136:1.4123089e-15 137:-6.4306741e-16 138:3.1172168e-15 139:1.891289e-15 140:2.2536497e-15 141:9.6873464e-16 142:7.3752853e-16 143:-1.460217e-15 144:8.3619093e-16 145:1.2046841e-15 146:5.2670542e-15 147:-1.6601846e-15 148:-1.2292142e-15 149:-8.8735172e-16 150:9.2306262e-16 151:-2.3344736e-15 152:-1.3010426e-15 153:1.020878e-15 154:-1.9611862e-15 155:2.5988326e-15 156:1.8846144e-15 157:1.2602495e-15 158:1.2885404e-15 159:2.2931554e-15 160:3.8163916e-15 161:-1.8999288e-15 162:-1.0207763e-15 163:3.2309225e-16 164:2.7409986e-16 165:-3.1782031e-15 166:-2.5938182e-15 167:-2.2251894e-15 168:2.4861772e-15 169:-3.9158407e-15 170:1.5373987e-15 171:-2.0520728e-15 172:-4.0847317e-16 173:5.6232146e-15 174:8.6736174e-18 175:3.4247236e-16 
-1 1:-0.023436436 2:0.6127447 3:-0.033486263 4:0.35351683 5:-0.028345325 6:-4.5598691e-17 7:0.0017801771 8:-1.9543253 9:0.42229663 10:4.1870083e-15 11:-0.1030869 12:6.0406477e-15 13:7.6382461e-16 14:-1.0908375e-17 15:-2.3790695e-18 16:-0.12059614 17:-0.57875333 18:0.098560819 19:-0.10976068 20:-4.1255242e-16 21:3.965967e-16 22:-7.1204518e-25 23:9.7293998e-18 24:-2.8968273 25:0.99448371 26:-0.99716323 27:1.2405068 28:-0.11789093 29:-0.19227287 30:-0.20874636 31:-0.099490752 32:-0.46506969 33:-0.001718368 34:-0.1330923 35:1.2007542 36:-0.34626122 37:1.2990879 38:-1.0260328 39:0.13269183 40:2.3726427e-14 41:-2.7727154e-16 42:8.0238782e-17 43:-5.0357528e-15 44:-1.4756809e-15 45:-8.4193783e-15 46:5.9714698e-21 47:-2.7053295e-15 48:7.4649975e-15 49:-1.7550343e-15 50:2.2398804e-15 51:2.7376371e-15 52:3.3917747e-15 53:-2.3695831e-15 54:1.9620153e-15 55:-3.1057686e-17 56:-3.0946411e-15 57:1.8582613e-15 58:3.8343052e-15 59:-6.7170573e-15 60:3.2702871e-15 61:2.6971933e-15 62:1.6995886e-15 63:-7.4020175e-15 64:5.752657e-17 65:5.1870408e-15 66:-5.6640953e-15 67:4.9189521e-16 68:3.9815766e-15 69:-2.6929946e-15 70:-6.5008919e-15 71:-1.4712134 72:0.061225554 73:-0.0086880636 74:7.0980968e-17 75:0.027668344 76:-0.14439908 77:-0.20625947 78:0.014669941 79:0.025084091 80:-1.322226e-16 81:-0.013829722 82:0.11320954 83:4.3639631e-16 84:-0.19646582 85:-1.8205686e-15 86:-0.56451271 87:0.17988432 88:-0.28568245 89:0.60769918 90:0.30043249 91:0.7045042 92:-0.38247957 93:5.1931052e-16 94:1.1613281 95:2.6937876e-15 96:1.5706423e-13 97:3.0650876e-26 98:0.21659449 99:-8.2269514e-15 100:0.23626563 101:-0.46544093 102:-0.88564253 103:-0.61996073 104:1.4224429e-15 105:0.78962412 106:0.093967755 107:-0.5553885 108:0.4198436 109:0.17523438 110:-0.036699778 111:-0.15816467 112:1.0093922e-15 113:-1.9298799e-15 114:1.6870186e-15 115:-1.1030526e-14 116:-1.5395671e-16 117:-6.0715322e-17 118:-1.6956922e-15 119:-1.5048726e-15 120:-6.6895274e-16 121:4.6051487e-16 122:-4.7379635e-16 123:1.2685165e-15 124:7.0256301e-16 125:-1.1666015e-15 126:4.9886852e-16 127:3.8706018e-15 128:-1.0285013e-15 129:5.6866404e-16 130:3.6060564e-15 131:6.1962154e-16 132:2.1120258e-15 133:-4.5731648e-15 134:-2.7018318e-15 135:-2.1272047e-15 136:-2.6085904e-15 137:-2.7869417e-15 138:-3.6320773e-15 139:-4.98733e-17 140:1.0245711e-15 141:4.499439e-16 142:-1.6978606e-15 143:6.5485811e-16 144:-4.1308103e-16 145:-1.973248e-16 146:-2.8243467e-15 147:-4.1199683e-17 148:-4.9786564e-15 149:7.7195195e-16 150:2.6671373e-16 151:2.981556e-15 152:-3.4434261e-15 153:-2.6747945e-15 154:-6.6691986e-16 155:-3.8337389e-15 156:-7.2607664e-16 157:1.8041124e-15 158:2.6237693e-16 159:1.0001765e-15 160:1.5439039e-15 161:-1.689187e-15 162:5.0003404e-15 163:3.635872e-15 164:8.2399365e-16 165:1.3704315e-15 166:-1.3064636e-15 167:-2.7538735e-16 168:-4.6403853e-16 169:4.1785152e-15 170:2.8883146e-15 171:4.9569723e-15 172:2.0835655e-15 173:-1.6276585e-15 174:5.0567189e-15 175:-1.051134e-15 
1 1:-0.062541409 2:1.181706 3:-0.051428292 4:0.39702678 5:-0.029420022 6:-7.8811252e-16 7:0.0017703111 8:-0.4287302 9:-0.2751497 10:2.6829642e-15 11:0.34202011 12:1.1981286e-15 13:2.1497398e-15 14:-2.9147937e-16 15:9.2925211e-16 16:-0.21575885 17:-0.51562532 18:0.20774956 19:-0.5663952 20:-1.885041e-15 21:3.2026421e-15 22:-1.6120788e-15 23:-6.8841716e-17 24:-1.1446829 25:0.38139969 26:-0.17089283 27:-0.098722178 28:1.7685926 29:-1.0770588 30:-0.93238798 31:0.46310973 32:-2.7826999 33:-1.0136884 34:-0.86639566 35:1.3558954 36:-0.33371265 37:2.0528973 38:0.099971969 39:0.4376031 40:-3.5083659e-15 41:-6.000184e-17 42:2.6865751e-15 43:-3.3448961e-15 44:-1.5591309e-14 45:5.8860815e-15 46:-6.5769128e-16 47:-4.9188852e-15 48:1.0850091e-14 49:5.0798524e-15 50:2.4794962e-15 51:-1.9641863e-15 52:-3.2297571e-15 53:-5.5466993e-15 54:1.6452112e-16 55:2.0067979e-15 56:9.2302729e-16 57:1.9899677e-15 58:1.8500774e-15 59:-1.5708386e-14 60:1.8632941e-15 61:1.0421683e-14 62:3.0244177e-15 63:-8.3126911e-15 64:1.05422e-14 65:-8.2892639e-17 66:-1.8225219e-14 67:-1.6227616e-15 68:1.1760773e-14 69:-2.1840689e-15 70:-6.1479684e-15 71:-2.6973862 72:0.58724387 73:0.072434917 74:-2.0671216e-15 75:-0.41252841 76:0.65286712 77:0.98476851 78:-0.69373054 79:-0.36913976 80:-1.4999539e-15 81:-2.1525538 82:1.5352547 83:1.0624629e-14 84:-1.8827083 85:4.041836e-15 86:-3.6562372 87:0.63896023 88:-0.59160759 89:0.18821448 90:-0.020899619 91:-0.54111333 92:-0.66697665 93:-4.4127955e-15 94:1.4735059 95:8.5667319e-15 96:1.2834719e-13 97:-3.031919e-16 98:0.17794504 99:-1.5151648e-14 100:0.98198882 101:-1.5742131 102:-2.7684806 103:-1.4441691 104:-4.1980849e-16 105:3.1036116 106:0.10005228 107:-0.094586079 108:-0.34544445 109:-0.65826638 110:-0.95487352 111:0.085527454 112:-0.84671884 113:0.33253869 114:-0.22466881 115:1.4690683 116:-0.44751161 117:0.27357881 118:0.52989604 119:0.35690718 120:0.31713254 121:-0.25447179 122:0.37380325 123:0.30643722 124:-0.23844314 125:0.197215 126:0.33995236 127:-0.39709093 128:0.61014632 129:-0.64687414 130:-0.67480114 131:0.043436021 132:0.39452698 133:0.57888555 134:-0.38218961 135:-0.47906604 136:-0.11094825 137:0.89862211 138:0.76156421 139:-0.080991914 140:0.38769601 141:-0.37956478 142:1.4949421 143:-0.12280332 144:0.23778654 145:0.042680858 146:1.0991847 147:0.39709273 148:0.609169 149:-0.29074119 150:-0.35774003 151:-0.64508798 152:0.39818417 153:0.50592992 154:-0.27063688 155:1.2939642 156:0.42024878 157:-0.31152405 158:-0.066074813 159:0.32732273 160:-0.51540119 161:0.058210232 162:-1.2848319 163:-0.36100288 164:0.13722367 165:-0.35528202 166:-0.25090697 167:0.78628213 168:0.95610309 169:0.28965837 170:-1.5355332 171:-0.57405604 172:-0.98597132 173:-0.44650265 174:-1.4455937 175:-0.41430256 
1 1:-0.0065117254 2:0.15708616 3:-0.0080130955 4:0.076108691 5:-0.00040439311 6:-5.2265196e-16 7:-0.00015476048 8:-0.17515387 9:0.012660037 10:3.9161355e-15 11:0.015157412 12:2.4445189e-15 13:-9.0360517e-17 14:-1.2729914e-16 15:9.3217091e-16 16:0.080314122 17:-0.34922512 18:0.015621627 19:-0.061832335 20:-1.5843748e-15 21:5.035641e-17 22:3.2516445e-16 23:6.8096782e-16 24:-0.47748155 25:0.13168768 26:-0.1338151 27:0.13249085 28:0.14767303 29:-0.1961727 30:-0.12601338 31:-0.0029814245 32:-0.70390169 33:-0.30149274 34:-0.40867053 35:1.0258898 36:-0.23878855 37:1.1004759 38:-0.15665889 39:0.53708741 40:8.2838323e-15 41:-2.2871936e-15 42:-4.6412974e-15 43:1.5476159e-15 44:-8.5775205e-15 45:-6.7350689e-15 46:-7.2480166e-17 47:-7.2293716e-15 48:1.0884449e-14 49:-2.0456423e-15 50:-9.0429279e-16 51:9.6087582e-16 52:-1.9754166e-16 53:-3.0256124e-16 54:6.6254325e-16 55:1.6501724e-15 56:-4.2410971e-15 57:2.8376858e-15 58:-1.1459349e-15 59:-1.309269e-14 60:-3.0359034e-15 61:3.8490698e-15 62:-2.2075659e-15 63:-3.4729687e-15 64:2.559467e-15 65:2.2019571e-15 66:-6.3997786e-15 67:-4.3600984e-15 68:1.1131602e-14 69:-1.6863134e-15 70:2.4202048e-15 71:-1.4847543 72:0.087446783 73:-0.013058209 74:-1.331891e-15 75:0.022390983 76:-0.10785287 77:-0.041697118 78:0.029374333 79:0.0010609709 80:-8.6736314e-17 81:-0.020420048 82:0.080906009 83:1.2559106e-15 84:-0.12254999 85:-2.5693474e-15 86:-0.469112 87:0.12221533 88:-0.22168757 89:0.48882922 90:0.24603569 91:0.01569712 92:-0.39890916 93:4.9815194e-16 94:0.81718315 95:2.2124038e-15 96:1.0863925e-13 97:6.8165156e-16 98:0.15082494 99:-6.5983503e-15 100:0.14961286 101:-0.4085759 102:-0.7307647 103:-0.43208088 104:1.4075999e-16 105:0.61862634 106:0.10947836 107:-0.28330326 108:0.19977784 109:0.077322324 110:-0.029067965 111:0.0020071999 112:3.6429193e-16 113:-1.8995222e-15 114:-6.1582683e-16 115:-1.665098e-15 116:-3.0791342e-16 117:1.6479873e-16 118:1.1319071e-15 119:7.5894152e-16 120:4.5970172e-16 121:1.0907074e-15 122:6.0715322e-17 123:9.0856142e-16 124:1.3270635e-15 125:-2.1684043e-16 126:-5.507747e-16 127:-7.6327833e-16 128:-2.0816682e-16 129:-7.6327833e-16 130:2.6714742e-15 131:-5.7029034e-16 132:2.1684043e-17 133:-5.6378513e-16 134:8.8904578e-17 135:-5.8113236e-16 136:-2.2700483e-15 137:-2.107689e-15 138:-2.0816682e-16 139:-6.4618449e-16 140:1.3735486e-15 141:-2.6888214e-15 142:-9.1940344e-16 143:-1.6479873e-16 144:2.2971534e-15 145:-3.6342457e-15 146:9.1940344e-16 147:-1.517883e-16 148:1.994932e-16 149:-1.700029e-15 150:3.0791342e-16 151:-1.7347235e-15 152:-2.992398e-16 153:-1.7347235e-16 154:-2.0122792e-15 155:-2.9490299e-16 156:4.8572257e-16 157:3.2959746e-16 158:1.6479873e-16 159:-1.3010426e-17 160:1.8257965e-15 161:-2.31694e-15 162:1.110223e-15 163:-1.7520707e-15 164:6.7437375e-16 165:-3.6862874e-16 166:1.2099696e-15 167:-7.0256301e-16 168:4.8572257e-16 169:2.8753042e-15 170:-8.6736174e-17 171:1.474515e-16 172:-9.1940344e-16 173:2.3310347e-16 174:3.3133218e-15 175:-7.7195195e-16 
1 1:3.4860485e-17 2:1.3266306e-16 3:1.3073506e-15 4:-2.5970037e-16 5:-1.2577588e-16 6:1.2722992e-15 7:2.3865611e-15 8:-1.742665e-15 9:-9.8630642e-16 10:1.5448764e-15 11:2.9073591e-15 12:-2.8652856e-15 13:3.0439073e-15 14:1.2264593e-15 15:2.3524316e-16 16:2.322583e-16 17:-7.1268125e-16 18:3.2022972e-15 19:-1.3672281e-15 20:7.1333787e-16 21:-8.0581584e-16 22:-3.3769389e-15 23:-2.2146638e-15 24:-6.7524072e-16 25:3.8158294e-15 26:-3.3534342e-16 27:-1.4432957e-15 28:-6.0265679e-15 29:-5.3257825e-17 30:4.2297246e-15 31:-1.0517447e-15 32:-6.6646694e-15 33:1.9053603e-15 34:9.6117279e-15 35:-5.8354012e-16 36:2.0239634e-16 37:-4.0197855e-15 38:4.7564693e-15 39:1.9756579e-15 40:2.9673468e-15 41:-1.4788615e-15 42:4.9165053e-15 43:-2.8885331e-15 44:-3.0865196e-15 45:3.1700841e-15 46:1.2576923e-16 47:7.2754773e-16 48:4.201224e-16 49:-2.1742101e-15 50:1.1752694e-15 51:2.1485274e-16 52:2.4854686e-15 53:1.7709539e-16 54:-6.8557382e-16 55:1.0986047e-15 56:2.9541293e-15 57:2.6525976e-15 58:8.0140935e-16 59:-1.2534674e-16 60:-2.5682665e-15 61:-1.7901201e-15 62:4.1395089e-15 63:1.9618489e-15 64:2.2225088e-15 65:-7.0301503e-16 66:-6.8933039e-15 67:-2.0139809e-15 68:4.6903446e-15 69:3.4763116e-15 70:-2.9439234e-15 71:1.1277221e-15 72:6.0471376e-15 73:-8.4522485e-15 74:-1.0728695e-15 75:-4.8274836e-15 76:4.8452368e-15 77:2.1158603e-15 78:-1.6360568e-15 79:2.0625143e-15 80:4.8302957e-15 81:-5.6870581e-15 82:-7.0540186e-15 83:2.3604748e-15 84:6.0056835e-15 85:1.9008124e-15 86:-2.3108943e-15 87:-4.5528041e-15 88:7.0288667e-15 89:3.5422823e-15 90:4.0269217e-15 91:-1.2987795e-15 92:8.0674227e-16 93:-6.6487104e-16 94:-3.5994022e-15 95:3.3465692e-15 96:-2.525967e-15 97:1.5780045e-14 98:2.1951385e-15 99:3.5398837e-15 100:-2.8658527e-15 101:6.051187e-15 102:2.495738e-15 103:-1.1603508e-14 104:-2.554519e-15 105:1.1464022e-14 106:-3.0685636e-15 107:1.2940585e-14 108:1.9993491e-14 109:-1.8482807e-14 110:-4.7028093e-14 111:2.5941047e-13 112:-1.4115967 113:0.88683642 114:-1.107323 115:-2.9364898 116:0.0076742356 117:-0.50635562 118:0.9260008 119:0.09056743 120:0.91449284 121:1.143442 122:0.94249656 123:-0.38603277 124:-1.9900095 125:0.71696882 126:0.81435832 127:0.82204589 128:-0.73926623 129:-2.086582 130:-0.46948899 131:-0.58060303 132:-1.1095424 133:1.0286952 134:0.42122572 135:-1.1598088 136:1.1896131 137:0.28666973 138:1.4017959 139:-2.002094 140:1.294997 141:0.35057908 142:0.01291203 143:0.23865278 144:2.8527074 145:0.43863429 146:1.3345736 147:0.061997441 148:1.7490612 149:-1.273252 150:0.23572903 151:-1.9061256 152:-0.028134206 153:0.52998842 154:-1.7569386 155:0.25145303 156:-0.14966366 157:-0.13716257 158:1.464106 159:1.0111655 160:1.7428535 161:-0.36602741 162:0.71899065 163:-0.87995739 164:0.69494696 165:-1.6860761 166:-0.16734062 167:-0.32016414 168:0.9666435 169:-0.38563429 170:0.58378468 171:-0.12821009 172:1.8643356 173:2.0088986 174:-0.90352789 175:0.30883561 
1 1:-0.17508756 2:5.2813437 3:-0.32919045 4:3.873568 5:0.68787231 6:6.0756722e-18 7:-0.75594714 8:2.0259355 9:2.125069 10:1.9955656e-15 11:-1.6540239 12:1.7975398e-14 13:1.1180387e-14 14:8.7833327e-16 15:7.4282324e-15 16:-1.5944359 17:4.2670895 18:0.23454907 19:-0.13157935 20:6.6841113e-15 21:1.4186838e-16 22:7.2815909e-16 23:2.6564611e-16 24:0.27464617 25:0.52845543 26:-0.15149053 27:0.22580786 28:4.1411165 29:4.2186835 30:2.9840128 31:-3.065034 32:-0.52730434 33:0.76089794 34:0.42705474 35:1.2719177 36:-0.21392278 37:1.5093608 38:0.28288662 39:0.49349871 40:-4.7877016e-15 41:-6.6713588e-15 42:4.5621452e-15 43:9.6885873e-15 44:-5.3164202e-15 45:-4.41034e-15 46:2.9005935e-16 47:4.4333248e-16 48:5.9676811e-16 49:-5.0608159e-16 50:-4.4753493e-15 51:-4.7846623e-15 52:-4.3434278e-15 53:-1.5540052e-15 54:9.7898143e-16 55:1.0467792e-15 56:5.246583e-15 57:-8.0717247e-15 58:-3.2550051e-15 59:1.0145163e-15 60:-3.0885095e-15 61:-2.2862757e-15 62:-1.4064646e-15 63:8.2333091e-15 64:5.4321957e-15 65:-2.8328693e-15 66:-6.8981504e-15 67:-9.7884361e-16 68:4.4269464e-15 69:2.4241457e-16 70:7.4936742e-15 71:1.0886524 72:-0.24593227 73:0.00076522063 74:-1.1856319e-14 75:0.065231771 76:-0.049596744 77:-0.44814253 78:-0.020382004 79:0.073478197 80:-5.9947499e-16 81:0.12961635 82:0.053622237 83:-2.1169497e-15 84:-0.020165379 85:9.7623061e-16 86:0.17626231 87:0.02244355 88:0.041735631 89:-0.081817555 90:-0.088574166 91:-0.025852652 92:0.18479397 93:-1.7461211e-15 94:-0.34010239 95:7.2995714e-16 96:-4.9227932e-14 97:3.4938952e-17 98:-0.069942819 99:-4.3346674e-15 100:0.031555686 101:0.15817203 102:-0.36811175 103:-0.13183419 104:3.7912297e-15 105:-0.21899959 106:0.041153011 107:-0.21048599 108:0.19234761 109:0.08748053 110:0.017769151 111:5.4482273e-05 112:-6.5919492e-16 113:1.587272e-15 114:-4.6837534e-16 115:4.5542004e-16 116:5.0821977e-16 117:3.512815e-16 118:7.3725748e-16 119:1.3758526e-15 120:9.2807706e-16 121:-9.1940344e-16 122:-6.505213e-16 123:-1.812786e-15 124:-1.1275703e-15 125:3.3827108e-16 126:5.5511151e-16 127:-2.4286129e-16 128:6.6786854e-16 129:-8.3266727e-16 130:-8.4134089e-16 131:-3.1658703e-16 132:1.0668549e-15 133:-1.110223e-15 134:-1.1058862e-15 135:6.8521577e-16 136:-1.0755286e-15 137:6.2450045e-16 138:2.6020852e-15 139:9.0205621e-16 140:1.994932e-16 141:1.6046192e-15 142:2.2068935e-15 143:-1.973248e-16 144:2.220446e-15 145:8.8470897e-16 146:-1.474515e-15 147:4.477755e-16 148:2.3418767e-15 149:-7.1991024e-16 150:-1.6501557e-15 151:1.3010426e-15 152:6.6542908e-16 153:-2.3852448e-16 154:-3.8163916e-16 155:9.8011876e-16 156:1.0451709e-15 157:-4.9656459e-16 158:5.5511151e-16 159:5.4643789e-16 160:1.179612e-15 161:-1.2359905e-15 162:6.505213e-16 163:2.4286129e-16 164:6.3317407e-16 165:-5.2041704e-17 166:-1.0256553e-15 167:-8.3917248e-16 168:1.474515e-15 169:1.4918622e-15 170:2.8622937e-16 171:-3.6277405e-15 172:-1.7347235e-17 173:-1.5959456e-15 174:-6.0715322e-17 175:1.0625181e-15 
1 1:-2.1787803e-18 2:1.6582882e-17 3:3.1376413e-15 4:5.1940073e-16 5:1.2577588e-15 6:-8.8212312e-16 7:1.3973943e-15 8:4.9790428e-16 9:1.9726128e-15 10:-1.5090266e-15 11:1.4536796e-15 12:-1.7490886e-15 13:-1.5805739e-15 14:3.7731191e-16 15:1.4700255e-15 17:-2.2920402e-16 18:-2.2873552e-16 19:-1.1393568e-16 20:-5.8494845e-17 21:1.7860183e-15 22:-1.5527287e-15 23:-9.0011664e-17 24:4.5016048e-16 25:5.6115139e-16 26:3.5769965e-15 27:1.9984094e-15 28:1.7891373e-15 29:1.4912191e-15 31:1.3672682e-15 32:2.0827092e-15 33:5.1383576e-15 34:7.1576697e-16 35:2.2453609e-15 36:1.3155762e-15 37:-3.8187963e-15 38:4.7564693e-15 39:6.420888e-15 40:5.6393213e-15 41:-1.2578756e-15 42:1.0710055e-15 43:-6.6267025e-16 44:-2.7357788e-15 45:4.2702222e-16 46:1.3287009e-16 47:-1.0291753e-15 48:1.4117799e-15 49:-5.1660488e-15 50:-1.2770418e-15 51:2.6356356e-15 52:-2.4398531e-15 53:-3.6287784e-15 54:-1.1391591e-16 55:1.8217442e-15 56:-1.6038968e-15 57:2.3367392e-15 58:2.0365011e-15 59:8.4810292e-16 60:-2.3258624e-15 61:2.0859499e-15 62:-3.8661035e-15 63:2.9855139e-15 64:1.1191125e-15 65:-7.2984767e-16 66:4.1961449e-15 67:-1.3368402e-15 68:-2.3612719e-15 69:5.0654025e-15 70:-3.0570037e-17 71:-3.2152077e-15 72:3.0473765e-15 73:6.5291245e-16 74:-2.8739855e-15 75:-1.7341446e-15 76:-5.2179473e-15 77:-3.6337601e-15 78:1.0907046e-15 79:-1.8831652e-15 80:-1.9810893e-14 81:8.175146e-15 82:2.4689065e-15 83:4.1737372 84:-2.0505119e-14 85:2.8775175e-14 86:2.6986995e-14 87:-6.1263539e-15 88:-4.4014961e-15 89:-1.1533012e-15 90:-6.574566e-16 91:1.2987795e-15 92:-4.4370825e-15 93:1.6958433e-15 94:1.5809529e-15 95:-2.8323394e-17 96:-1.2553131e-15 97:4.6302024e-16 98:6.9777593e-16 99:-1.9646787e-15 100:-1.2455998e-15 101:-3.1269292e-15 102:-4.4539325e-15 103:-2.9481226e-15 104:-3.6492502e-16 105:-4.5104351e-15 106:3.6530518e-17 107:1.2695739e-15 108:-5.0616433e-16 109:1.1596356e-15 110:-1.2331207e-15 111:-1.6754175e-15 112:-1.001123e-15 113:2.5398327e-15 114:2.2002062e-15 115:3.2975148e-15 116:6.1481674e-16 117:2.2230077e-16 118:4.8461157e-16 119:-1.2392615e-16 120:4.0293914e-15 121:-6.7238985e-16 122:-8.2454205e-16 123:-2.2879481e-15 124:-6.7208835e-16 125:1.0613501e-15 126:-4.0000023e-16 127:7.1211713e-16 128:-2.4741968e-15 129:4.6955426e-16 130:4.7480707e-17 131:-8.0380311e-16 132:1.8070002e-15 133:-2.0368256e-15 134:2.37199e-15 135:5.2774859e-16 136:1.005203e-15 137:3.5485823e-16 138:-2.0368826e-15 139:-1.2383115e-15 140:-3.0782903e-15 141:-1.9659688e-15 142:-4.3960684e-16 143:-3.3732283e-16 144:-1.1927906e-15 145:-1.5501909e-16 146:6.5403773e-16 147:1.3085267e-15 148:-4.7330339e-16 149:6.3620418e-16 150:5.1355718e-15 151:7.2680848e-16 152:1.6167827e-15 153:1.7426755e-15 154:-7.9695755e-16 155:2.2780048e-15 156:-2.6222294e-15 157:-1.9692736e-16 158:1.1383243e-15 159:-9.9799336e-16 160:8.1617759e-16 161:-1.4742936e-15 162:1.4367691e-15 163:-6.7853086e-16 164:2.7526654e-16 165:3.6529221e-16 166:-6.9627237e-16 167:-2.9786891e-15 168:-5.9730593e-16 169:-4.4642617e-15 170:-2.8658847e-16 171:-4.1239486e-15 172:-2.8745367e-16 173:2.3579641e-15 174:6.2192747e-16 175:4.2248632e-16 
1 1:-0.00011400577 2:0.0058512691 3:-0.00035349149 4:0.0031420971 5:-0.0010273482 6:-9.5537911e-17 7:7.4112997e-05 8:-0.066811219 9:0.018338826 10:9.1701357e-16 11:-0.016181587 12:1.7409616e-15 13:-3.6799399e-16 14:3.5129768e-17 15:1.4651339e-16 16:0.020284236 17:-0.001118195 18:0.023849003 19:-0.27701984 20:1.4162093e-15 21:-1.343953e-18 22:4.815563e-26 23:3.7475053e-17 24:0.082256981 25:-0.024349369 26:0.025728545 27:-0.036510253 28:0.88793261 29:-2.6976981 30:2.4606828 31:-0.41669002 32:0.99566683 33:-0.039120666 34:-0.21597797 35:0.021242518 36:0.078605848 37:-0.12895789 38:-0.44451004 39:0.12471887 40:1.5779505e-14 41:-1.777881e-15 42:1.1176126e-15 43:1.1159858e-15 44:1.4237522e-15 45:-1.3634858e-14 46:-1.4178701e-21 47:-2.8009586e-15 48:6.2259457e-15 49:-4.1568476e-18 50:-2.9834128e-16 51:1.676579e-15 52:2.2855773e-15 53:-1.0393661e-15 54:2.7189998e-15 55:1.5914533e-15 56:-1.5977497e-15 57:6.9706854e-16 58:-8.5070736e-16 59:-2.881592e-15 60:-1.7172353e-15 61:-1.3856498e-15 62:-1.7033009e-15 63:-1.9961653e-15 64:-3.4335344e-15 65:9.0424349e-16 66:1.8370341e-15 67:-5.169486e-17 68:1.1247218e-15 69:-1.3545558e-15 70:5.1464455e-17 71:0.070522186 72:-0.34563269 73:-0.12648398 74:7.9962951e-18 75:1.1565519 76:-5.5467772 77:0.99289001 78:-1.0308291 79:-0.15959506 80:-1.0385237e-17 81:-1.0320599 82:0.6272907 83:2.2465604e-15 84:-0.55439945 85:1.9417162e-15 86:-0.65797421 87:0.12630363 88:-0.013358951 89:-0.28274976 90:-0.17951078 91:1.0990558 92:0.37847133 93:-1.3775636e-16 94:-0.12289366 95:7.8133769e-16 96:-2.7747685e-14 97:8.6318386e-27 98:-0.041467733 99:-9.5204935e-17 100:-0.80947284 101:0.12223727 102:0.27011814 103:0.11059262 104:-1.4928242e-17 105:-0.37808033 106:5.0978048 107:0.47210497 108:-0.33732534 109:-0.061090865 110:-0.0016100565 111:3.5941909 112:-5.8871282e-15 113:-7.0804878e-16 114:-1.951449e-15 115:1.4466034e-13 116:2.1634163e-15 117:-1.0951224e-15 118:1.7482125e-15 119:3.3661244e-14 120:-1.0935803e-14 121:-3.0634238e-15 122:-6.1280423e-15 123:2.3451611e-14 124:1.2058047e-14 125:-6.2256378e-15 126:-2.846926e-15 127:-1.3582878e-14 128:1.8074348e-16 129:1.3422103e-14 130:-1.5917242e-14 131:-3.7804478e-15 132:9.1901502e-15 133:1.0592967e-14 134:6.9802486e-15 135:8.7885545e-15 136:-3.7708464e-16 137:2.1927583e-14 138:7.9930309e-15 139:3.0838474e-14 140:-1.9734995e-14 141:2.1571034e-15 142:3.1032202e-15 143:1.4651789e-14 144:-1.7801742e-14 145:-1.6363607e-14 146:7.716666e-16 147:-7.3274551e-15 148:1.8807781e-14 149:2.2314258e-15 150:-1.5198924e-14 151:-1.5486063e-14 152:1.9360145e-14 153:5.9210267e-15 154:1.5880641e-14 155:1.342305e-14 156:4.7966629e-15 157:-1.548018e-14 158:-1.1906626e-14 159:-1.6671433e-14 160:-2.6982821e-14 161:-4.8112542e-16 162:-2.3796117e-14 163:1.1730347e-15 164:-9.848254e-15 165:2.8784568e-15 166:2.1550662e-14 167:7.6187009e-15 168:-4.6966457e-15 169:5.8934014e-15 170:-3.0307951e-14 171:-3.0272276e-14 172:7.8339867e-15 173:-1.7272717e-14 174:1.6172351e-15 175:1.6944985e-15 
-1 1:-0.13875732 2:6.5495975 3:0.056026333 4:-13.780225 5:5.1262132 6:5.845775e-17 7:-0.28960621 8:1.2385017 9:7.7382359 10:-2.3695306e-16 11:2.0740206 12:-3.3998116e-15 13:-7.5893067e-16 14:2.7587623e-17 15:1.360289e-16 16:-1.4139454 17:-0.14172044 18:-0.5692069 19:0.059404477 20:8.9891794e-16 21:-1.4229003e-16 22:3.6031998e-25 23:8.5051452e-17 24:-0.10261913 25:-0.45511573 26:-0.014099342 27:0.056915377 28:-1.2261383 29:0.075737834 30:0.79571518 31:-0.063568832 32:-0.28926856 33:-0.29781814 34:-0.16435482 35:0.10624474 36:-0.065003742 37:0.33396989 38:0.23073375 39:-0.29478545 40:-3.6172061e-15 41:2.112168e-15 42:1.5368273e-15 43:-2.4585013e-15 44:-7.6900451e-16 45:4.4942594e-16 46:5.0379126e-21 47:2.5500611e-15 48:-3.0077363e-15 49:7.927134e-16 50:2.2564883e-15 51:2.2949674e-15 52:2.7093114e-16 53:-1.481123e-15 54:7.6201473e-16 55:2.1847328e-15 56:1.001132e-15 57:1.33982e-15 58:2.9344443e-15 59:2.0278346e-15 60:3.4576052e-15 61:-1.0977332e-15 62:2.2995215e-15 63:-3.7008869e-15 64:-2.6324439e-15 65:1.0675582e-16 66:-2.1725068e-15 67:2.7186376e-15 68:-4.399161e-15 69:4.5948603e-16 70:-4.4014925e-15 71:0.091152043 72:0.18962586 73:0.071927681 74:5.6902426e-17 75:-0.19529507 76:0.074255984 77:0.026968156 78:-0.092047724 79:-0.030951399 80:-2.9097792e-16 81:-0.29525592 82:-0.018139753 83:-4.1474962e-15 84:-0.48254308 85:2.0224503e-15 86:0.2292639 87:-0.07228583 88:0.16039864 89:0.046796894 90:0.057196093 91:0.018926309 92:-0.069034692 93:-4.7912471e-17 94:-0.02666144 95:-3.3747984e-15 96:4.5227688e-14 97:-1.360995e-26 98:0.068000997 99:-6.2794399e-16 100:-0.0026267997 101:0.059071192 102:-0.0030279716 103:-0.056405465 104:-1.9934829e-16 105:0.032683777 106:-0.0081514261 107:0.024893354 108:-0.10455734 109:0.12768497 110:0.02015051 111:-2.2919251e-05 112:3.4016843e-16 113:-6.0715322e-16 114:2.6020852e-16 115:8.4065911e-16 116:6.2450045e-16 117:-9.5409791e-16 118:6.2450045e-16 119:-3.3827108e-16 120:-3.469447e-17 121:-3.1008182e-16 122:8.2616206e-16 123:-2.7755576e-16 124:6.5485811e-16 125:5.2041704e-17 126:-8.500145e-16 127:3.2959746e-16 128:-4.8572257e-16 129:4.1633363e-16 130:-1.7347235e-16 131:-3.6429193e-16 132:1.0928758e-15 133:8.3266727e-16 134:-8.8470897e-16 135:2.0816682e-16 136:-4.510281e-16 137:7.6761514e-16 138:-1.0234869e-15 139:1.3530843e-15 140:2.7755576e-16 141:1.5265567e-15 142:3.6429193e-16 143:-3.8163916e-16 144:1.5612511e-16 145:-2.4286129e-16 146:5.9414279e-16 147:-2.0816682e-16 148:4.510281e-16 149:3.1441863e-16 150:8.6736174e-17 151:2.0816682e-16 152:-5.1499603e-16 153:-2.1250363e-16 154:1.0408341e-15 155:2.0816682e-16 156:3.8163916e-16 157:2.4286129e-16 158:-4.1633363e-16 159:2.6020852e-16 160:1.0408341e-16 161:-6.00648e-16 162:-1.2129512e-16 163:-3.989864e-16 164:-3.5344991e-16 165:1.3877788e-16 166:-3.8163916e-16 167:-1.7347235e-16 168:-3.8163916e-16 169:1.3877788e-15 170:6.0715322e-16 171:1.1752752e-15 172:-2.4633073e-15 173:-2.220446e-15 174:-4.98733e-17 175:2.7755576e-16 
1 1:-0.011697938 2:0.27212124 3:-0.013904041 4:0.14385533 5:-0.0074184291 6:8.4440228e-16 7:0.00050083879 8:-0.089550097 9:-0.1042049 10:3.3051307e-15 11:0.24690379 12:-6.2563382e-15 13:1.9283922e-15 14:8.3409173e-16 15:8.8159708e-17 16:-0.57991371 17:0.014738073 18:0.13877832 19:-0.073456238 20:-5.3025752e-16 21:-4.0854663e-15 22:6.1946574e-16 23:-9.3392509e-16 24:-1.5053099 25:0.37012775 26:0.23287073 27:-4.8370889 28:-0.61173022 29:-0.21125512 30:-0.17678771 31:-0.27937386 32:0.5233717 33:0.78400895 34:0.75220359 35:0.38485864 36:-0.26804985 37:0.16375352 38:0.007832674 39:-0.001987386 40:-6.4370772e-15 41:-2.4018519e-15 42:-1.0421172e-15 43:4.0545805e-15 44:-1.5785031e-14 45:2.1466118e-15 46:3.4528166e-18 47:2.7131624e-15 48:1.4660788e-15 49:4.1286144e-15 50:-2.2899787e-15 51:-3.711513e-15 52:-4.5470954e-15 53:-2.8386905e-15 54:2.5311461e-15 55:1.0634251e-14 56:-5.3779813e-16 57:2.7324364e-15 58:6.982277e-16 59:-2.994182e-16 60:1.4154238e-16 61:-3.0072172e-15 62:-1.8953811e-15 63:-2.0265269e-15 64:-1.753433e-15 65:6.0818248e-16 66:-5.1947108e-15 67:-9.816187e-16 68:-2.1304448e-15 69:-9.2130021e-16 70:-2.806168e-15 71:-0.022272354 72:-0.086007937 73:0.014783641 74:-1.1155496e-15 75:0.012473864 76:-0.084152484 77:-0.69499196 78:-0.054019339 79:0.14810504 80:-1.1262139e-15 81:0.16548476 82:0.060122098 83:5.9242231e-15 84:-0.48649909 85:-5.9728682e-15 86:1.4635093 87:7.2856985 88:-0.036476465 89:-0.35679109 90:0.51224665 91:0.18695055 92:-0.20368517 93:8.3495535e-16 94:-0.37517642 95:1.8009327e-15 96:-5.4136236e-14 97:-4.7350011e-15 98:-0.062959995 99:-2.2572215e-15 100:0.083055192 101:-0.14573694 102:-0.17281398 103:0.051631088 104:-7.0683007e-15 105:0.10998433 106:-0.030147407 107:0.16462904 108:-0.14458131 109:-0.062301022 110:-0.0075091252 111:-1.2536607e-05 112:-0.86005538 113:-0.1012273 114:0.90511696 115:-2.1972335 116:-0.050550266 117:0.55287646 118:0.030424995 119:-2.3119043 120:-0.095337389 121:-1.3123779 122:0.31303959 123:-1.3136255 124:0.38212029 125:0.73844266 126:-0.060326411 127:0.11938399 128:0.7645387 129:-0.55581862 130:-0.22946893 131:0.84075819 132:-0.11396899 133:-0.45646121 134:-2.0935943 135:-0.25674054 136:-1.9008874 137:-0.34723307 138:0.42631027 139:0.049845062 140:0.61659225 141:-1.5585402 142:0.24283962 143:-1.0210877 144:-0.097820972 145:0.23280219 146:-0.71294554 147:0.14383391 148:-0.75563464 149:-0.36963809 150:0.74916624 151:1.1803418 152:-0.41595665 153:0.048762627 154:-0.55526371 155:1.3256383 156:0.84138388 157:0.93288688 158:-0.29717273 159:1.7327298 160:-0.64744163 161:0.2759064 162:-0.16444037 163:0.039434426 164:0.94423359 165:0.89595314 166:-1.6780418 167:0.83741155 168:0.7724582 169:-0.29368853 170:0.57398112 171:-0.27789004 172:-0.30409401 173:0.33865035 174:0.55622957 175:-0.37734496 
-1 1:-2.7234754e-19 2:1.6582882e-17 3:-7.3211631e-15 4:1.0388015e-15 5:7.7037728e-16 6:-2.9702014e-16 7:6.1430397e-16 8:-6.2238036e-16 9:-4.9315321e-15 10:-4.0040114e-15 12:-5.0549705e-16 13:-2.6106713e-15 14:8.2185789e-16 15:5.5439667e-16 16:-6.9677489e-16 17:8.9174689e-16 18:3.4489027e-16 19:9.1148541e-16 20:-6.8752895e-16 21:1.0124311e-15 22:-1.8236012e-15 23:1.2436685e-15 25:4.433096e-15 26:5.3654948e-15 27:-1.4432957e-15 28:-4.7351605e-15 29:-1.0651565e-15 30:-2.1148623e-16 31:3.0500598e-15 32:1.6661673e-15 33:1.7766197e-15 34:-2.658563e-15 35:2.0550761e-15 36:-1.7962675e-15 37:9.5469907e-16 38:-1.9818622e-16 39:2.4695723e-16 40:2.0082159e-15 41:3.0865196e-15 42:2.1941429e-15 43:-3.3799537e-15 44:-9.2741252e-15 45:-9.4297545e-17 46:-6.644415e-16 47:4.3296373e-15 48:3.6952371e-16 49:7.3805079e-15 50:1.5099107e-15 51:-2.4214536e-15 52:-6.3854004e-15 53:-3.2616026e-15 54:-9.2988256e-16 55:-1.6858561e-15 56:4.5148304e-15 57:3.4499102e-16 58:2.4165902e-15 59:5.2967621e-15 60:1.014058e-15 61:1.1327205e-15 62:-3.380912e-16 63:6.7556908e-15 64:-1.5378933e-15 65:-1.3569647e-16 66:-1.8905508e-15 67:-9.8360773e-16 68:7.2984767e-16 69:-1.4254358e-15 70:6.1255072e-15 71:-1.1517162e-15 72:-5.2376783e-15 73:2.7659746e-15 74:-1.3240697e-15 75:-1.0779818e-15 76:7.4542104e-16 77:1.8398785e-16 78:-1.8178409e-16 79:2.8695851e-15 80:8.8178315e-16 81:2.1326468e-15 82:5.290514e-15 83:1.854695e-16 84:3.3460237e-15 85:1.209854e-15 86:7.598061e-15 87:-1.3637432e-16 88:-5.9336954e-15 89:1.0297332e-16 90:-1.0334396e-14 91:1.2176057e-16 92:1.774833e-15 93:-1.7511578e-15 94:-1.4715788e-15 95:-1.9650039e-15 96:3.5464322e-15 97:-1.6006021e-15 98:5.7907953e-15 99:-6.6004446e-15 100:9.3419985e-16 101:-1.3125382e-15 102:4.9914761e-15 103:1.4513834e-14 104:-3.9469268e-17 105:2.6686741e-15 106:-5.844883e-16 107:-1.0990882e-14 108:-1.7681292e-14 109:-1.6600629e-14 110:-8.832234e-14 111:1.3682576e-14 112:0.21009853 113:-1.0269267 114:2.1538174 115:-0.15780355 116:-0.70482985 117:0.43346755 118:-0.17896505 119:2.1820849 120:-0.2243702 121:-0.65654764 122:0.1034451 123:-0.10155957 124:-1.9558871 125:1.7585402 126:-0.1751159 127:3.9245286 128:-1.687268 129:1.4020787 130:-0.66705905 131:-0.76829605 132:0.25283279 133:-2.0089203 134:0.44982795 135:1.4136942 136:0.75953516 137:1.2406095 138:1.1158187 139:-2.0302724 140:-0.70800632 141:-0.50499468 142:-0.40568442 143:-1.6175982 144:-0.31472937 145:-0.72117035 146:-2.8538504 147:-0.046893124 148:-0.95916533 149:0.17018895 150:-0.059485837 151:-0.23929833 152:1.1641161 153:-0.38198579 154:-1.1833549 155:1.3048363 156:-0.80450397 157:-0.31732905 158:0.98843548 159:-0.38706861 160:-1.0033295 161:0.099428648 162:3.0539153 163:-0.70695032 164:-0.26173641 165:1.7361598 166:-0.17573936 167:0.11000807 168:1.2388634 169:1.6564328 170:-1.1699635 171:0.39810542 172:0.18510833 173:-0.41187481 174:-1.0396583 175:-0.19950472 
1 1:-0.028004742 2:0.94516508 3:-0.058417981 4:0.67395243 5:-0.10122843 6:-5.6296618e-16 7:0.0072685084 8:-7.6272149 9:2.2280978 10:2.4490549e-16 11:-1.425883 12:-5.0342835e-15 13:2.9308379e-16 14:2.1504657e-16 15:1.3650326e-16 16:0.90308793 17:0.38389633 18:-0.20923129 19:0.21860647 20:-1.3926208e-15 21:-6.8490819e-16 22:1.007664e-15 23:4.2537684e-16 24:3.6061517 25:-1.2156144 26:1.0996258 27:-1.2066549 28:0.017972013 29:0.32630948 30:-0.25186039 31:0.060727505 32:-0.085262194 33:0.04171355 34:0.11745233 35:-0.25214282 36:0.046814536 37:-0.62504399 38:3.9978323 39:1.9039005 40:-6.3960372e-14 41:-8.5519052e-15 42:-2.0867512e-14 43:3.0440358e-14 44:-1.6510528e-14 45:3.3049166e-15 46:2.7134383e-16 47:-1.9117998e-14 48:2.3755373e-14 49:-9.758028e-15 50:-1.7173006e-14 51:-1.5919214e-14 52:-2.022232e-14 53:5.2124998e-15 54:3.2256872e-15 55:7.8998134e-16 56:1.4873928e-15 57:-1.1366809e-14 58:-2.3781836e-14 59:-1.2575706e-14 60:-3.0178629e-14 61:7.2904194e-15 62:-1.1848785e-14 63:2.2587532e-14 64:2.3690596e-14 65:-1.3832322e-14 66:-2.3976739e-15 67:-2.3820823e-14 68:3.0427357e-14 69:-3.666231e-15 70:3.2115641e-14 71:-0.60036859 72:0.04115436 73:-0.0035318595 74:-1.3094905e-15 75:0.016476632 76:-0.12472539 77:0.029441398 78:-0.046278404 79:-0.0087009365 80:-1.9403789e-16 81:-0.079383101 82:0.065616681 83:-4.1138856e-15 84:-0.084471203 85:-9.775872e-16 86:-0.13358169 87:0.03643151 88:-0.027934377 89:0.0085364003 90:-0.0057576938 91:0.29274956 92:0.04926043 93:1.7580476e-15 94:0.077358362 95:9.6739313e-16 96:8.9772604e-15 97:-3.6848353e-16 98:0.010697584 99:-1.4607378e-15 100:-0.16739126 101:0.0067807147 102:0.017312875 103:-0.018852259 104:4.6338851e-15 105:-0.061232636 106:1.8494531 107:0.11339522 108:-0.079567498 109:-0.0031592488 110:-0.012653381 111:-2.4574083 112:4.3335561e-15 113:7.3942588e-16 114:1.2858638e-15 115:-9.8748285e-14 116:4.98733e-17 117:-1.2408694e-15 118:-7.0066565e-16 119:-2.1762106e-14 120:5.6270093e-15 121:5.0821977e-15 122:4.5743845e-15 123:-1.7370816e-14 124:-8.8210689e-15 125:2.0903418e-15 126:2.7712208e-15 127:8.4394297e-15 128:2.016616e-15 129:-9.9952598e-15 130:1.2169085e-14 131:1.608956e-15 132:-8.7936928e-15 133:-4.5731648e-15 134:-5.4925682e-15 135:-7.8225187e-15 136:-4.6295433e-16 137:-1.5156062e-14 138:-5.9078176e-15 139:-2.2609952e-14 140:1.5965419e-14 141:-8.7115645e-16 142:5.6270093e-16 143:-9.9117763e-15 144:1.3000126e-14 145:9.8158244e-15 146:1.2880322e-15 147:4.2656579e-15 148:-1.3143783e-14 149:-2.2750627e-15 150:1.1137196e-14 151:8.6893383e-15 152:-1.3531927e-14 153:-3.0558238e-15 154:-1.173432e-14 155:-1.0040796e-14 156:-4.6674904e-15 157:1.1194387e-14 158:7.5894152e-15 159:1.1657884e-14 160:1.8131113e-14 161:-2.643827e-15 162:1.8648277e-14 163:-7.3183647e-17 164:8.2610785e-15 165:-4.3021142e-15 166:-1.4215923e-14 167:-3.9609971e-15 168:5.314759e-15 169:-1.7607443e-15 170:1.9141589e-14 171:1.852522e-14 172:-2.1849384e-15 173:9.4715902e-15 174:-3.7090556e-15 175:-3.1986675e-15 
-1 1:-1.0213033e-19 2:4.1457205e-18 3:-1.0458804e-15 4:-9.0895128e-16 5:-5.0310353e-16 6:-1.7215398e-15 7:-4.9929371e-15 9:2.465766e-15 10:-1.2125778e-15 12:-1.1727633e-15 13:-6.311924e-16 14:-2.7868083e-16 15:5.7685979e-15 16:9.2903319e-16 17:-3.0369533e-15 18:2.9735617e-15 19:-2.4923429e-16 20:1.7062598e-15 21:8.7168378e-15 22:-1.052284e-14 23:-3.7854112e-15 24:-2.2508024e-15 25:8.7539617e-15 26:4.9183702e-15 27:1.1879434e-14 28:1.1622667e-14 29:5.2725246e-15 30:-3.3837797e-15 31:-1.8285568e-14 32:4.1654184e-15 33:-2.1628414e-15 34:-8.180194e-16 35:4.901737e-14 36:-1.1131799e-15 37:-2.7535531e-14 38:8.0414059e-14 39:-6.1196002e-14 40:3.6607148 41:0.028549682 42:-3.5774518 43:-2.5995798 44:0.84414328 45:4.9663105 46:1.5626248e-06 47:0.12114565 48:-0.37745582 49:1.9035766 50:0.19377487 51:2.1568187 52:0.69220882 53:-0.50879451 54:-2.2773881 55:4.1843406 56:-2.0093015 57:6.481269 58:0.90744744 59:1.4986274 60:-1.938495 61:1.7794668 62:-2.7548327 63:-0.088006225 64:0.09137058 65:-2.4223007 66:3.4798414 67:-1.370121 68:3.5190833 69:-3.6569271 70:-0.71279829 71:2.4929857e-14 72:7.1422886e-15 73:-7.1108102e-15 74:4.3383829e-14 75:3.5620268e-15 76:3.7271052e-15 77:-1.9318725e-15 78:-1.6360568e-15 79:-8.4294063e-15 80:-4.5619234e-15 81:-7.8197049e-15 82:-6.3486167e-15 83:-1.5446791e-15 84:-3.4318191e-16 85:4.7354088e-16 86:-1.0460117e-14 87:-1.6889435e-15 88:1.7188467e-15 89:-4.1601222e-15 90:-4.7049238e-15 92:5.0018021e-15 93:3.3419035e-15 94:-1.193172e-16 95:-3.861103e-16 96:4.5271628e-15 97:-3.2606449e-14 98:9.3367883e-16 99:4.2878561e-15 100:2.1797997e-15 101:1.1002158e-15 102:6.4793199e-16 103:5.2915021e-16 104:1.52012e-15 105:3.0069567e-16 106:-1.1689766e-15 107:1.4509415e-15 108:3.0008314e-15 109:-1.9803007e-15 110:1.714352e-15 111:5.5847249e-16 112:-6.2178776e-15 113:-1.7166968e-15 114:3.7561384e-15 115:4.2606381e-15 116:-4.633532e-16 117:2.7831095e-15 118:-8.4458762e-16 119:2.5652756e-15 120:1.2718929e-15 121:6.0471588e-16 122:2.5643834e-15 123:2.4013372e-15 124:4.8278169e-16 125:6.0584229e-16 126:2.642876e-15 127:-2.0467703e-15 128:2.7133499e-15 129:2.0429401e-16 130:6.7798315e-16 131:-4.1602665e-16 132:-2.6720443e-16 133:-3.4050732e-17 134:6.6003817e-16 135:-5.0863742e-16 136:-3.2024283e-15 137:2.0797494e-16 138:-2.4343238e-15 139:4.9802946e-15 140:1.7516012e-16 141:-1.1131163e-14 142:6.6557629e-16 143:-2.2609674e-15 144:-1.243066e-15 145:-3.8839683e-15 146:-9.6776127e-16 147:-3.2198643e-17 148:-7.2291847e-17 149:-6.9098287e-16 150:-8.3360774e-16 151:7.7858235e-16 152:-1.2677587e-15 153:-1.4564433e-15 154:-4.4310968e-16 155:1.5401484e-15 156:5.3659627e-16 157:-6.0463016e-16 158:-1.3043414e-15 159:4.2735596e-16 160:-1.6754472e-15 161:8.393211e-16 162:-2.7329165e-16 163:-9.1376569e-16 164:-9.6077242e-16 165:3.8156408e-16 166:1.1424789e-15 167:-2.557353e-16 168:5.3324745e-16 169:-3.8505507e-15 170:9.8617039e-16 171:-3.04236e-15 172:-1.1718782e-15 173:1.4578711e-15 174:-2.7863108e-15 175:1.5438406e-15 
1 1:-0.00010171473 2:0.0050784795 3:-0.0003039611 4:0.0026895973 5:-0.00085904069 6:-7.2471169e-17 7:6.1905475e-05 8:-0.055393685 9:0.015079794 10:7.186299e-17 11:-0.013090387 12:-1.3431761e-16 13:3.3259887e-16 14:1.7476859e-17 15:8.9801639e-17 16:0.015654208 17:-0.00084781885 18:0.018030204 19:-0.20828998 20:8.5529533e-16 21:2.1882317e-16 22:4.9309108e-26 23:2.5988641e-17 24:0.060688699 25:-0.017884239 26:0.018770599 27:-0.026320145 28:0.59957936 29:-1.7736765 30:1.584366 31:-0.26383532 32:0.60921773 33:-0.022898012 34:-0.1222411 35:0.011551252 36:0.042039361 37:-0.065906373 38:-0.20194587 39:0.054822323 40:4.1527253e-15 41:-1.8840343e-16 42:1.4719617e-15 43:7.3598084e-17 44:-1.3492982e-16 45:5.8878467e-16 46:-2.4566011e-22 47:3.8179006e-16 48:-2.0239473e-16 49:6.6238276e-16 50:1.6099581e-16 51:-1.2511674e-15 52:-3.1279186e-16 53:-8.3717821e-16 54:1.4719617e-16 55:-4.415885e-16 56:9.8130779e-16 57:-4.9065389e-17 58:3.0665868e-17 59:-1.4719617e-16 60:7.1144815e-16 61:-2.330606e-16 62:5.1518659e-16 63:-2.6602641e-16 64:1.7249551e-16 65:-7.3598084e-16 66:-2.2079425e-16 67:4.661212e-16 68:-1.0794386e-15 69:8.0957892e-16 70:-1.8399521e-17 71:0.017008115 72:-0.052750457 73:-0.014536019 74:2.4242331e-17 75:-0.16489609 76:1.8779602 77:-1.2671781 78:10.969752 79:-0.52650313 80:-3.9313883e-17 81:-2.1551177 82:1.0517957 83:1.9411214e-15 84:-0.61995779 85:1.9165767e-15 86:-0.6751807 87:0.11729817 88:-0.011718558 89:-0.23154124 90:-0.14477271 91:0.82031635 92:0.27183733 93:-1.3848942e-16 94:-0.08074407 95:7.0830601e-16 96:-1.8214186e-14 97:8.8355763e-27 98:-0.027062708 99:-4.0879111e-16 100:-0.45937515 101:0.065192753 102:0.1380028 103:0.049148381 104:3.2842031e-17 105:-0.15891676 106:1.474325 107:0.12002193 108:-0.080128261 109:-0.010240558 110:-0.00016638284 111:0.13868849 112:-6.4671692e-16 113:-2.0456815e-16 114:-6.5114161e-16 115:3.6317539e-15 116:-2.1698884e-16 117:-1.6486394e-16 118:2.3106229e-16 119:1.7404297e-15 120:-3.0292203e-16 121:4.4064619e-16 122:6.5921963e-17 123:1.5834423e-15 124:2.7759159e-16 125:-7.5697655e-16 126:6.1188941e-16 127:-5.7901814e-16 128:-1.5828744e-16 129:1.5343828e-16 130:-5.1504539e-16 131:-9.6186896e-17 132:8.3726744e-16 133:8.9175242e-16 134:-9.3248862e-17 135:-3.6390895e-16 136:-7.4009728e-17 137:1.0379719e-15 138:5.6579844e-16 139:1.5982544e-15 140:-3.1842781e-16 141:4.2412313e-16 142:9.6222912e-16 143:1.5746556e-15 144:-7.0188062e-16 145:-8.503507e-16 146:6.2290721e-16 147:-2.8022285e-16 148:1.030184e-15 149:-1.1506981e-16 150:-1.0513944e-15 151:-1.64768e-15 152:3.1221181e-16 153:3.3150213e-16 154:1.3387021e-16 155:1.0476804e-15 156:1.2405229e-16 157:-8.6728382e-16 158:-5.7983427e-16 159:-1.0663466e-15 160:-1.5128617e-15 161:-6.0303151e-16 162:-4.4451158e-16 163:4.2192544e-16 164:-4.5295435e-16 165:1.3143923e-16 166:1.48242e-15 167:9.4676749e-16 168:3.2262085e-16 169:1.8704887e-15 170:-2.0457155e-15 171:-2.1516496e-15 172:7.2804271e-16 173:-1.5439792e-15 174:-3.1772454e-16 175:-2.3185406e-16 
1 1:4.2554303e-21 2:-1.0364301e-18 3:-1.0458804e-15 4:2.2723782e-16 5:-7.0434495e-15 6:-3.8644676e-15 7:8.8553978e-15 8:-1.2447607e-16 9:-4.9315321e-16 10:-2.6848352e-15 11:-7.8740977e-16 12:1.3864068e-15 13:1.2522719e-14 14:-1.1730139e-15 15:-1.1040002e-15 16:-5.1096825e-15 17:-2.8077492e-15 18:4.4603426e-15 19:-2.7344562e-15 20:6.9727184e-16 21:8.7752936e-16 22:2.2860756e-14 23:-5.9460573e-15 24:-9.9035306e-15 25:1.7956844e-15 26:-4.0241211e-15 27:-1.5321139e-14 28:-5.2732469e-15 29:-7.2430641e-15 30:-1.1631743e-14 31:1.0307099e-14 32:1.7052181e-14 33:2.2941568e-14 34:-4.9081164e-15 35:3.9553872e-14 36:-3.6127747e-14 37:-5.2257212e-15 38:5.4303024e-14 39:-4.2526035e-14 40:3.0932064 41:-1.39517 42:-1.0913457 43:1.6248592 44:4.6832836 45:-2.5402283 46:1.3600216e-06 47:1.9743118 48:-1.1745543 49:2.7235884 50:0.32535115 51:0.0016882359 52:4.2052014 53:1.694358 54:0.23243288 55:-5.6786541 56:2.5329597 57:0.68445201 58:0.78979172 59:1.5788848 60:-0.5056632 61:0.98935512 62:0.2795193 63:2.925252 64:3.597397 65:-3.780729 66:-2.2568698 67:0.39538397 68:5.2869288 69:2.9399936 70:-1.2886372 71:6.9222941e-15 72:6.8327894e-14 73:1.8518971e-14 74:-2.9161798e-14 75:-1.4998007e-15 76:-1.8635526e-15 77:2.2078542e-15 78:2.1814091e-15 79:1.0491921e-14 80:-5.597543e-16 81:7.4642638e-15 82:1.1991832e-14 83:5.2245356e-15 84:-6.9923315e-15 85:-1.6214943e-15 86:5.5454822e-15 87:7.6579424e-16 88:6.1886284e-15 89:-9.0616523e-16 90:-9.5331208e-15 91:-4.2210332e-15 92:7.5833774e-15 93:1.305471e-15 94:-6.8607391e-15 95:-1.0793034e-15 96:-1.9040266e-15 97:4.6695081e-14 98:-5.7113332e-15 99:-3.7476947e-15 100:-1.5569998e-16 101:-1.23533e-15 102:-6.1433552e-16 103:-1.9654151e-15 104:4.427129e-15 105:2.4055654e-15 106:1.4612207e-16 107:1.0882062e-15 108:-2.4223579e-15 109:3.5681094e-16 110:2.4601778e-15 111:2.7923624e-16 112:-1.593116e-15 113:-1.2511997e-15 114:-1.8704989e-15 115:3.6499174e-15 116:-6.0135948e-16 117:4.4411213e-15 118:-2.0753411e-15 119:4.335879e-16 120:-1.4320713e-15 121:-8.7209362e-16 122:5.242306e-15 123:-4.5612939e-16 124:-6.0262111e-16 125:5.6831062e-16 126:1.0817245e-15 127:2.5551999e-15 128:9.2283589e-16 129:-1.054405e-15 130:-3.68875e-16 131:-4.8325022e-17 132:1.090164e-15 133:5.8261857e-15 134:2.3886781e-15 135:9.856734e-16 136:2.75655e-15 137:2.3281196e-15 138:-5.1156319e-16 139:1.9188033e-15 140:-1.8092297e-15 141:-1.7584064e-14 142:-1.9454378e-15 143:3.41725e-15 144:-1.2477317e-15 145:-2.0470586e-15 146:-7.4168745e-15 147:6.9937893e-16 148:4.111021e-15 149:-1.4735904e-15 150:1.8478216e-15 151:1.7275306e-15 152:-1.1413128e-15 153:2.0155632e-15 154:-4.3933829e-16 155:4.6674185e-16 156:-2.4837987e-15 157:-1.006577e-15 158:-2.6010478e-15 159:1.1651617e-15 160:2.2379827e-15 161:2.0348315e-15 162:2.0419983e-16 163:3.2794377e-15 164:2.2895629e-15 165:1.668597e-15 166:1.2265709e-16 167:2.5128922e-17 168:2.2399915e-16 169:6.8757645e-16 170:-1.1065797e-17 171:-5.1686801e-15 172:1.7279961e-15 173:-3.2203104e-16 174:2.4816311e-15 175:-2.1960083e-15 
-1 1:-8.5108606e-21 2:-2.0728602e-18 3:-1.3073506e-16 4:-1.6231273e-16 5:-1.4086899e-14 6:-7.1408589e-16 7:2.5121696e-15 8:-1.2447607e-16 9:1.9726128e-15 10:3.6554914e-16 11:3.8764789e-15 12:1.1549946e-16 13:1.4203991e-14 14:-9.5492539e-16 15:-2.800648e-15 16:3.6871005e-15 17:-5.1785783e-15 18:-1.4867809e-15 19:-1.1393568e-16 20:4.5164311e-15 21:8.0449401e-15 22:9.7556746e-15 23:1.4195866e-15 24:-8.5530492e-15 25:-9.6518039e-15 26:1.073099e-14 27:1.9984094e-15 28:4.3046913e-15 29:4.7932042e-15 30:2.1148623e-15 31:8.1510218e-16 32:5.8315857e-15 33:7.8531742e-15 34:2.8732931e-14 35:7.8690702e-17 36:-1.65712e-15 37:-4.1202802e-15 38:5.5492142e-15 39:-7.922388e-14 40:1.3935131 41:-0.51652888 42:-1.7746432 43:-0.61387736 44:-3.7958854 45:2.4520341 46:-5.5593716e-06 47:-2.3007348 48:-1.8679856 49:0.45744531 50:4.0261429 51:-1.715696 52:-1.7390864 53:-3.2873243 54:3.4892231 55:-3.2913955 56:-1.6947191 57:3.9120825 58:-3.2284382 59:-1.8237124 60:3.8205979 61:-1.248778 62:0.73152743 63:1.9301481 64:0.63971585 65:1.4199272 66:-5.0707675 67:-4.4027612 68:2.0517451 69:0.30001658 70:2.1668547 71:2.3394235e-14 72:-2.4521857e-14 73:-3.114986e-14 74:-3.202456e-14 75:-1.9684885e-14 76:-6.5224341e-15 77:5.7036235e-15 78:1.908733e-15 79:-8.9001976e-15 80:-1.3273052e-15 81:4.2652936e-15 82:-7.4067195e-15 83:1.4260393e-16 84:-5.0619332e-15 85:-9.3293966e-15 86:7.3815807e-15 87:1.8462984e-15 88:-1.9041934e-15 89:3.130389e-15 90:2.6709175e-15 91:-1.4611269e-15 92:3.8723629e-15 93:1.2871128e-15 94:-1.2528306e-15 95:1.9641672e-15 96:8.7342939e-15 97:2.4810857e-14 98:-9.4361158e-16 99:-1.6156887e-15 100:-6.227999e-16 101:-2.8953048e-15 102:6.9112746e-16 103:-1.6819417e-15 104:-9.1144551e-16 105:-3.4955872e-15 106:3.6530518e-16 107:-3.5548068e-15 108:2.0969665e-15 109:1.6502506e-15 110:7.3893532e-16 111:1.116945e-15 112:1.1359568e-14 113:1.0308862e-15 114:-4.1405321e-17 115:2.4621147e-15 116:-1.0938598e-15 117:-5.9942079e-15 118:-1.0481926e-15 119:-1.9565168e-15 120:-7.4592914e-16 121:-1.525756e-15 122:-8.4562046e-15 123:-9.9834587e-17 124:1.5783978e-15 125:-2.7963885e-15 126:-1.0278861e-15 127:-2.2036739e-16 128:-2.3207548e-15 129:-1.9916408e-15 130:-1.6295154e-15 131:-1.4885541e-15 132:1.9321378e-15 133:-7.8792917e-16 134:-3.1779038e-15 135:5.5171628e-16 136:-2.3183407e-17 137:-3.6383776e-15 138:2.0266944e-15 139:-1.7974127e-16 140:-5.0190671e-15 141:2.6534593e-14 142:1.204114e-15 143:3.3519222e-15 144:9.8475006e-17 145:1.4084341e-15 146:-7.1402165e-16 147:-8.0274182e-16 148:-9.349195e-16 149:-2.4236341e-16 150:-6.6814594e-16 151:-1.7746966e-15 152:-2.3508644e-16 153:-4.3715611e-16 154:-1.8685765e-15 155:6.5563901e-16 156:-1.0406093e-16 157:-6.2783371e-16 158:3.2562256e-15 159:-3.5725773e-16 160:2.1538914e-15 161:1.3570337e-16 162:-3.2961589e-15 163:-1.3043028e-16 164:-7.166958e-16 165:-1.3588305e-15 166:1.5022544e-15 167:3.6845571e-15 168:-2.1073341e-15 169:-6.2440423e-16 170:-6.8656514e-16 171:-2.4107261e-15 172:1.2962817e-15 173:-2.5882998e-15 174:2.7617036e-15 175:3.197815e-15 
-0.313999016183192 1:-0.014702758 2:0.32975237 3:-0.016665462 4:0.1715608 5:-0.0086526755 6:-2.1877301e-18 7:0.0005836772 8:-0.10380369 9:-0.12020728 10:1.3015983e-16 11:0.28332337 12:9.370635e-15 13:-4.8704862e-15 14:6.5274262e-17 15:2.725735e-16 16:-0.69820181 17:0.019259258 18:0.18533927 19:-0.10333642 20:3.9016353e-14 21:1.9906349e-16 22:-9.1692956e-26 23:-5.1562415e-18 24:-3.3581795 25:1.1484656 26:15.004109 27:2.3554769 28:-0.35415802 29:-0.12855544 30:-0.10916291 31:-0.17322307 32:0.32366666 33:0.47812214 34:0.45240708 35:0.2273852 36:-0.15718815 37:0.094105013 38:0.0042906323 39:-0.0010756902 40:-6.58717e-15 41:-1.907417e-15 42:5.967578e-15 43:4.6397459e-15 44:5.6425198e-16 45:-9.1752278e-15 46:5.0535794e-21 47:5.4830573e-15 48:2.5207344e-15 49:-3.8025677e-16 50:-2.6985964e-15 51:-3.9252311e-16 52:2.6679305e-15 53:5.826515e-15 54:-3.6799042e-17 55:8.9912326e-15 56:6.746491e-17 57:-1.0303732e-15 58:4.2318898e-15 59:4.8268077e-15 60:-6.8691545e-16 61:-4.3545533e-15 62:-8.4637797e-16 63:3.4100446e-15 64:-1.2082352e-15 65:1.5946252e-15 66:-4.8084082e-15 67:1.9380829e-15 68:1.7540877e-15 69:6.4551653e-16 70:-2.3919377e-15 71:-0.010549741 72:-0.038982699 73:0.0065912359 74:-5.6139655e-17 75:0.0051057347 76:-0.032969414 77:-0.2451752 78:-0.016963235 79:0.039742062 80:-1.1059702e-16 81:0.039058206 82:0.012486849 83:-1.8446243e-15 84:-0.04890141 85:-5.9279478e-16 86:0.089757011 87:0.040580457 88:0.0011468189 89:0.028796636 90:-0.047260475 91:-0.028727847 92:0.037779014 93:2.0539189e-17 94:0.097946177 95:-4.5542643e-17 96:1.2923062e-14 97:3.6697498e-27 98:0.016798719 99:-8.3711468e-16 100:-0.031971025 101:0.063462711 102:0.081113701 103:-0.029557844 104:1.3442774e-16 105:-0.067148847 106:0.024733663 107:-0.14429984 108:0.13058757 109:0.06319757 110:0.0083753094 111:1.5238396e-05 112:8.9644414e-17 113:3.0767293e-16 114:5.8179833e-17 115:3.8640143e-16 116:1.0084862e-15 117:4.3818113e-16 118:1.3715834e-15 119:-9.5349932e-16 120:1.4507141e-16 121:9.3972175e-16 122:4.4210596e-16 123:-9.4913291e-16 124:-9.0910775e-16 125:-2.9913113e-16 126:-6.6985641e-17 127:-3.5775609e-16 128:-1.0709889e-15 129:-1.731331e-15 130:-1.104821e-15 131:6.3971275e-16 132:-7.0094598e-16 133:5.5397635e-16 134:-7.8967524e-16 135:8.8605473e-17 136:-1.6600424e-16 137:2.8744305e-16 138:5.806964e-16 139:1.4124448e-15 140:-3.5133502e-16 141:8.946379e-16 142:-6.2853999e-16 143:1.1095755e-16 144:1.0094993e-15 145:-9.4014372e-16 146:2.3108669e-16 147:-1.0111469e-15 148:1.2329672e-15 149:-6.8068443e-16 150:9.1002527e-16 151:-6.1460541e-16 152:-1.1619528e-15 153:1.093426e-15 154:-7.9336393e-16 155:1.9270254e-16 156:-3.5644944e-16 157:7.5081461e-17 158:3.3466865e-16 159:2.039022e-16 160:1.3182669e-17 161:-3.0716425e-16 162:-1.483283e-15 163:-6.115164e-16 164:2.934182e-16 165:-6.1370057e-17 166:1.4700484e-15 167:-7.1408075e-16 168:-1.7722946e-16 169:2.0650411e-15 170:-1.3901622e-17 171:1.5907238e-15 172:-3.6756902e-16 173:5.2222731e-16 174:5.1605656e-16 175:1.7395377e-16 
1 1:-1.8617508e-21 2:-6.4776882e-20 3:-9.8051292e-17 4:2.4346909e-17 5:-4.0248283e-15 6:4.8162002e-16 7:-1.8841272e-16 8:1.8671411e-16 9:2.2191894e-15 10:3.1097458e-15 11:-1.9382394e-15 12:-2.6841789e-15 13:4.3175488e-15 14:1.1510452e-16 15:-8.8695601e-16 16:1.8580664e-15 17:1.5131047e-15 18:-1.6011486e-15 19:4.5574271e-16 20:1.5695828e-15 21:1.0524285e-15 22:-1.4918138e-15 23:8.769572e-16 24:-1.8006419e-15 25:2.2446056e-16 26:-2.2356228e-15 27:-1.7763639e-15 28:1.0761728e-16 29:-2.130313e-16 30:-8.4594493e-16 31:-1.6827916e-15 32:4.1654184e-16 33:-1.596383e-15 34:-2.658563e-15 35:2.7908441e-15 36:-2.3275579e-15 37:-1.4571723e-15 38:-3.9637244e-16 39:2.9634868e-16 40:-1.8274758e-15 41:6.056509e-17 42:-1.4964944e-15 43:-3.6799042e-16 44:-6.2067718e-15 45:1.2266347e-15 46:-5.3400567e-16 47:-1.3738309e-15 48:1.1039713e-16 49:-3.9187146e-15 50:-1.7172886e-16 51:1.0549059e-15 52:2.3796714e-15 53:4.4649504e-15 54:-1.7540877e-15 55:-2.330606e-15 56:3.4345773e-16 57:-3.532708e-15 58:-1.0549059e-15 59:-3.4836426e-15 60:1.5946252e-15 61:1.1530366e-15 62:1.740288e-16 63:-9.9357413e-16 64:5.2177975e-15 65:2.931657e-15 66:-3.9497638e-15 67:1.1530366e-15 68:9.0157653e-16 69:-1.9012838e-16 70:2.0239473e-15 71:6.5263917e-15 72:1.0475357e-15 73:1.5313765e-15 74:2.5993975e-15 75:-1.3123256e-15 77:-3.6797571e-16 78:-1.3633807e-16 79:-2.5557242e-15 80:-1.2968444e-15 81:3.5544113e-16 82:7.9357709e-16 83:-4.3743124e-16 84:1.5443186e-15 85:-3.5076542e-15 86:-4.2233585e-15 87:6.2941992e-16 88:1.8053418e-15 89:8.2378658e-16 90:-2.5476443e-15 91:-1.704648e-15 92:3.9933742e-15 93:-1.0610677e-15 94:-5.7669981e-15 95:-4.9372682e-15 96:1.2308012e-15 97:3.2296507e-15 98:-1.7680301e-15 99:1.6881292e-15 100:1.8683997e-15 101:-5.1343405e-15 102:1.3438589e-15 103:9.4491109e-17 104:5.3953227e-15 105:-7.8932614e-16 106:1.0228545e-15 107:-3.2283449e-15 108:3.036986e-15 109:4.9953532e-15 110:-2.5038635e-14 111:-1.0890213e-14 112:0.15704055 113:-0.63062621 114:0.79970285 115:0.11121018 116:0.61597215 117:1.0871656 118:1.3810723 119:-0.63902678 120:0.57997005 121:0.74007293 122:0.32696517 123:0.079503405 124:0.62080174 125:-1.6368987 126:-0.6891377 127:1.01065 128:-0.46714263 129:-2.615789 130:-0.49680034 131:0.49672459 132:0.64479229 133:-2.1231969 134:0.018063042 135:-0.43170555 136:-0.72113807 137:0.54576269 138:-1.2719903 139:-0.62702867 140:0.85719394 141:-0.41137742 142:-0.051351579 143:0.55344164 144:-0.6767449 145:-0.54453103 146:-0.82598609 147:0.74519441 148:-0.96286797 149:1.045219 150:-0.33349866 151:-0.54661188 152:1.2784938 153:-0.026179383 154:0.474169 155:-0.9295402 156:-0.082404572 157:-1.4864852 158:0.53388054 159:-0.82616335 160:-0.18107561 161:1.5384939 162:-1.4426865 163:0.47263249 164:-0.36232196 165:0.018797604 166:-0.36615394 167:0.97498898 168:-0.51760662 169:-0.95414156 170:0.12305549 171:-0.17740541 172:0.24051784 173:0.64410953 174:-1.3888575 175:0.80372741 
1 2:3.2388441e-20 3:4.9025646e-17 4:4.0578182e-18 5:5.0310353e-16 6:1.3155361e-15 7:-1.570106e-16 8:3.1119018e-17 9:1.232883e-16 10:2.8901584e-15 11:-3.6341989e-16 12:-2.9785359e-15 13:-4.5163629e-15 14:4.1178894e-17 15:-7.6033543e-16 16:-9.2903319e-16 17:2.668078e-15 18:-1.7155164e-16 19:2.2787135e-16 20:2.0849597e-15 21:-2.8351378e-15 22:4.8811015e-17 23:1.1553701e-15 25:-3.8158294e-15 27:1.332273e-15 28:-3.0132839e-15 29:-1.9172817e-15 30:-1.5861467e-15 31:3.0500598e-15 33:-1.2874056e-17 34:-4.2690387e-15 35:2.7147301e-15 36:-3.0359451e-15 37:2.4118713e-15 38:-2.7746071e-15 39:-1.2841776e-15 40:-1.2934856e-15 41:1.3866339e-14 42:5.6547861e-15 43:7.9179272e-15 44:1.2757001e-15 45:-3.3855119e-15 46:-3.0711823e-16 47:6.991818e-16 48:-1.2327679e-15 49:1.4574337e-14 50:1.0671722e-15 51:4.7409432e-15 52:-1.4106299e-15 53:1.8031531e-15 54:1.8154194e-15 55:1.7724872e-15 56:-6.5011641e-16 57:2.330606e-15 58:-2.3183396e-15 59:1.2879665e-15 60:-3.532708e-15 61:-1.2143684e-15 62:7.3981407e-16 63:3.3241801e-15 64:-2.8595922e-16 65:1.5700925e-15 66:-5.4094592e-15 67:2.085279e-15 68:5.7345174e-15 69:1.202102e-15 70:-2.2570079e-15 71:-4.4389061e-16 72:-6.9280199e-15 73:1.5076342e-15 74:-5.7341342e-15 75:-3.515158e-15 76:-2.2362631e-15 77:-1.5178998e-15 78:-9.0892047e-17 79:-1.2554435e-15 80:6.5079874e-16 81:-3.5544113e-16 82:1.2344533e-15 83:-5.6947067e-15 84:-4.0109386e-15 85:-7.1066396e-15 86:2.0240246e-15 87:3.8814229e-15 88:8.7197488e-15 89:2.9656317e-15 90:-1.7751328e-14 91:-2.5975589e-15 92:1.1294392e-15 93:-2.6550479e-15 94:1.064906e-14 95:5.5178548e-15 96:-3.8050688e-15 97:-1.5879485e-14 98:-5.2544266e-15 99:5.558723e-15 100:-5.6051991e-15 101:-9.4965997e-15 102:2.7645098e-15 103:1.5118577e-16 104:-1.1983938e-14 105:-1.1426435e-14 106:-3.6530518e-15 107:2.5409614e-14 108:1.4895693e-14 109:-5.4734799e-14 110:7.5137126e-14 111:8.32124e-14 112:0.59325149 113:0.36108303 114:0.90866624 115:-0.93543417 116:-1.6443576 117:0.8394104 118:-0.018303373 119:2.1784602 120:0.61456609 121:-0.15088252 122:0.8750389 123:-0.18486658 124:1.2951972 125:-0.95928227 126:0.5888818 127:-0.21991065 128:1.0749817 129:-0.30289425 130:0.72713418 131:-0.008930408 132:-1.5053025 133:-0.36798371 134:0.31468531 135:1.4669134 136:0.24406827 137:0.81659055 138:0.31112446 139:1.2880157 140:-0.024243282 141:-0.16048523 142:1.7495159 143:-0.40786283 144:-1.7465989 145:3.1953546 146:1.6178496 147:-0.92955338 148:-0.78533523 149:0.20488076 150:-1.0491211 151:-1.1952835 152:-0.43929891 153:-0.14667451 154:0.4297335 155:1.3569065 156:-0.26999571 157:-0.32149951 158:-0.48835848 159:0.38396007 160:-0.19371349 161:0.9687451 162:0.58304955 163:1.0023489 164:-0.55271392 165:0.11565216 166:-1.7696949 167:-0.16859184 168:0.40467215 169:-0.98572293 170:-0.23562741 171:5.2763579 172:2.7143812 173:-1.1524315 174:-0.45880509 175:1.754399 
1 1:-0.00082372351 2:0.028462258 3:-0.00093263407 4:-0.0062780299 5:-0.0033371779 6:8.3353308e-16 7:0.00023336494 8:-0.028567623 9:-0.031220679 10:5.3550206e-16 11:0.0024605317 12:2.7650178e-15 13:-1.6716286e-15 14:3.5815721e-16 15:2.8029247e-15 16:0.048633581 17:-0.16338439 18:0.60001784 19:-7.3688534 20:5.8561376e-14 21:-7.7337075e-17 22:-2.1163521e-15 23:-2.5974695e-15 24:0.30530266 25:-0.23013838 26:-0.0085462361 27:0.11477214 28:-0.9888041 29:1.1568079 30:-0.32299696 31:-0.020768234 32:0.26238385 33:0.018389209 34:-0.052508004 35:-0.0056860042 36:0.031939245 37:-0.091420695 38:-0.046649895 39:0.10799368 40:0.97035543 41:-0.33121059 42:-0.75787799 43:0.78615096 44:-0.44300053 45:0.34395213 46:-1.0662456e-06 47:-0.19783353 48:0.44107629 49:2.0317624 50:-0.36850803 51:-0.69992274 52:0.18562386 53:0.053779721 54:-0.0020603675 55:0.1521101 56:-0.41488448 57:0.28193944 58:-0.61919013 59:-0.12350258 60:-0.67768573 61:0.4424435 62:0.78016405 63:0.48419168 64:-0.75364247 65:-0.22464926 66:0.11991449 67:-0.06011333 68:-2.0075124 69:1.2781494 70:-0.78223859 71:0.018232996 72:-0.087896976 73:-0.02952668 74:-3.149477e-15 75:0.18973893 76:-0.711727 77:0.024760157 78:0.36651705 79:-0.011864182 80:2.9786116e-16 81:0.00028122971 82:-0.028109114 83:1.0075932e-15 84:0.091599431 85:3.6261948e-15 86:0.13197214 87:-0.031486084 88:0.0019430128 89:0.087564616 90:0.066939718 91:-0.20249309 92:-0.12738922 93:-1.1149946e-15 94:0.090863688 95:-1.9578357e-15 96:2.1099465e-14 97:1.358816e-16 98:0.030853859 99:8.807634e-16 100:1.9200758 101:0.23001912 102:0.21529186 103:0.028341623 104:6.2958856e-15 105:-0.054747433 106:0.081903265 107:0.0045692383 108:-0.0020106394 109:-5.3080519e-05 110:9.1374692e-05 111:0.00050420067 112:0.91522689 113:-0.15019244 114:0.82725588 115:0.66901007 116:0.38293714 117:0.64473796 118:0.25010642 119:0.54847126 120:-0.26447701 121:0.38206629 122:-0.27073656 123:0.25650413 124:-0.0047317665 125:0.0099210958 126:0.17016164 127:-0.54966619 128:0.2828172 129:-0.41782543 130:-0.56409883 131:0.14420043 132:0.42595987 133:-0.64522203 134:-0.033968594 135:-0.43039077 136:-0.18266044 137:0.58310383 138:0.96263353 139:0.30727429 140:-0.36706003 141:-0.90743497 142:-0.84855509 143:0.14741512 144:0.16905848 145:-0.84366999 146:0.30862493 147:-0.1801443 148:0.085998577 149:-0.25657717 150:0.0015486569 151:-0.056719989 152:-0.40685719 153:0.41108431 154:-0.42280316 155:0.40672873 156:-0.071932835 157:0.22685148 158:0.31898506 159:0.54969963 160:-0.49056666 161:-0.51206981 162:-0.18493176 163:-0.3192651 164:0.035072449 165:-0.67953593 166:0.26084963 167:0.15059277 168:-0.29277017 169:1.1230626 170:-0.67642345 171:0.33433729 172:-0.0070522949 173:0.21242223 174:0.52460411 175:0.6180094 
