svm_type c_svc
kernel_type rbf
gamma 0.00105042
nr_class 2
total_sv 246
rho -0.315436
label 0 1
nr_sv 144 102
SV
0.68359375 131:398.86447 197:428.66554 286:398.86447 394:361.31957 648:428.66554 783:428.66554 
0.6845703125 456:579.71129 781:525.14338 820:623.02428 
0.6845703125 161:412.96133 293:468.65975 447:468.65975 480:412.96133 567:468.65975 
0.6845703125 25:310.59843 58:352.49059 83:327.98525 378:327.98525 422:186.84078 449:352.49059 506:352.49059 642:179.50602 698:352.49059 713:352.49059 
0.6845703125 57:464.0176 421:431.75884 428:376.61213 520:376.61213 684:315.09722 937:464.0176 
0.6845703125 202:603.9379 346:474.21373 642:307.55571 732:561.95181 
0.6845703125 14:389.53722 16:389.53722 60:389.53722 470:362.45637 482:343.24221 684:264.52035 744:343.24221 925:328.33855 
0.6845703125 82:417.49948 271:417.49948 360:417.49948 526:473.80998 642:241.28799 664:440.87045 
0.6845703125 54:487.55482 407:523.98236 773:523.98236 948:461.70907 
0.6845703125 110:371.15178 203:371.15178 434:371.15178 475:371.15178 521:371.15178 642:189.00925 911:371.15178 923:371.15178 
0.6845703125 242:519.14124 299:437.58099 400:519.14124 754:519.14124 
0.6845703125 139:404.05679 143:404.05679 156:404.05679 524:375.96654 537:404.05679 642:205.76614 700:404.05679 
0.6845703125 362:366.34276 542:493.6484 560:434.98018 726:493.6484 816:434.98018 
0.6845703125 421:466.07549 433:500.89821 520:406.54566 684:340.14149 694:500.89821 
0.6845703125 26:388.36563 295:460.75268 323:460.75268 527:460.75268 860:460.75268 
0.6845703125 516:434.48791 558:466.95057 564:466.95057 642:237.79483 684:317.0889 927:466.95057 
0.6845703125 453:473.24665 463:508.60516 611:508.60516 635:508.60516 
0.6845703125 149:492.24704 186:458.02575 354:492.24704 511:414.91203 685:365.30279 
0.6845703125 408:500 601:500 745:500 919:500 
0.6845703125 116:399.92725 172:474.46925 264:474.46925 680:441.48389 942:441.48389 
0.6845703125 85:521.80104 105:459.78699 520:423.51109 684:354.33583 744:459.78699 
0.6845703125 73:395.59029 153:487.40029 580:487.40029 685:361.70596 806:487.40029 
0.6845703125 55:374.95329 152:425.52535 206:425.52535 403:374.95329 572:358.67273 642:216.69902 670:425.52535 
0.6845703125 469:540.84434 482:476.56706 791:476.56706 851:503.24454 
0.6845703125 97:396.2119 150:396.2119 404:425.81478 642:216.84641 662:308.31023 729:425.81478 895:425.81478 
0.6845703125 92:468.65975 105:412.96133 464:412.96133 545:468.65975 872:468.65975 
0.6845703125 9:427.94631 29:451.90208 217:451.90208 654:451.90208 735:451.90208 
0.6845703125 572:462.42403 583:483.41398 589:462.42403 642:279.38235 848:510.47474 
0.6845703125 577:435.01094 693:435.01094 791:383.31156 851:404.76874 898:404.76874 907:383.31156 
0.6845703125 49:429.49952 116:362.02254 468:429.49952 589:362.02254 845:429.49952 952:429.49952 
0.6845703125 28:426.08315 130:457.91785 456:426.08315 523:426.08315 684:310.95511 746:385.97617 
0.6845703125 80:389.95136 236:389.95136 280:389.95136 511:328.68763 548:389.95136 657:389.95136 821:362.84173 
0.6845703125 90:396.46895 271:375.45175 276:426.09104 664:396.46895 676:426.09104 822:426.09104 
0.6845703125 64:340.84819 155:370.04358 164:419.95344 253:419.95344 286:390.75804 811:353.9762 904:340.84819 
0.6845703125 71:412.45133 140:412.45133 359:383.77748 422:218.62351 443:383.77748 524:383.77748 696:412.45133 
0.6845703125 106:397.5534 207:397.5534 216:397.5534 234:397.5534 403:350.30571 430:397.5534 555:295.02944 
0.6845703125 32:418.46975 89:418.46975 448:418.46975 498:418.46975 590:418.46975 811:352.7256 
0.6845703125 39:369.8311 64:322.59416 272:397.46295 422:210.67878 605:397.46295 732:369.8311 772:397.46295 904:322.59416 
0.6845703125 299:328.68763 588:389.95136 712:389.95136 730:389.95136 742:362.84173 760:389.95136 809:389.95136 
0.6845703125 155:415.98573 177:472.09206 394:397.92352 538:472.09206 620:472.09206 
0.6845703125 312:415.98573 435:472.09206 494:472.09206 746:397.92352 805:472.09206 
0.6845703125 173:514.58742 403:453.43067 556:514.58742 606:514.58742 
0.6845703125 446:448.30821 453:448.30821 746:406.1092 751:448.30821 947:481.80345 
0.6845703125 119:453.33915 192:453.33915 587:421.82277 785:453.33915 897:453.33915 
0.6845703125 5:333.8195 55:294.14633 289:333.8195 423:294.14633 705:333.8195 721:333.8195 778:281.37442 779:281.37442 862:333.8195 863:333.8195 
0.6845703125 64:461.42876 155:500.9525 566:568.51877 904:461.42876 
0.6845703125 167:577.35027 656:577.35027 917:577.35027 
0.6845703125 296:508.60516 667:473.24665 808:508.60516 879:508.60516 
0.6845703125 52:459.72352 532:459.72352 599:427.76329 716:459.72352 738:427.76329 
0.6845703125 232:500 244:500 767:500 807:500 
0.6845703125 93:453.33915 446:421.82277 472:453.33915 509:453.33915 817:453.33915 
0.6845703125 417:474.83677 438:474.83677 502:418.40424 520:385.39333 617:474.83677 
0.6845703125 136:508.60516 345:508.60516 411:508.60516 496:473.24665 
0.6845703125 46:600.14539 787:600.14539 884:528.82041 
0.6845703125 299:549.52844 884:574.47217 906:606.63022 
0.6845703125 78:548.23018 317:548.23018 362:406.84859 560:483.07512 
0.6845703125 338:707.10678 929:707.10678 
0.6845703125 146:500 379:500 381:500 727:500 
0.6845703125 274:453.43067 336:514.58742 595:514.58742 674:514.58742 
0.6845703125 54:416.50141 642:227.95084 751:416.50141 762:447.62021 796:447.62021 939:447.62021 
0.6845703125 132:519.14124 294:437.58099 486:519.14124 673:519.14124 
0.6845703125 44:441.72058 97:411.01192 128:441.72058 340:441.72058 528:441.72058 642:224.94645 
0.6845703125 65:537.51582 127:537.51582 684:365.00716 740:537.51582 
0.6845703125 229:549.64775 629:590.71455 724:590.71455 
0.6845703125 343:389.32687 514:389.32687 612:362.26065 640:389.32687 702:362.26065 846:389.32687 901:362.26065 
0.6845703125 337:425.13221 362:339.06823 410:425.13221 723:425.13221 816:402.59554 824:425.13221 
0.6845703125 81:470.12436 86:381.56858 138:470.12436 489:470.12436 587:437.44106 
0.6845703125 55:426.75345 533:484.31208 838:426.75345 864:484.31208 925:408.22371 
0.6845703125 425:500 461:500 728:500 828:500 
0.6845703125 376:412.89219 616:412.89219 695:412.89219 756:412.89219 866:384.1877 900:412.89219 
0.6845703125 34:412.89219 459:384.1877 535:412.89219 536:412.89219 637:412.89219 867:412.89219 
0.6845703125 36:391.99063 66:345.40405 134:391.99063 275:391.99063 330:391.99063 516:364.73923 599:364.73923 
0.6845703125 27:340.79397 82:300.29191 271:300.29191 360:300.29191 398:340.79397 422:180.64089 478:340.79397 562:340.79397 710:340.79397 764:340.79397 
0.6845703125 329:523.98236 689:523.98236 742:487.55482 791:461.70907 
0.6845703125 113:459.90418 305:459.90418 422:243.77631 451:350.58848 761:427.93139 837:459.90418 
0.6845703125 252:530.53092 464:467.47935 482:467.47935 946:530.53092 
0.6845703125 105:429.36587 176:487.27686 409:395.49011 464:429.36587 471:487.27686 
0.6845703125 326:442.93399 409:359.49997 422:234.78112 451:337.65198 508:412.14098 511:373.34637 854:442.93399 
0.6845703125 21:385.83027 28:359.00713 73:313.15269 162:385.83027 367:359.00713 418:339.97582 540:385.83027 685:286.32955 
0.6845703125 9:328.49871 169:328.49871 210:372.80518 335:372.80518 342:372.80518 365:372.80518 776:346.88756 818:328.49871 
0.6845703125 513:577.35027 687:577.35027 941:577.35027 
0.6845703125 394:334.42131 412:396.75373 582:396.75373 653:396.75373 715:396.75373 784:349.60107 853:369.1712 
0.6845703125 186:393.42212 327:422.81656 422:224.11769 451:322.31631 598:422.81656 625:422.81656 761:393.42212 
0.6845703125 366:417.69826 495:417.69826 510:417.69826 638:388.65965 688:417.69826 738:388.65965 
0.6845703125 95:438.82636 99:408.31891 108:438.82636 166:438.82636 555:325.65863 818:386.67353 
0.6845703125 218:357.34855 250:394.48082 284:394.48082 499:394.48082 557:394.48082 662:306.9632 747:394.48082 
0.6845703125 61:413.95898 220:413.95898 249:385.18032 266:348.9235 477:413.95898 554:413.95898 642:210.80883 
0.6845703125 75:393.84412 107:393.84412 451:300.23039 483:393.84412 565:393.84412 636:393.84412 776:366.46386 
0.6845703125 266:324.52046 274:339.25081 290:385.00747 377:385.00747 504:385.00747 642:196.06527 804:385.00747 890:385.00747 
0.6845703125 77:500 328:500 659:500 909:500 
0.6845703125 188:425.45332 409:345.31207 432:425.45332 592:425.45332 852:395.87557 940:425.45332 
0.6845703125 294:372.25585 347:441.64022 470:410.93715 575:441.64022 585:441.64022 685:327.74683 
0.6845703125 18:339.00467 224:339.00467 370:339.00467 503:339.00467 511:285.74497 523:315.43688 544:339.00467 603:339.00467 642:172.63831 898:315.43688 
0.6845703125 91:378.47172 266:319.01151 428:307.18024 522:378.47172 553:333.49181 572:319.01151 642:192.73693 803:352.16016 920:378.47172 
0.6845703125 76:707.10678 369:707.10678 
0.6845703125 19:441.39609 73:358.25176 355:441.39609 378:410.70999 422:233.96594 685:327.56566 829:388.93785 
0.6845703125 59:408.55755 363:408.55755 508:380.1544 591:408.55755 642:208.05815 852:380.1544 924:408.55755 
0.6845703125 99:431.32948 116:390.72866 169:408.46428 229:431.32948 428:376.2376 913:408.46428 
0.6845703125 541:707.10678 922:707.10678 
0.6845703125 82:412.96133 135:468.65975 262:468.65975 297:468.65975 360:412.96133 
0.6845703125 294:353.17825 302:419.00676 361:419.00676 429:419.00676 662:303.3809 684:284.53203 857:419.00676 
0.6845703125 98:464.12712 288:464.12712 356:408.96739 733:431.86075 801:464.12712 
0.6845703125 245:408.24829 373:408.24829 455:408.24829 479:408.24829 492:408.24829 950:408.24829 
0.6845703125 48:418.46975 116:352.7256 212:418.46975 334:418.46975 476:418.46975 849:418.46975 
0.6845703125 238:438.24206 392:438.24206 631:470.98521 639:470.98521 905:415.01043 
0.6845703125 256:362.26065 571:389.32687 573:389.32687 638:362.26065 672:389.32687 731:362.26065 893:389.32687 
0.6845703125 133:435.15448 298:435.15448 422:230.65752 543:435.15448 755:435.15448 861:435.15448 
0.6845703125 144:468.76956 442:468.76956 576:468.76956 622:468.76956 685:347.87986 
0.6845703125 301:549.64775 547:590.71455 579:590.71455 
0.6845703125 8:500 79:500 420:500 669:500 
0.6845703125 100:450.68889 422:238.89167 490:450.68889 614:450.68889 759:419.35675 905:397.12624 
0.6845703125 50:388.65965 62:417.69826 319:388.65965 596:417.69826 627:417.69826 771:417.69826 
0.6845703125 103:398.00137 445:451.68205 501:451.68205 613:451.68205 642:230.01933 682:420.28086 
0.6845703125 31:406.1092 154:448.30821 171:448.30821 227:448.30821 388:481.80345 
0.6845703125 324:499.21769 422:264.61479 753:464.5118 876:464.5118 899:499.21769 
0.6845703125 103:528.82041 126:600.14539 842:600.14539 
0.6845703125 42:514.58742 66:453.43067 196:514.58742 285:514.58742 
0.6845703125 86:440.79707 87:543.09881 668:505.34228 892:505.34228 
0.6845703125 189:441.72058 260:441.72058 321:441.72058 439:441.72058 586:411.01192 642:224.94645 
0.6845703125 112:404.91115 353:435.16399 422:230.66256 451:331.72885 553:383.44642 882:435.16399 907:383.44642 
0.6845703125 416:473.8034 462:509.20351 578:473.8034 642:259.31216 916:473.8034 
0.6845703125 129:444.41528 221:444.41528 266:374.59494 641:391.59823 752:413.51929 781:374.59494 
0.6845703125 383:517.67047 539:517.67047 702:481.68173 901:481.68173 
0.6845703125 312:354.02015 356:354.02015 385:401.76884 725:401.76884 759:373.83765 793:401.76884 905:354.02015 
0.6845703125 31:328.91477 154:363.09248 171:363.09248 227:363.09248 389:390.22084 642:198.72018 647:390.22084 699:390.22084 
0.6845703125 8:398.09297 79:398.09297 120:427.83639 158:427.83639 420:398.09297 669:398.09297 
0.6845703125 73:391.36006 291:482.18829 312:424.88206 339:482.18829 612:448.66629 
0.6845703125 387:514.58742 418:453.43067 714:514.58742 915:514.58742 
0.6845703125 392:388.95045 422:221.57035 663:388.95045 748:418.01079 779:352.33875 802:418.01079 881:418.01079 
0.6845703125 86:314.23516 170:387.16396 190:387.16396 254:387.16396 422:205.21971 668:360.24811 707:387.16396 892:360.24811 
0.6845703125 83:375.84389 175:403.92498 423:355.92005 641:355.92005 718:403.92498 746:340.46591 833:403.92498 
0.6845703125 47:509.20351 416:473.8034 578:473.8034 642:259.31216 916:473.8034 
0.6845703125 357:381.6407 450:381.6407 500:381.6407 643:381.6407 651:381.6407 680:355.10882 870:381.6407 
0.6845703125 56:417.69826 180:417.69826 415:417.69826 507:417.69826 586:388.65965 682:388.65965 
0.6845703125 263:446.65355 283:446.65355 422:236.7527 753:415.60195 876:415.60195 902:446.65355 
0.6845703125 17:500 187:500 344:500 775:500 
0.6845703125 3:500 473:500 665:500 839:500 
0.6845703125 163:500 401:500 414:500 889:500 
0.6845703125 1:453.33915 53:453.33915 178:453.33915 301:421.82277 706:453.33915 
0.6845703125 194:426.91006 734:426.91006 744:376.17344 781:359.83989 858:426.91006 928:426.91006 
0.6845703125 300:455.77976 641:401.61208 684:309.50321 752:424.0937 781:384.17399 792:455.77976 
0.6845703125 103:461.70907 256:487.55482 794:523.98236 799:523.98236 
0.6845703125 112:405.13963 218:367.00405 294:367.00405 520:353.39288 553:383.66279 907:383.66279 948:383.66279 
0.6845703125 874:707.10678 931:707.10678 
-1 35:590.71455 444:590.71455 563:549.64775 
-1 219:467.4601 394:394.01928 515:434.96202 546:467.4601 607:467.4601 
-1 86:392.53371 233:483.63432 346:379.75102 618:483.63432 743:483.63432 
-1 248:577.35027 258:577.35027 267:577.35027 
-1 181:488.35977 195:454.40873 208:488.35977 362:362.418 560:430.32008 
-1 308:615.19837 331:542.0844 749:572.42944 
-1 109:459.01326 235:459.01326 331:404.46129 374:459.01326 642:233.75275 891:386.89948 
-1 123:448.47233 292:417.29428 331:395.17311 367:417.29428 422:237.71676 662:324.71538 782:363.99507 
-1 73:392.53371 168:483.63432 346:379.75102 529:483.63432 678:483.63432 
-1 225:472.33249 346:370.87679 619:472.33249 691:472.33249 886:439.49568 
-1 307:358.26488 346:281.31059 402:358.26488 422:189.9015 424:301.97929 488:358.26488 505:358.26488 581:358.26488 662:259.40088 782:290.7797 
-1 102:477.1123 346:374.62991 418:420.40933 551:477.1123 918:477.1123 
-1 405:508.60516 436:508.60516 708:508.60516 821:473.24665 
-0.5029296875 25:363.07985 157:383.4045 314:383.4045 409:334.43388 422:218.41103 703:383.4045 779:347.31483 908:383.4045 
-0.5029296875 313:380.78213 325:380.78213 352:360.5965 465:380.78213 679:380.78213 765:380.78213 910:380.78213 
-1 299:410.38795 515:453.03157 884:429.01593 903:486.87972 906:453.03157 
-0.5029296875 26:373.56463 64:359.71014 502:390.52116 811:373.56463 813:412.38192 891:373.56463 904:359.71014 
-1 131:438.24206 349:470.98521 550:438.24206 623:470.98521 838:415.01043 
-1 72:417.69826 101:417.69826 118:388.65965 259:388.65965 610:417.69826 877:417.69826 
-1 184:481.68173 205:481.68173 457:517.67047 736:517.67047 
-1 2:403.23105 66:355.30858 90:375.1982 147:375.1982 391:355.30858 632:375.1982 841:403.23105 
-0.5029296875 348:577.35027 393:577.35027 484:577.35027 
-1 268:577.35027 826:577.35027 938:577.35027 
-1 37:514.58742 215:514.58742 274:453.43067 318:514.58742 
-1 74:517.67047 497:481.68173 644:517.67047 766:481.68173 
-1 184:362.26065 292:362.26065 390:389.32687 517:389.32687 661:362.26065 737:389.32687 832:389.32687 
-1 199:511.60424 766:511.60424 886:511.60424 925:463.4472 
-1 237:460.75268 597:460.75268 778:388.36563 827:460.75268 834:460.75268 
-1 30:467.4601 397:434.96202 481:467.4601 778:394.01928 935:467.4601 
-1 382:519.14124 626:519.14124 750:519.14124 778:437.58099 
-1 174:430.21068 179:488.23561 246:454.2932 391:430.21068 784:430.21068 
-0.5029296875 161:373.46538 211:394.37139 396:394.37139 480:373.46538 555:314.53465 709:394.37139 711:394.37139 
-1 104:464.12712 239:464.12712 259:431.86075 279:464.12712 352:408.96739 
-1 223:408.24829 231:408.24829 304:408.24829 316:408.24829 341:408.24829 819:408.24829 
-1 67:453.33915 199:421.82277 568:453.33915 697:453.33915 949:453.33915 
-1 185:503.7436 362:373.83454 569:503.7436 662:364.73442 853:468.72307 
-1 303:492.35832 419:458.1293 604:492.35832 642:250.73374 701:492.35832 
-1 23:459.01326 33:459.01326 642:233.75275 818:404.46129 856:459.01326 891:386.89948 
-1 362:393.83198 561:530.69023 896:530.69023 921:530.69023 
-1 94:509.16968 117:473.77192 218:429.17602 422:269.88993 871:509.16968 
-1 174:430.21068 246:454.2932 391:430.21068 460:488.23561 784:430.21068 
-1 117:549.64775 812:590.71455 865:590.71455 
-1 200:448.57005 512:448.57005 584:448.57005 642:228.43454 925:378.09696 932:448.57005 
-1 277:464.12712 395:464.12712 550:431.86075 836:464.12712 838:408.96739 
-0.8125 161:373.46538 211:394.37139 396:394.37139 480:373.46538 555:314.53465 709:394.37139 711:394.37139 
-1 45:447.2136 70:447.2136 96:447.2136 122:447.2136 815:447.2136 
-1 281:508.60516 333:508.60516 351:508.60516 749:473.24665 
-0.8125 26:373.56463 64:359.71014 502:390.52116 811:373.56463 813:412.38192 891:373.56463 904:359.71014 
-0.8125 25:363.07985 157:383.4045 314:383.4045 409:334.43388 422:218.41103 703:383.4045 779:347.31483 908:383.4045 
-0.8125 348:577.35027 393:577.35027 484:577.35027 
-1 24:386.03219 137:386.03219 209:386.03219 758:386.03219 810:325.38419 831:386.03219 894:386.03219 
-1 531:707.10678 847:707.10678 
-1 182:577.35027 440:577.35027 912:577.35027 
-0.8125 313:380.78213 325:380.78213 352:360.5965 465:380.78213 679:380.78213 765:380.78213 910:380.78213 
-1 10:459.72352 282:459.72352 441:459.72352 661:427.76329 731:427.76329 
-1 147:465.76867 195:465.76867 214:500.56846 642:254.91476 666:500.56846 
-1 431:426.91006 583:376.17344 589:359.83989 615:426.91006 878:426.91006 944:426.91006 
-1 15:408.55755 39:380.1544 191:408.55755 204:408.55755 261:408.55755 419:380.1544 642:208.05815 
-1 422:237.47858 428:363.63036 451:341.53135 684:304.23587 686:448.02298 934:448.02298 951:448.02298 
-1 125:381.6407 141:381.6407 371:381.6407 372:381.6407 649:381.6407 866:355.10882 930:381.6407 
-1 251:363.06074 309:363.06074 423:319.91236 467:363.06074 555:269.43199 642:184.88888 681:363.06074 768:363.06074 843:363.06074 
-1 7:390.71052 213:390.71052 257:390.71052 320:390.71052 413:390.71052 555:289.95125 570:390.71052 
-1 50:458.30773 86:399.77004 150:458.30773 397:458.30773 496:458.30773 
-1 51:447.2136 368:447.2136 466:447.2136 675:447.2136 840:447.2136 
-1 159:356.55684 427:356.55684 645:356.55684 655:356.55684 671:356.55684 757:331.76881 825:356.55684 844:356.55684 
-1 165:385.42632 270:385.42632 454:385.42632 608:385.42632 667:358.63127 757:358.63127 885:385.42632 
-1 4:377.6262 364:377.6262 422:200.16414 443:351.37342 559:377.6262 563:351.37342 795:377.6262 859:377.6262 
-1 148:377.64474 602:377.64474 650:377.64474 684:256.44461 685:280.25497 741:377.64474 855:377.64474 936:377.64474 
-1 249:370.29708 422:210.94423 451:303.37081 534:397.96374 594:397.96374 642:202.66325 684:270.24249 788:397.96374 803:370.29708 
-1 311:424.4484 362:314.98856 777:424.4484 823:424.4484 835:424.4484 943:424.4484 
-1 43:447.2136 530:447.2136 549:447.2136 830:447.2136 875:447.2136 
-1 124:447.2136 226:447.2136 350:447.2136 646:447.2136 798:447.2136 
-1 40:323.75689 63:323.75689 84:323.75689 255:323.75689 399:323.75689 422:171.61023 458:323.75689 630:323.75689 642:164.87337 739:323.75689 780:323.75689 
-1 121:459.72352 222:459.72352 663:427.76329 883:459.72352 888:427.76329 
-1 69:523.98236 111:461.70907 797:523.98236 945:487.55482 
-1 68:435.15448 240:435.15448 375:435.15448 422:230.65752 660:435.15448 704:435.15448 
-1 151:374.63096 238:348.58641 406:374.63096 552:374.63096 642:190.78102 800:374.63096 850:374.63096 873:374.63096 
-1 459:375.96654 593:404.05679 609:404.05679 621:404.05679 624:404.05679 642:205.76614 933:404.05679 
-1 241:526.45246 422:279.05083 555:390.68708 692:526.45246 829:463.88561 
-1 322:433.96207 491:466.38544 677:466.38544 763:433.96207 869:433.96207 
-1 230:388.01029 380:341.89675 384:388.01029 493:361.0356 652:388.01029 658:388.01029 770:388.01029 
-1 169:476.56706 497:503.24454 717:540.84434 913:476.56706 
-1 424:478.6696 487:528.4084 600:528.4084 782:460.91705 
-1 228:414.59862 265:414.59862 422:219.7617 428:336.50204 555:307.67892 685:307.67892 720:414.59862 829:365.32517 
-1 322:422.21689 437:453.76273 474:453.76273 642:231.07892 763:422.21689 869:422.21689 
-1 11:457.56015 174:403.18088 269:457.56015 315:457.56015 426:457.56015 
-1 198:426.91006 358:426.91006 452:426.91006 769:426.91006 810:359.83989 887:376.17344 
-1 41:423.27157 380:372.96737 422:224.35888 518:423.27157 662:306.46883 790:423.27157 868:423.27157 
-1 6:417.29266 31:351.73345 111:367.69903 662:302.13981 690:417.29266 888:388.28225 945:388.28225 
-1 201:464.12712 356:408.96739 359:431.86075 574:464.12712 926:464.12712 
-1 26:386.02102 243:457.97106 422:242.75165 525:457.97106 789:457.97106 913:403.54296 
-1 88:447.2136 278:447.2136 386:447.2136 628:447.2136 774:447.2136 
-1 183:493.81646 424:416.23489 487:459.48607 600:459.48607 782:400.79787 
-1 31:404.0116 193:479.31489 310:479.31489 319:445.99265 887:422.35015 
-1 12:453.33915 20:453.33915 22:453.33915 114:453.33915 632:421.82277 
-1 247:457.56015 306:457.56015 634:457.56015 814:457.56015 948:403.18088 
-1 287:523.98236 380:461.70907 493:487.55482 786:523.98236 
-1 13:423.47562 118:394.03536 485:423.47562 633:423.47562 810:356.94502 880:423.47562 
-1 111:362.05457 145:410.8869 160:410.8869 273:410.8869 332:410.8869 422:217.79427 733:382.32182 
-1 115:453.33915 683:453.33915 719:453.33915 722:453.33915 942:421.82277 
-1 38:472.09206 142:472.09206 519:472.09206 810:397.92352 887:415.98573 
-1 205:517.3315 424:468.63536 782:451.25496 914:555.9838 
