svm_type epsilon_svr
kernel_type sigmoid
gamma 0.1
coef0 0
nr_class 2
total_sv 244
rho -5.9
probA 14.3008
SV
1 1:38.222274 2:-5166.3915 3:-4469.5388 4:1074.7269 5:-3154.9125 6:383.26407 7:-10554.858 8:932.12558 9:-15034.066 10:148139.66 
1 1:-2.0667293e-11 2:-3.4648442e-12 3:1.3343679e-11 4:4.1126192e-12 5:-5.7606444e-12 6:-2.31947e-11 7:5.1983643e-12 8:-1.9244415e-10 10:4.0263421e-11 
1 1:39.453955 2:-5743.0346 3:-5018.8356 4:1251.7055 5:-3733.7699 6:472.09796 7:-13230.442 8:1182.0994 9:-19131.856 10:190239.55 
1 1:25.89752 2:98.51209 3:666.92473 4:15414.833 5:2000.453 6:-842.87101 7:-8665.5854 8:26455.336 9:8752.7732 10:-221.38403 
1 1:9.5761577e-10 2:2.425391e-10 3:1.8180763e-10 4:-8.8234376e-11 5:1.4401611e-11 6:-4.4553848e-11 7:-5.1983643e-12 8:1.2147637e-10 9:3.9458695e-11 10:7.2977451e-11 
-1 1:12100.816 2:4725.1161 3:-41530.782 4:-11678.941 5:153936.49 6:-4093.2863 7:63834.879 8:46898.887 9:-76379.072 10:-1829.9242 
1 1:1.1970197e-11 3:-5.3374716e-11 5:9.2170311e-11 6:5.0727977e-11 7:-2.0793457e-11 8:-1.4033718e-10 9:-1.0182889e-11 10:5.0329276e-12 
1 1:-7.4813732e-13 2:5.5437508e-11 3:-5.3374716e-11 4:-4.1873941e-11 5:-9.2170311e-11 6:9.3446273e-12 7:-2.0143662e-11 8:-4.6952216e-12 9:1.1137535e-10 
-1 1:5521.2054 2:3038.9708 3:-17853.338 4:1133.9499 5:-9343.4201 6:33.267119 7:1685.3846 8:-1030.4377 9:3569.224 10:-2153.3737 
1 1:166166.67 2:24834.132 3:-131573.04 4:6099.4904 5:-44742.348 6:124.15158 7:5724.2734 8:-3300.2965 9:11240.69 10:-6495.7136 
-1 1:179735.8 2:10287.739 3:41851.238 4:-35031.534 5:-2294.7671 6:18760.761 7:-130292.38 8:15096.641 9:-66328.543 10:-12216.472 
1 1:13056.533 2:5733.532 3:-45199.213 4:-18092.569 5:198027.02 6:1950.5783 7:-66871.31 8:-35791.813 9:47644.613 10:2546.6091 
1 1:7219.5335 2:4243.0308 3:-46551.374 4:-9375.9312 5:146558.77 6:-2078.7201 7:10358.597 8:11764.195 9:-24237.332 10:-4541.6522 
-1 1:11464.146 2:2569.43 3:13317.658 4:116862.03 5:9295.3776 6:-27078.464 7:3046.6934 8:-46208.371 9:-22731.579 10:-1010.658 
-1 1:12087.94 2:-8066.9825 3:-40887.41 4:-9185.2984 5:124174.54 6:-2009.9807 7:14725.393 8:8767.1942 9:-14891.308 10:-781.22692 
1 1:172814.88 2:28038.88 3:-168899.05 4:-2100.1777 5:79121.514 6:-1526.2925 7:13134.582 8:6040.0218 9:-8468.4304 10:-9093.8299 
1 1:6776.0482 2:3439.2761 3:-36999.17 4:-6948.7115 5:105408.73 6:-1390.2729 7:6719.1988 8:7480.0905 9:-15320.928 10:-2827.3965 
-1 1:-4.2526683e-26 2:3.9651995e-17 3:4.0721677e-16 4:-2.8040585e-13 5:9.0010069e-13 6:-1.0679574e-10 7:-9.0971376e-12 8:6.2656233e-11 9:2.0365778e-11 10:-7.5493915e-12 
-1 1:180299.58 2:10596.99 3:45527.226 4:-37321.734 5:-25574.298 6:23198.455 7:-143593.14 8:49694.737 9:-141795.21 10:-23413.817 
1 1:8.3059928e-29 2:2.4782497e-18 4:2.3367155e-14 5:-2.7003021e-13 6:-1.2815489e-10 7:-1.0396729e-11 8:2.2057552e-11 9:4.0731556e-11 10:5.6620436e-12 
1 1:1.271287 2:-639.36103 3:-614.71714 4:204.52373 5:-677.8969 6:107.27616 7:-3270.7503 8:307.947 9:-5059.3858 10:52276.872 
-1 1:-3.2445284e-31 2:1.032604e-19 4:-8.762683e-15 5:3.3753776e-14 6:-8.5436593e-11 7:1.5595093e-11 8:1.7773911e-10 9:7.1280223e-11 10:5.0329276e-12 
1 1:5211.1522 2:688.04838 3:2999.9156 4:-1919.9021 5:-2036.2457 6:-490.55791 7:11377.997 8:-1833.9934 9:9988.7719 10:2597.3327 
1 1:-6.3369696e-34 3:2.4854539e-20 4:-1.8255589e-16 5:1.4064073e-15 6:-1.3349468e-12 7:3.8987732e-12 8:5.1147946e-12 10:-9.4367393e-13 
1 1:13567.377 2:-279453.92 3:-32934.398 4:6007.3431 5:-5561.7765 6:648.7407 7:-9446.8154 8:274.79253 9:-2587.3226 10:-35766.471 
-1 1:-2.8287391e-33 2:-5.8487338e-21 3:1.1068037e-19 4:7.9297717e-16 5:3.7797197e-15 6:7.8428122e-12 7:3.7363244e-12 8:2.0459178e-11 9:-1.7820056e-11 10:-8.2571469e-13 
1 1:1.2303633 2:-568.8825 3:-540.30107 4:171.73977 5:-557.59551 6:83.682395 7:-2491.6675 8:230.88591 9:-3775.3416 10:38523.306 
1 1:1.208681e-39 2:-7.8781437e-25 3:-4.8544021e-23 4:-4.2786538e-18 5:-4.3950229e-17 6:2.5030252e-13 7:4.8734666e-13 8:8.1836713e-11 9:1.0182889e-11 
1 1:1.208681e-39 3:6.0680027e-24 4:3.5655448e-19 5:1.9228225e-17 7:-9.7469331e-13 9:5.0914445e-12 10:4.7183697e-13 
-1 1:4880.3756 2:541.3074 3:2297.9473 4:-1324.9479 5:-1336.3597 6:-279.61341 7:6045.7954 8:-926.62028 9:4968.8019 10:1238.3116 
1 3:5.6887525e-25 4:-1.1142328e-20 5:-1.7168058e-19 6:2.6073179e-14 7:-1.0153055e-13 8:2.3016575e-11 9:-9.5464585e-13 10:-2.948981e-14 
1 1:-8.5932134e-37 2:-2.1778749e-23 3:5.0004135e-22 4:6.835818e-18 5:4.1975902e-17 6:1.8772689e-13 7:1.6752541e-13 8:1.4065685e-11 9:1.5910764e-12 10:4.4234716e-14 
1 3:-5.9257839e-27 5:-1.0730036e-20 6:6.5182947e-16 7:2.5382638e-15 8:1.2786986e-12 9:1.5910764e-13 10:4.9149684e-15 
-1 4:-3.4819774e-22 5:-2.6825091e-21 6:-6.5182947e-16 7:-6.3456596e-16 8:-6.3934932e-13 9:1.9888455e-14 10:-1.2287421e-15 
1 3:1.8518075e-28 4:1.7409887e-22 5:2.0118818e-21 7:6.3456596e-16 8:1.5983733e-13 9:2.9832683e-14 10:6.1437105e-16 
1 3:2.3147593e-29 5:-1.6765682e-22 6:-4.0739342e-17 7:4.7592447e-16 8:3.9959332e-14 9:-4.9721138e-15 10:-4.6077829e-16 
-1 1:5624.724 2:-67912.916 3:-6921.3432 4:1125.1812 5:-3416.6331 6:131.59144 7:-1011.6179 8:-513.63313 9:2011.7207 10:-22815.632 
-1 3:-7.2336229e-31 4:-6.800737e-25 6:-2.5462089e-18 7:3.9660372e-17 8:4.9949166e-15 10:3.8398191e-17 
1 3:-1.8084057e-31 4:8.5009213e-26 5:2.6196378e-24 6:1.2731044e-18 8:-1.2487291e-15 9:-1.5537856e-16 10:9.5995477e-18 
-1 1:5042.8781 2:609.317 3:2619.9411 4:-1586.1772 5:-1636.7165 6:-364.03701 7:8101.0459 8:-1266.6714 9:6833.5151 10:1730.8879 
1 4:-2.6565379e-27 5:-8.1863681e-26 6:-7.9569028e-20 7:-3.0984666e-19 9:1.942232e-17 10:-5.9997173e-19 
-1 3:-1.7660212e-34 4:3.3206724e-28 5:-1.023296e-26 8:5.8534178e-17 9:9.7111598e-18 10:1.4999293e-19 
1 1:397.48617 2:406.14323 3:2445.6767 4:36785.843 5:3764.5154 6:-23831.976 7:4420.8986 8:-108758.55 9:-64757.033 10:-6086.9296 
-1 1:3.3798557e-14 2:-8.7058492e-13 3:5.1944211e-13 4:1.8056725e-11 5:1.6160666e-11 6:9.7906448e-12 7:-3.0381773e-11 8:1.168765e-12 9:-3.669147e-11 10:-3.3249397e-12 
-1 1:6069.1683 2:1953.1138 3:-4209.7581 4:-10186.455 5:76786.553 6:3590.0048 7:-74873.763 8:-44756.883 9:66040.691 10:5957.5206 
1 1:592.36902 2:598.09237 3:3612.1823 4:57482.83 5:6427.3638 6:18177.436 7:-10318.094 8:24667.127 9:6546.3988 10:-456.0376 
1 1:26.677398 2:106.92105 3:727.55917 4:17053.692 5:2221.6044 6:-938.63268 7:-9629.961 8:29323.122 9:9692.2146 10:-244.41578 
1 1:612.18447 2:679.49721 3:4173.9163 4:72222.368 5:8593.0659 6:87964.081 7:-5063.3742 8:19855.86 9:5586.9459 10:-430.54194 
-1 1:-8.2742675e-23 2:-2.5422584e-15 3:1.7866641e-14 4:4.7191557e-12 5:5.3024027e-12 6:4.3405861e-11 7:-2.3644361e-11 8:-1.5848681e-11 9:2.8923788e-11 10:7.3817092e-13 
-1 1:2.3111354e-33 2:5.9527975e-21 3:-1.1580295e-19 4:-9.5917145e-16 5:-4.90482e-15 6:-1.2242941e-11 7:-5.2947489e-12 8:4.2585159e-11 9:2.1269581e-11 10:1.9812484e-12 
-1 1:19247.103 2:19937.497 3:-144373.15 4:12589.801 5:-36094.81 6:1064.0355 7:-13277.794 8:-294.70096 9:-3892.8677 10:-8950.9176 
1 3:1.8215774e-38 4:1.7734613e-33 5:2.6989489e-32 6:5.9283545e-28 7:-4.617075e-27 8:9.3037571e-24 9:5.7883023e-25 10:-7.1522204e-26 
-1 1:225.14716 2:420.86672 3:-5020.4714 4:-1291.8277 5:22012.212 6:-372.53151 7:1978.3182 8:2335.4773 9:-4864.8105 10:-937.30136 
-1 1:3.4852602e-14 2:-9.3508135e-13 3:4.5161047e-13 4:4.2269008e-12 5:4.8974762e-12 6:9.4079581e-12 7:-1.728009e-11 8:9.6539796e-13 9:-3.449965e-11 10:-1.3031841e-12 
1 3:-1.1578937e-40 4:-8.659328e-36 5:7.6241494e-35 6:1.1558555e-27 7:1.9243824e-26 8:1.5027748e-23 9:1.9309415e-24 10:2.0674387e-25 
-1 1:182.81631 2:177.06105 3:-700.72768 4:-1051.1449 5:12381.967 6:-937.26518 7:22338.935 8:16643.283 9:-26357.924 10:455.96611 
1 3:1.8121037e-38 4:1.7485657e-33 5:2.653204e-32 6:9.0430564e-28 7:4.14139e-27 8:1.900473e-24 9:2.2032927e-25 10:2.4841132e-26 
1 1:592.36902 2:598.09237 3:3612.1823 4:57482.83 5:6427.3638 6:18177.436 7:-10318.094 8:24667.127 9:6546.3988 10:-456.0376 
-1 1:5048.8431 2:621.50355 3:2686.928 4:-1676.0692 5:-1764.5593 6:-425.94818 7:10051.541 8:-1655.0496 9:9089.8055 10:2429.9608 
1 1:409.84092 2:444.54944 3:2694.1877 4:41283.591 5:4247.9695 6:-27018.608 7:4997.8041 8:-122473.97 9:-72814.775 10:-6812.096 
-1 1:5.5976669 2:9.8163562 3:52.802359 4:-65.355787 5:-89.582526 6:-39.380251 7:1186.4289 8:-229.09164 9:1318.6319 10:398.57521 
1 
1 
1 
-1 1:7742.1917 2:-199676.91 3:-25014.064 4:4638.1742 5:-1762.1547 6:518.49542 7:-9764.8735 8:1136.7544 9:-8630.1213 10:35875.076 
1 1:146732.61 2:4374.6567 3:16711.388 4:-6966.4174 5:-6224.8522 6:-1001.0117 7:19564.569 8:-2814.303 9:14817.831 10:3523.5606 
1 1:1160.0189 2:-93865.088 3:-12497.108 4:3167.2193 5:-2766.3211 6:507.25829 7:-8855.9813 8:555.23386 9:-4629.0952 10:-12531.514 
-1 1:163554.23 2:-119441.34 3:946.1996 4:-9284.1691 5:19535.298 6:-2067.6871 7:35201.729 8:-996.73046 9:17461.374 10:12742.02 
-1 1:-6.1447174e-12 2:-5.4578997e-12 3:-1.1344182e-11 4:-2.5131938e-12 5:2.8029274e-11 6:-1.9646374e-11 7:2.1958186e-11 8:7.841246e-11 9:-2.2616794e-11 10:-5.5520515e-12 
-1 
-1 
1 1:487.08926 2:-37091.77 3:-8721.3247 4:1998.477 5:-3293.5191 6:490.8329 7:-12659.941 8:1263.9245 9:-17122.198 10:156698.35 
-1 1:19267.675 2:19588.777 3:-146820.54 4:13044.973 5:-37636.672 6:1191.0485 7:-16396.356 8:-79.05618 9:-7874.8383 10:29064.765 
1 
-1 
-1 3:4.620774e-40 4:7.1645293e-35 5:4.5763891e-33 6:1.4351423e-26 7:1.9648696e-25 8:1.3606001e-22 9:1.6887608e-23 10:1.6541402e-24 
-1 3:3.6666143e-32 4:6.208606e-26 5:2.5434198e-24 6:9.8217941e-19 7:5.822852e-18 8:2.39146e-15 9:2.5547401e-16 10:1.7037454e-17 
-1 3:-1.6187036e-41 4:-8.419675e-37 5:-7.1804201e-36 6:-5.0457775e-31 7:-4.9813126e-31 8:-2.5900891e-28 9:-3.1055705e-29 10:-5.1821593e-31 
-1 
-1 
1 1:146723.1 2:4363.8994 3:16657.303 4:-6915.1392 5:-6163.1691 6:-982.45504 7:19106.837 8:-2738.2667 9:14400.671 10:3413.3829 
1 1:22.596878 2:133.12331 3:974.07413 4:32724.603 5:5501.0476 6:288937.72 7:31573.849 8:-43135.874 9:-10174.53 10:548.81829 
-1 1:6652.337 2:-122752.45 3:-14950.12 4:2238.033 5:281.70701 6:165.41934 7:-3749.1403 8:765.45901 9:-5548.6559 10:44118.981 
-1 
-1 1:4575.6821 2:432.85569 3:1796.4564 4:-952.77668 5:-925.66949 6:-176.0677 7:3649.0854 8:-543.61215 9:2890.4394 10:704.45035 
-1 
-1 3:-2.0855679e-27 4:-2.7818371e-22 5:-4.3304066e-21 6:-1.8973214e-16 7:-4.6592165e-16 8:-1.0756925e-13 9:-9.6928961e-15 10:-4.1293937e-16 
-1 
1 3:1.0859038e-40 4:8.4363503e-36 5:1.2735479e-34 6:4.5105378e-30 7:2.6567358e-29 8:2.8968126e-26 9:3.9375351e-27 10:5.6470521e-28 
-1 
-1 
-1 3:3.2604013e-32 4:5.3133775e-26 5:2.1398253e-24 6:7.9114436e-19 7:4.6001332e-18 8:1.8647302e-15 9:1.9842824e-16 10:1.3097179e-17 
1 
1 3:-2.0242999e-37 4:-9.9631996e-31 5:-6.0052325e-29 6:-5.2326445e-23 7:-4.1994658e-22 8:-2.0805295e-19 9:-2.3450897e-20 10:-1.793613e-21 
-1 1:182.81631 2:177.06105 3:-700.72768 4:-1051.1449 5:12381.967 6:-937.26518 7:22338.935 8:16643.283 9:-26357.924 10:455.96611 
-1 
1 1:0.039646142 2:-63.418295 3:-66.295998 4:28.17954 5:-101.81588 6:19.225171 7:-624.65843 8:61.134927 9:-1015.4976 10:10788.845 
1 
1 
1 
1 1:13567.377 2:-279453.92 3:-32934.398 4:6007.3431 5:-5561.7765 6:648.7407 7:-9446.8154 8:274.79253 9:-2587.3226 10:-35766.471 
-1 1:180299.58 2:10596.99 3:45527.226 4:-37321.734 5:-25574.298 6:23198.455 7:-143593.14 8:49694.737 9:-141795.21 10:-23413.817 
-1 3:1.3905951e-30 4:2.4381358e-25 5:1.8385781e-24 6:-1.1383455e-18 7:-6.7589654e-18 8:-2.6157404e-15 9:-2.7309367e-16 10:-1.700725e-17 
-1 
1 1:-4.1089008e-32 2:-2.2835666e-20 3:3.8504217e-19 4:1.9744508e-15 5:8.2635064e-15 6:1.2537733e-11 7:4.3538223e-12 8:-2.4668196e-11 9:-1.3780479e-11 10:-1.1531323e-12 
1 1:25.870602 2:97.272576 3:656.73196 4:14988.55 5:1931.5045 6:-795.983 7:-8085.7235 8:24466.025 9:8072.0319 10:-202.60282 
-1 3:5.0416899e-33 4:1.1808174e-26 5:5.4602452e-25 6:2.7435297e-19 7:1.7993635e-18 8:7.8739756e-16 9:8.5667043e-17 10:5.9876011e-18 
-1 
-1 1:-1.1616782e-27 2:-2.8145931e-18 3:2.9702921e-17 4:3.2655542e-14 5:7.176195e-14 6:1.8530535e-11 7:1.9565572e-12 8:-2.9026188e-11 9:-2.4702461e-12 10:9.8306934e-14 
-1 
-1 
-1 
-1 1:359.10129 2:271.97931 3:1558.7384 4:19150.874 5:1768.5074 6:-8221.4587 7:1289.9964 8:-27940.632 9:-15971.845 10:-1338.2625 
-1 
-1 3:3.3183319e-40 4:2.6911203e-35 5:4.1431044e-34 6:1.0585403e-29 7:1.4391076e-29 8:-7.5663428e-27 9:-1.3845808e-27 10:-1.9516693e-28 
1 1:9.156087e-31 2:1.3539937e-19 3:-2.0472387e-18 4:-7.4395058e-15 5:-2.7211506e-14 6:-3.017723e-11 7:-9.3352671e-12 8:1.5033393e-12 9:2.1633694e-11 10:1.8374185e-12 
1 3:6.2589359e-28 4:2.2251816e-22 5:5.0632732e-21 6:5.3014893e-16 7:1.8671875e-15 8:5.4725483e-13 9:5.2941798e-14 10:2.7222389e-15 
-1 1:5490.8253 2:1413.3827 3:-5020.3378 4:-5381.9662 5:55816.331 6:-3187.4257 7:68023.818 8:47244.381 9:-73313.465 10:1203.3295 
1 1:20.433418 2:89.479396 3:622.31584 4:16770.37 5:2490.977 6:82293.247 7:6258.283 8:-5766.4194 9:-1152.03 10:30.757436 
-1 
-1 
-1 1:1.6164273e-32 2:3.2586517e-21 3:-5.2610229e-20 4:-2.5563208e-16 5:-1.0914904e-15 6:-1.9311829e-12 7:-7.8175904e-13 8:-6.5508969e-12 9:1.5811023e-12 10:1.8884175e-13 
-1 
1 
1 3:2.1457689e-33 4:3.3284507e-27 5:1.3015592e-25 6:4.3367067e-20 7:2.3643032e-19 8:9.1002792e-17 9:9.5205795e-18 10:5.9850092e-19 
-1 3:1.6984121e-41 4:-1.9260925e-37 5:2.6059803e-37 6:-3.8231269e-31 7:-6.577337e-30 8:-1.0308278e-27 9:-1.5326244e-28 10:-2.3685782e-29 
1 
-1 1:156677.68 2:5560.5659 3:21816.321 4:-10094.615 5:-9484.9679 6:-1756.1897 7:36819.905 8:-5570.1493 9:29788.254 10:7390.5951 
-1 
-1 1:19866.662 2:22132.858 3:-161825.73 4:14601.632 5:-42474.164 6:1296.3585 7:-16412.261 8:-367.69788 9:-4870.4412 10:-11278.579 
-1 1:156503.99 2:5473.1653 3:21390.413 4:-9707.5619 5:-9014.8265 6:-1602.0441 7:32769.369 8:-4862.3026 9:25840.652 10:6298.8337 
-1 1:2.3111354e-33 2:5.9527975e-21 3:-1.1580295e-19 4:-9.5917145e-16 5:-4.90482e-15 6:-1.2242941e-11 7:-5.2947489e-12 8:4.2585159e-11 9:2.1269581e-11 10:1.9812484e-12 
1 1:157687.03 2:6635.5323 3:28344.935 4:93976.769 5:1875.1307 6:-23176.581 7:20874.749 8:-39665.239 9:-4348.4811 10:2465.9198 
1 
-1 1:0.80421567 2:21.50007 3:180.61165 4:9575.0958 5:1940.538 6:160670.39 7:21447.727 8:-33572.222 9:-8249.8888 10:496.44222 
-1 1:1.0489268e-12 2:-7.6511644e-12 3:3.3359229e-12 4:7.9264041e-12 5:7.1390058e-12 6:8.8039106e-12 7:-4.3272509e-11 8:1.2817037e-11 9:-3.8612545e-11 10:5.3495887e-12 
1 1:151455.72 2:4855.628 3:18727.428 4:-8074.0924 5:-7317.4096 6:-1216.5177 7:24098.913 8:-3496.3984 9:18454.891 10:4416.4969 
-1 1:6069.1683 2:1953.1138 3:-4209.7581 4:-10186.455 5:76786.553 6:3590.0048 7:-74873.763 8:-44756.883 9:66040.691 10:5957.5206 
-1 
1 
-1 
-1 1:5679.3429 2:1608.0065 3:-5796.6376 4:-6577.9392 5:70057.992 6:-4292.66 7:94629.115 8:67191.758 9:-104961.84 10:1753.3975 
1 
1 1:659.63359 2:-3515.6707 3:-22692.955 4:3303.5903 5:-10265.82 6:708.73027 7:-16328.982 8:1086.2394 9:-19838.87 10:184203.3 
-1 
1 
1 1:151298.79 2:4796.7551 3:18453.76 4:-7867.9159 5:-7088.8386 6:-1158.5227 7:22755.923 8:-3281.8788 9:17291.111 10:4117.8333 
-1 1:161704.14 2:6142.9205 3:24292.909 4:-11512.285 5:-10897.368 6:-2031.3209 7:42417.579 8:-6380.4389 9:34045.76 10:8386.9403 
-1 
1 1:-2.1244494e-15 2:-8.104641e-12 3:2.2737536e-11 4:5.1793153e-11 5:-8.1751979e-11 6:1.1201128e-11 7:6.0137328e-12 8:-1.2616206e-12 9:-2.8591238e-11 10:-8.8602031e-12 
-1 1:19866.662 2:22132.858 3:-161825.73 4:14601.632 5:-42474.164 6:1296.3585 7:-16412.261 8:-367.69788 9:-4870.4412 10:-11278.579 
-1 1:5517.9847 2:1308.8149 3:7051.5889 4:81722.903 5:8310.0135 6:-3076.6835 7:-21440.369 8:71372.024 9:26679.538 10:302.16942 
-1 
1 1:802.88525 2:873.74697 3:5361.8641 4:91731.413 5:10638.481 6:-3502.9401 7:-32707.388 8:93916.397 9:30524.051 10:-737.28721 
1 
-1 
1 1:152049.07 2:5464.143 3:22413.81 4:51133.085 5:-711.50109 6:-2859.0504 7:8571.7394 8:34145.713 9:29134.263 10:3852.3352 
-1 
1 3:-1.0306541e-37 4:-7.0666574e-31 5:-4.810304e-29 6:-5.4513909e-23 7:-4.8361469e-22 8:-2.5510724e-19 9:-2.9278156e-20 10:-2.3453505e-21 
-1 1:173.89624 2:89.148708 3:436.79756 4:-408.9887 5:-506.86389 6:-180.36094 7:5025.7864 8:-924.88183 9:5251.0215 10:1532.7033 
-1 1:17790.258 2:4752.1682 3:25707.181 4:287498.31 5:27773.386 6:-4711.7071 7:-38644.711 8:79729.518 9:20481.952 10:-1323.1304 
-1 
1 1:6.8623825e-13 2:9.151172e-12 3:-7.8760536e-12 4:1.6766303e-11 5:-2.9813662e-11 6:8.9236199e-12 7:-4.6829782e-12 8:5.1531847e-13 9:1.0244509e-11 10:1.81488e-12 
1 1:163348.96 2:8097.7355 3:18794.3 4:-25280.139 5:82863.305 6:7311.5784 7:-100551.06 8:-55385.552 9:83259.516 10:8447.731 
-1 1:4875.3134 2:534.66366 3:2263.8688 4:-1290.228 5:-1293.2703 6:-265.61612 7:5688.9897 8:-866.05187 9:4634.3761 10:1148.4977 
-1 3:-2.1257994e-41 4:-2.0461623e-36 5:-1.7237568e-35 6:1.1719205e-29 7:2.3514256e-28 8:2.083303e-25 9:2.7674948e-26 10:3.2551293e-27 
-1 1:2.1365424e-24 2:2.7919612e-16 3:-2.2469092e-15 4:-9.5677388e-13 5:-1.3459825e-12 6:-4.2196794e-11 7:1.1661816e-11 8:-1.1824331e-11 9:-3.3427367e-11 10:-2.3707953e-12 
1 1:151298.79 2:4796.7551 3:18453.76 4:-7867.9159 5:-7088.8386 6:-1158.5227 7:22755.923 8:-3281.8788 9:17291.111 10:4117.8333 
-1 1:11514.886 2:2742.0001 3:14453.108 4:138994.75 5:11774.84 6:-45875.612 7:6754.5011 8:-140741.71 9:-79574.508 10:-6484.4915 
-1 
1 1:600.82127 2:1997.253 3:-15753.585 4:1768.2058 5:-5546.33 6:197.01543 7:-2631.8309 8:-60.905673 9:-814.15908 10:-1929.461 
1 3:-5.4039576e-40 4:-3.8944157e-35 5:1.7718305e-35 6:2.9225002e-27 7:4.3484336e-26 8:3.1618144e-23 9:3.979332e-24 10:4.0377489e-25 
-1 1:5211.1522 2:688.04838 3:2999.9156 4:-1919.9021 5:-2036.2457 6:-490.55791 7:11377.997 8:-1833.9934 9:9988.7719 10:2597.3327 
-1 1:19866.662 2:22132.858 3:-161825.73 4:14601.632 5:-42474.164 6:1296.3585 7:-16412.261 8:-367.69788 9:-4870.4412 10:-11278.579 
-1 1:4723.1199 2:481.04468 3:2016.49 4:-1108.4566 5:-1093.7325 6:-216.07606 7:4551.1903 8:-685.22777 9:3654.811 10:898.02977 
1 1:151298.79 2:4796.7551 3:18453.76 4:-7867.9159 5:-7088.8386 6:-1158.5227 7:22755.923 8:-3281.8788 9:17291.111 10:4117.8333 
1 
1 1:409.84092 2:444.54944 3:2694.1877 4:41283.591 5:4247.9695 6:-27018.608 7:4997.8041 8:-122473.97 9:-72814.775 10:-6812.096 
1 
-1 
1 
1 1:146580.41 2:4320.9644 3:16463.559 4:-6783.8644 5:-6024.1393 6:-950.9016 7:18409.923 8:-2630.3465 9:13820.515 10:3267.9992 
1 1:5.2032586e-34 2:3.5880309e-22 3:-6.3597979e-21 4:-4.0849628e-17 5:-1.9290873e-16 6:-4.2165707e-13 7:-1.8454854e-13 8:-1.6226459e-12 9:3.9704502e-13 10:4.9107771e-14 
1 
1 
1 1:146580.41 2:4320.9644 3:16463.559 4:-6783.8644 5:-6024.1393 6:-950.9016 7:18409.923 8:-2630.3465 9:13820.515 10:3267.9992 
1 
1 
1 1:146580.41 2:4320.9644 3:16463.559 4:-6783.8644 5:-6024.1393 6:-950.9016 7:18409.923 8:-2630.3465 9:13820.515 10:3267.9992 
-1 
-1 3:5.9552287e-42 4:6.1458046e-37 5:1.0070341e-35 6:2.7198436e-31 7:8.5769249e-31 8:1.3717401e-28 9:4.6430109e-30 10:4.8939566e-31 
-1 
1 
1 1:151450.82 2:4849.7239 3:18697.524 4:-8045.0456 5:-7282.1436 6:-1205.7011 7:23830.315 8:-3451.6086 9:18208.904 10:4351.3634 
-1 
-1 
-1 
-1 1:5324.768 2:1285.8401 3:-4531.6126 4:-4730.2292 5:48527.764 6:-2703.0134 7:57115.681 8:39418.797 9:-61058.143 10:997.47227 
1 
1 1:146885.62 2:4432.3345 3:16982.113 4:-7182.9726 5:-6475.0352 6:-1075.4571 7:21479.688 8:-3148.2196 9:16683.295 10:4045.2874 
-1 1:8.4141551e-40 2:1.2126061e-26 3:-4.4417156e-25 4:-2.6594909e-20 5:-2.9867012e-19 6:-5.7867057e-15 7:-9.67414e-15 8:-1.6894849e-12 9:-1.3941548e-13 10:-4.6411794e-15 
1 
1 1:778.63076 2:796.1402 3:4850.0843 4:81049.347 5:9318.2431 6:-3017.4652 7:-28042.372 8:80349.346 9:26102.291 10:-629.93844 
-1 
-1 1:3.4391916e-29 2:6.4416194e-20 3:-8.4958943e-20 4:5.5487057e-15 5:2.4444035e-14 6:3.2480462e-11 7:1.0337253e-11 8:-2.0324773e-12 9:-2.4326418e-11 10:-2.0756647e-12 
-1 
-1 
-1 1:6069.1683 2:1953.1138 3:-4209.7581 4:-10186.455 5:76786.553 6:3590.0048 7:-74873.763 8:-44756.883 9:66040.691 10:5957.5206 
1 
1 1:157687.03 2:6635.5323 3:28344.935 4:93976.769 5:1875.1307 6:-23176.581 7:20874.749 8:-39665.239 9:-4348.4811 10:2465.9198 
1 1:151298.79 2:4796.7551 3:18453.76 4:-7867.9159 5:-7088.8386 6:-1158.5227 7:22755.923 8:-3281.8788 9:17291.111 10:4117.8333 
1 
1 1:-7.1926507e-14 2:2.2342952e-11 3:1.8423357e-11 4:3.6550384e-12 5:-2.371087e-12 6:-9.0255339e-12 7:8.9638899e-12 8:2.6652813e-11 9:9.6425788e-12 10:6.3799676e-12 
1 
1 1:160812.44 2:22069.396 3:-115457.71 4:5102.8578 5:-36619.004 6:95.940263 7:4309.153 8:-2440.5411 9:8268.109 10:-4710.7241 
-1 1:19265.84 2:20135.605 3:-146072.14 4:12833.426 5:-36927.834 6:1099.343 7:-13780.43 8:-306.79221 9:-4056.2821 10:-9349.1177 
-1 
1 1:147602.04 2:-57853.46 3:8613.2902 4:-4973.4368 5:-8207.9844 6:-694.79464 7:14608.355 8:-2623.2092 9:13185.667 10:-16203.56 
1 1:147472.19 2:5216.8838 3:10329.234 4:-10692.592 5:43290.264 6:-3509.4007 7:72573.433 8:37224.142 9:-49547.912 10:3706.4048 
-1 1:0.77832821 2:19.132651 3:158.77837 4:8045.0097 5:1597.5696 6:125589.4 7:16384.598 8:-25256.441 9:-6178.184 10:367.34381 
-1 1:8.4141551e-40 2:1.2126061e-26 3:-4.4417156e-25 4:-2.6594909e-20 5:-2.9867012e-19 6:-5.7867057e-15 7:-9.67414e-15 8:-1.6894849e-12 9:-1.3941548e-13 10:-4.6411794e-15 
1 1:13.67537 2:57.3515 3:389.91634 4:8639.4731 5:1029.0998 6:-9237.2556 7:1977.0913 8:-53387.084 9:-32669.704 10:-3298.3343 
-1 
1 
1 
1 1:156173.94 2:5330.7686 3:20714.014 4:-9153.5023 5:-8375.876 6:-1421.7771 7:28381.505 8:-4136.8363 9:21863.715 10:5249.3932 
1 1:-8.8556981e-38 2:-7.79845e-24 3:2.0097501e-22 4:3.9990385e-18 5:2.8926069e-17 6:1.8929581e-13 7:1.8561832e-13 8:2.0997041e-11 9:1.4847448e-12 10:2.9180559e-14 
1 
1 
-1 
-1 1:1.9738658e-26 2:1.3871606e-17 3:-1.3086998e-16 4:-9.4442939e-14 5:-1.6439297e-13 6:-4.490231e-12 7:5.2229762e-12 8:8.5023486e-12 9:-1.6683107e-11 10:-1.5599354e-12 
1 
-1 
-1 3:-3.0751863e-37 4:2.5346346e-33 5:2.7611822e-29 6:6.7308236e-23 7:6.5104983e-22 8:3.5424962e-19 9:4.0916031e-20 10:3.3166488e-21 
-1 
1 1:151450.82 2:4849.7239 3:18697.524 4:-8045.0456 5:-7282.1436 6:-1205.7011 7:23830.315 8:-3451.6086 9:18208.904 10:4351.3634 
1 1:25.89752 2:98.51209 3:666.92473 4:15414.833 5:2000.453 6:-842.87101 7:-8665.5854 8:26455.336 9:8752.7732 10:-221.38403 
1 1:25.89752 2:98.51209 3:666.92473 4:15414.833 5:2000.453 6:-842.87101 7:-8665.5854 8:26455.336 9:8752.7732 10:-221.38403 
1 
1 
1 
1 3:2.3546682e-27 4:3.9965401e-22 5:6.8278271e-21 6:3.7131896e-16 7:1.0000892e-15 8:2.4598551e-13 9:2.2598747e-14 10:1.0151219e-15 
-1 1:4738.2028 2:501.29078 3:2121.2662 4:-1220.6101 5:-1237.5356 6:-269.0698 7:6021.9357 8:-953.5651 9:5173.0633 10:1336.3549 
-1 
